svm_type c_svc
kernel_type rbf
gamma 0.027777777777777776
nr_class 7
total_sv 1152
rho -0.59937618724681618 -0.31208461671214355 -0.54836724402973436 -1.1024658470681887 -0.54428623791103903 -0.68868366179661233 0.43295114545866115 -0.30896504988220319 -0.081620437727570674 -0.29864226870812566 -0.43851030133234364 -0.52403819090937465 -0.3826794525483263 -0.35553926084259296 -0.60007022027202972 -0.015408754348754883 0.26720621758212171 0.32816772648081349 0.097096888554717722 -0.011377371440840648 -0.29813832790798384
label 0 1 2 3 4 5 6
nr_sv 81 208 23 169 71 257 343
SV
0 0.74615510017412845 0 0 0 0 1:1 2:-0.112021 3:-0.0420433 4:-0.968742 5:-0.717233 6:-0.434557 7:0.444214 8:-0.675499 9:-0.730214 10:0.164371 11:-0.0807279 12:-0.113464 13:0.96264 14:0.852402 15:0.140412 16:-0.605288 17:-0.95386 18:-0.575909 19:0.29058 20:-0.896374 21:-0.563772 22:0.398535 23:-0.201618 24:0.575267 25:-0.404639 26:-0.42022 27:-0.432502 28:-0.151952 29:0.136149 30:-0.285003 31:-0.111022 32:0.15538 33:-0.251055 34:0.444006 35:0.281279 36:-0.0558936 
0 0.079042805270685204 0 0 0 0 1:0.975185 2:-0.301086 3:-0.162828 4:-0.935746 5:-0.924966 6:-0.728313 7:0.378885 8:-0.518977 9:-0.823156 10:0.164285 11:-0.233375 12:-0.724514 13:0.944676 14:0.740032 15:0.0536842 16:-0.565605 17:-0.954782 18:-0.220905 19:0.265697 20:-0.930178 21:-0.243749 22:0.715086 23:-0.0810704 24:0.450562 25:0.247662 26:0.345171 27:-0.496548 28:-0.288471 29:0.349692 30:-0.403565 31:-0.289352 32:0.369377 33:-0.349598 34:-0.270438 35:-0.0717706 36:0.455784 
0.81508734324037435 1 0 0 0 0 1:0.716347 2:-0.55106 3:0.133575 4:-0.529475 5:-0.778237 6:-0.618266 7:-0.156251 8:-0.0402379 9:-0.780985 10:0.529062 11:-0.626566 12:-1 13:0.571641 14:0.460905 15:0.558891 16:-0.167407 17:-0.904841 18:-0.0651206 19:-0.251349 20:-0.93818 21:0.296285 22:0.806418 23:-0.673137 24:0.234395 25:-0.324247 26:0.873848 27:0.173901 28:-0.570313 29:0.524821 30:0.61592 31:-0.537367 32:0.636348 33:0.557891 34:0.0317781 35:0.489025 36:1 
1 1 0.68343805764704035 0 1 0.99113679044887937 1:0.639089 2:-0.705839 3:0.134415 4:-0.71034 5:-0.970264 6:-0.734473 7:-0.37439 8:0.226558 9:-0.835451 10:0.19202 11:-0.456169 12:-0.698867 13:0.59333 14:0.121993 15:0.871174 16:-0.0862734 17:-0.965424 18:-0.828981 19:-0.177317 20:-0.944266 21:0.113047 22:0.390166 23:-0.37971 24:0.730439 25:0.0382579 26:-0.281095 27:-0.0499139 28:-0.896376 29:0.0336861 30:0.959896 31:-0.88986 32:0.0413582 33:0.892062 34:0.619228 35:0.663767 36:0.916371 
1 1 1 0 0 1 1:0.779953 2:-0.592775 3:-0.232293 4:-0.911542 5:-0.961895 6:-0.822299 7:-0.141844 8:-0.0201848 9:-0.81507 10:0.136978 11:-0.106617 12:-0.609979 13:1 14:0.175514 15:0.404377 16:-0.633065 17:-0.967907 18:-0.740979 19:0.374897 20:-0.95697 21:-0.541293 22:0.645002 23:-0.764221 24:0.647883 25:0.215756 26:-0.374299 27:-0.399017 28:-0.942441 29:-0.602119 30:-0.262788 31:-0.941524 32:-0.587198 33:-0.237122 34:0.437544 35:0.52655 36:0.0626802 
0.40560351420890323 0 0 0 0 0 1:0.890356 2:-0.356009 3:-0.0692284 4:-0.840256 5:-0.801645 6:-0.468188 7:0.165538 8:-0.393648 9:-0.740803 10:0.316254 11:0.148284 12:-0.100167 13:0.946693 14:0.389395 15:0.44773 16:-0.708631 17:-0.980726 18:-0.73356 19:0.194195 20:-0.987372 21:-0.487969 22:0.448974 23:-1 24:0.809981 25:0.240955 26:0.072942 27:0.284584 28:-0.961458 29:-0.649296 30:-0.482814 31:-0.960908 32:-0.647633 33:-0.493641 34:0.422969 35:0.578954 36:-0.295821 
1 0 1 0 0 0.90648623724021438 1:0.898759 2:-0.404728 3:0.210488 4:-0.910448 5:-0.749856 6:-0.850772 7:0.164936 8:-0.297148 9:-0.836726 10:0.294007 11:-0.125554 12:-0.417135 13:0.712134 14:0.25476 15:0.773434 16:-0.780747 17:-0.960531 18:-0.867905 19:-0.355925 20:-0.964602 21:-0.123475 22:0.490993 23:-0.695933 24:0.72873 25:0.29421 26:0.134005 27:0.511976 28:-0.969498 29:-0.604743 30:-0.523369 31:-0.969457 32:-0.600743 33:-0.501989 34:0.513231 35:0.527012 36:-0.246258 
1 1 1 0 1 1 1:0.815551 2:-0.536967 3:0.265662 4:-0.955357 5:-0.896897 6:-0.875742 7:-0.0699776 8:-0.109925 9:-0.795278 10:0.168109 11:-0.146544 12:-0.495312 13:0.716408 14:0.146933 15:0.781084 16:-0.845679 17:-0.968856 18:-0.870362 19:-0.382933 20:-0.951922 21:-0.111117 22:0.563144 23:-0.592929 24:0.704238 25:0.556414 26:0.241603 27:-0.127949 28:-0.967955 29:-0.720146 30:-0.746845 31:-0.963972 32:-0.709578 33:-0.745618 34:0.537493 35:0.446627 36:-0.014881 
0 0 0 0.86382958763964512 0 0 1:0.815239 2:0.218721 3:0.724184 4:-0.956351 5:-0.969275 6:-0.966136 7:-0.0710938 8:-0.973834 9:0.0698189 10:0.0289672 11:-0.220707 12:-0.559946 13:0.381865 14:0.496931 15:0.946896 16:-0.865915 17:-0.947513 18:-0.975752 19:-0.83032 20:-0.963788 21:0.141699 22:0.419022 23:-0.439793 24:0.72734 25:-0.0238765 26:-0.186058 27:-0.0665248 28:-0.922712 29:-0.906844 30:-0.788872 31:-0.912977 32:-0.903994 33:-0.791185 34:0.716267 35:0.59177 36:0.0256717 
0 0 0 1 0 0 1:0.686932 2:0.177631 3:0.805575 4:-0.866488 5:-0.995837 6:-0.958575 7:-0.332842 8:-0.970544 9:0.321344 10:0.0291343 11:-0.265416 12:-0.573324 13:0.393026 14:0.346984 15:0.980793 16:-0.988889 17:-0.999085 18:-0.998825 19:-0.887282 20:-0.997576 21:0.200201 22:0.571789 23:-0.366104 24:0.705051 25:0.364755 26:0.0304367 27:0.141177 28:-0.995988 29:-0.989208 30:-0.994841 31:-0.995901 32:-0.988548 33:-0.99448 34:0.567095 35:0.526477 36:0.00850031 
0 0 0 1 0 0 1:0.440413 2:0.235622 3:0.930816 4:-0.895985 5:-0.995003 6:-0.98625 7:-0.746902 8:-0.987028 9:0.740924 10:0.0251481 11:-0.220119 12:-0.577131 13:0.368917 14:0.358155 15:0.985306 16:-0.999382 17:-0.999955 18:-0.999855 19:-0.911697 20:-0.998684 21:0.210173 22:0.574628 23:-0.362726 24:0.706048 25:0.33467 26:-0.0394664 27:0.0840043 28:-0.999886 29:-0.999687 30:-0.999899 31:-0.999884 32:-0.999687 33:-0.999891 34:0.554791 35:0.528867 36:0.00937954 
0 0 0 1 0 0 1:0.372425 2:0.260381 3:0.954245 4:-0.932374 5:-0.982471 6:-0.991225 7:-0.834241 8:-0.987471 9:0.826392 10:0.0398352 11:-0.203073 12:-0.58196 13:0.404683 14:0.346911 15:0.95488 16:-0.832281 17:-0.98788 18:-0.947663 19:-0.793635 20:-0.990385 21:0.187566 22:0.47216 23:-0.551696 24:0.729306 25:0.377012 26:0.00302599 27:0.313158 28:-0.951114 29:-0.818447 30:-0.475752 31:-0.951037 32:-0.818221 33:-0.484229 34:0.627249 35:0.519622 36:-0.172436 
0 0 0 1 0 0 1:0.380291 2:0.209276 3:0.948962 4:-0.935486 5:-0.976385 6:-0.99195 7:-0.827431 8:-0.973768 9:0.806058 10:0.0532808 11:-0.20106 12:-0.586382 13:0.408078 14:0.306184 15:0.95262 16:-0.813265 17:-0.986573 18:-0.946242 19:-0.780531 20:-0.986719 21:0.183608 22:0.465357 23:-0.559293 24:0.727925 25:0.338759 26:-0.0534998 27:0.391605 28:-0.947507 29:-0.813707 30:-0.454777 31:-0.947606 32:-0.813702 33:-0.455014 34:0.63407 35:0.513012 36:-0.177951 
0 0 0 1 0 0 1:0.424238 2:0.106979 3:0.928934 4:-0.959615 5:-0.986088 6:-0.994276 7:-0.787794 8:-0.936471 9:0.73017 10:0.0267345 11:-0.191413 12:-0.576742 13:0.480476 14:0.218596 15:0.939367 16:-0.93883 17:-0.99524 18:-0.99405 19:-0.777056 20:-0.98183 21:0.106493 22:0.530635 23:-0.40084 24:0.714408 25:0.274799 26:-0.215578 27:0.235168 28:-0.992539 29:-0.983278 30:-0.954553 31:-0.992313 32:-0.979148 33:-0.951667 34:0.571036 35:0.510676 36:-0.00917433 
0 0 0 1 0 0 1:0.467023 2:0.173451 3:0.906795 4:-0.900426 5:-0.876025 6:-0.994239 7:-0.714775 8:-0.926748 9:0.64936 10:-0.0934247 11:-0.198912 12:-0.555165 13:0.544447 14:0.269004 15:0.893473 16:-0.884819 17:-0.973692 18:-0.987322 19:-0.671972 20:-0.974749 21:0.00897124 22:0.452306 23:-0.400251 24:0.709216 25:0.549286 26:0.165725 27:-0.187352 28:-0.984367 29:-0.901516 30:-0.864229 31:-0.980602 32:-0.895873 33:-0.852178 34:0.60377 35:0.485285 36:-0.0361666 
0 0.68279056245467562 0 0 0.13501479554603896 0.052253637240361361 1:-0.162247 2:0.543507 3:0.643969 4:1 5:-0.736649 6:-0.44525 7:-0.217663 8:-0.858619 9:0.0972765 10:-1 11:1 12:-0.953946 13:-0.121308 14:0.602156 15:0.61324 16:0.387208 17:-0.948682 18:-0.808134 19:-0.156999 20:-0.953609 21:-0.34131 22:-0.0748297 23:0.73686 24:0.576248 25:0.718472 26:0.913693 27:-0.339659 28:-0.985385 29:-0.762418 30:-0.881913 31:-0.973499 32:-0.640794 33:-0.845457 34:0.601189 35:0.512464 36:0.0323119 
0 0 0 1 0 0 1:-0.211372 2:0.720624 3:0.882295 4:-0.708454 5:-0.937317 6:-0.974138 7:-0.753114 8:-0.811752 9:0.571675 10:-0.111529 11:-0.0672982 12:-0.64348 13:-0.169773 14:0.726512 15:0.894287 16:-0.747628 17:-0.984266 18:-0.979832 19:-0.72308 20:-0.952425 21:0.0179969 22:0.464767 23:-0.325509 24:0.688065 25:-0.0580156 26:-0.310426 27:-0.0310933 28:-0.977406 29:-0.908214 30:-0.49794 31:-0.965561 32:-0.89843 33:-0.513152 34:0.609369 35:0.609703 36:-0.0123044 
0 0 0 1 0 0 1:0.0561443 2:0.471405 3:0.973787 4:-0.898361 5:-0.872362 6:-0.994491 7:-0.964224 8:-0.9343 9:0.899755 10:-0.0678576 11:-0.146257 12:-0.628624 13:0.120724 14:0.515544 15:0.975748 16:-0.807714 17:-0.974186 18:-0.973518 19:-0.896883 20:-0.979591 21:0.212418 22:0.475692 23:-0.411114 24:0.698654 25:0.0608771 26:-0.213192 27:0.100498 28:-0.9669 29:-0.867236 30:-0.211691 31:-0.961246 32:-0.863231 33:-0.240715 34:0.644633 35:0.633648 36:-0.000880794 
0 0 0 1 0 0 1:0.185239 2:0.303697 3:0.989068 4:-0.931007 5:-0.996628 6:-0.997815 7:-0.958748 8:-0.997677 9:0.957809 10:0.0633556 11:-0.186494 12:-0.59118 13:0.258772 14:0.389328 15:0.992371 16:-0.914995 17:-0.987972 18:-0.975966 19:-0.929237 20:-0.992018 21:0.250483 22:0.548023 23:-0.389244 24:0.710802 25:0.412227 26:-0.309117 27:0.512184 28:-0.979487 29:-0.89162 30:-0.574278 31:-0.978994 32:-0.881932 33:-0.550984 34:0.594832 35:0.541305 36:-0.0472825 
0 0 0 1 0 0 1:0.508429 2:0.321323 3:0.871036 4:-0.567753 5:-0.994404 6:-0.926902 7:-0.54457 8:-0.997807 9:0.55473 10:0.0876081 11:-0.392057 12:-0.596699 13:0.589353 14:0.399556 15:0.856919 16:-0.695541 17:-0.990602 18:-0.90267 19:-0.509469 20:-0.993876 21:0.0114846 22:0.584019 23:-0.654209 24:0.694599 25:0.35996 26:-0.16941 27:0.267552 28:-0.949335 29:-0.711882 30:-0.771593 31:-0.949365 32:-0.709668 33:-0.773166 34:0.544365 35:0.577087 36:-0.0250012 
0 0 0 1 0 0 1:0.280413 2:0.413964 3:0.939545 4:-0.596462 5:-0.991959 6:-0.94599 7:-0.796435 8:-0.990302 9:0.792419 10:0.0215389 11:-0.345484 12:-0.579213 13:0.302701 14:0.473077 15:0.937308 16:-0.672226 17:-0.98791 18:-0.898302 19:-0.77868 20:-0.990982 21:0.194083 22:0.501295 23:-0.638695 24:0.715618 25:0.50168 26:-0.112788 27:0.443124 28:-0.950755 29:-0.424848 30:-0.367013 31:-0.948526 32:-0.4242 33:-0.363093 34:0.525302 35:0.50752 36:-0.309196 
0 0 0 1 0 0 1:0.400329 2:0.349133 3:0.899328 4:-0.558741 5:-0.951445 6:-0.894111 7:-0.67839 8:-0.982669 9:0.669866 10:0.162448 11:-0.434855 12:-0.629254 13:0.438084 14:0.436031 15:0.900833 16:-0.641968 17:-0.981824 18:-0.879346 19:-0.661416 20:-0.988191 21:0.129467 22:0.582247 23:-0.72495 24:0.704281 25:0.362718 26:-0.143849 27:0.0471149 28:-0.883937 29:-0.441239 30:-0.539113 31:-0.884084 32:-0.439854 33:-0.555667 34:0.3231 35:0.514835 36:-0.226135 
0 0 0 1 0 0 1:0.24601 2:0.255306 3:0.981955 4:-0.95878 5:-0.983496 6:-0.998708 7:-0.940713 8:-0.986947 9:0.92952 10:0.0391525 11:-0.181106 12:-0.586469 13:0.298249 14:0.356696 15:0.992065 16:-0.963071 17:-0.994053 18:-0.986934 19:-0.936862 20:-0.994832 21:0.239152 22:0.56692 23:-0.375002 24:0.709209 25:0.213701 26:-0.11529 27:0.666883 28:-0.93498 29:-0.889069 30:-0.782176 31:-0.93404 32:-0.88832 33:-0.717316 34:0.712497 35:0.572224 36:0.0543096 
0 0 0 1 0.79896511659883673 0 1:0.150525 2:0.212512 3:0.982157 4:-0.866186 5:-0.997039 6:-0.998461 7:-0.946759 8:-0.981964 9:0.930423 10:0.0663547 11:-0.156538 12:-0.589081 13:0.19949 14:0.318154 15:0.9879 16:-0.887836 17:-0.997279 18:-0.994754 19:-0.93277 20:-0.994551 21:0.221419 22:0.569166 23:-0.340126 24:0.706086 25:0.317202 26:-0.0271278 27:0.00501374 28:-0.992855 29:-0.691128 30:-0.971131 31:-0.992857 32:-0.69114 33:-0.970564 34:0.573015 35:0.523254 36:0.0165465 
0 0 0 1 0.26961080021775519 0 1:0.355239 2:0.441919 3:0.872086 4:-0.424022 5:-0.701713 6:-0.904871 7:-0.677921 8:-0.882057 9:0.568786 10:0.628898 11:-0.40695 12:-0.838174 13:0.416545 14:0.496127 15:0.861527 16:-0.602775 17:-0.954116 18:-0.930414 19:-0.660325 20:-0.968074 21:-0.00548363 22:0.849996 23:-0.643833 24:0.599835 25:0.201145 26:-0.298428 27:-0.569189 28:-0.857505 29:-0.571357 30:-0.797324 31:-0.856477 32:-0.562459 33:-0.708917 34:0.380164 35:0.660261 36:-0.0133267 
0 0 0 1 0 0 1:0.467664 2:0.675039 3:0.84748 4:-0.693589 5:-0.862385 6:-0.923775 7:-0.643638 8:-0.822316 9:0.475663 10:0.131381 11:-0.322312 12:-0.703163 13:0.519063 14:0.696479 15:0.849322 16:-0.75958 17:-0.966731 18:-0.930318 19:-0.636615 20:-0.948077 21:-0.0312275 22:0.594515 23:-0.587832 24:0.637225 25:0.350517 26:-0.00815505 27:-0.553848 28:-0.820566 29:-0.776215 30:-0.706025 31:-0.82089 32:-0.776106 33:-0.625385 34:0.455649 35:0.740425 36:0.0556666 
0 0 0 1 0 0 1:0.160873 2:0.698127 3:0.927545 4:-0.753465 5:-0.896288 6:-0.994858 7:-0.905885 8:-0.816118 9:0.724766 10:-0.147593 11:-0.149183 12:-0.620812 13:0.202035 14:0.725189 15:0.94638 16:-0.796042 17:-0.965514 18:-0.983676 19:-0.883037 20:-0.940715 21:0.132848 22:0.40735 23:-0.32071 24:0.67573 25:0.130282 26:0.157988 27:0.44665 28:-0.920218 29:-0.87472 30:-0.6908 31:-0.917226 32:-0.869497 33:-0.674402 34:0.705337 35:0.467526 36:-0.0113068 
0 0 0 1 0 0 1:0.0592619 2:0.623828 3:0.95896 4:-0.929471 5:-0.889406 6:-0.992156 7:-0.975066 8:-0.867882 9:0.843885 10:-0.0775258 11:-0.146959 12:-0.633769 13:0.110954 14:0.662794 15:0.962342 16:-0.90569 17:-0.972847 18:-0.985793 19:-0.9489 20:-0.958904 21:0.168464 22:0.456216 23:-0.317249 24:0.685129 25:0.091617 26:-0.0641438 27:0.428576 28:-0.950267 29:-0.933188 30:-0.772582 31:-0.945878 32:-0.933117 33:-0.755925 34:0.648884 35:0.411459 36:-0.0455178 
0 0 0 1 0 0 1:0.174537 2:0.599618 3:0.965441 4:-0.934318 5:-0.946033 6:-0.994627 7:-0.963407 8:-0.902857 9:0.867514 10:0.104547 11:-0.190586 12:-0.61433 13:0.220192 14:0.660297 15:0.953638 16:-0.933273 17:-0.983144 18:-0.983354 19:-0.952047 20:-0.965985 21:0.150204 22:0.56234 23:-0.360317 24:0.683207 25:0.510677 26:-0.0320317 27:-0.119385 28:-0.960194 29:-0.923125 30:-0.855653 31:-0.957697 32:-0.923125 33:-0.851226 34:0.600926 35:0.46026 36:0.0363534 
0 0 0 1 0 0 1:0.284908 2:0.447039 3:0.948158 4:-0.922966 5:-0.74003 6:-0.995188 7:-0.904345 8:-0.894334 9:0.801492 10:-0.042871 11:-0.188211 12:-0.603988 13:0.335947 14:0.485546 15:0.937655 16:-0.84298 17:-0.911258 18:-0.970925 19:-0.850658 20:-0.941198 21:0.124829 22:0.367014 23:-0.38476 24:0.660183 25:0.0500813 26:-0.170719 27:0.483036 28:-0.881544 29:-0.865607 30:-0.0496683 31:-0.875591 32:-0.863331 33:-0.0509121 34:0.622809 35:0.115683 36:0.0195276 
0 0 0 1 0.98221643858861984 0 1:0.441815 2:0.110837 3:0.908513 4:-0.87984 5:-0.916724 6:-0.983109 7:-0.739702 8:-0.913946 9:0.660824 10:-0.0617683 11:-0.227662 12:-0.554374 13:0.511459 14:0.176258 15:0.912735 16:-0.837474 17:-0.960951 18:-0.967382 19:-0.687467 20:-0.952646 21:0.0712328 22:0.426858 23:-0.446329 24:0.690752 25:-0.0974094 26:-0.247864 27:0.575732 28:-0.91645 29:-0.882836 30:-0.19336 31:-0.90219 32:-0.87706 33:-0.171445 34:0.620225 35:0.213084 36:0.0106325 
0 0 0 1 0 0 1:0.654784 2:-0.0339404 3:0.791908 4:-0.911955 5:-0.99017 6:-0.971114 7:-0.412734 8:-0.843392 9:0.271953 10:0.0192544 11:-0.235653 12:-0.56497 13:0.739557 14:0.0852751 15:0.789215 16:-0.939839 17:-0.997222 18:-0.977031 19:-0.390239 20:-0.955753 21:-0.198206 22:0.551759 23:-0.441269 24:0.711453 25:0.203221 26:-0.233808 27:0.0425482 28:-0.995067 29:-0.958902 30:-0.986071 31:-0.993807 32:-0.953873 33:-0.986065 34:0.57739 35:0.52745 36:0.0145207 
0 0 0 0 0.28474864817190337 0 1:0.757876 2:-0.089492 3:0.719579 4:-0.998832 5:-0.999085 6:-0.999014 7:-0.223145 8:-0.797043 9:0.0410316 10:0.0615755 11:-0.173404 12:-0.589048 13:0.846182 14:0.0400926 15:0.715453 16:-0.996075 17:-0.999568 18:-0.997047 19:-0.200036 20:-0.944856 21:-0.35503 22:0.572424 23:-0.366731 24:0.705597 25:0.292497 26:-0.0669833 27:0.11014 28:-0.998086 29:-0.989124 30:-0.998826 31:-0.997978 32:-0.989027 33:-0.99879 34:0.561677 35:0.527986 36:0.00850684 
0.84406586227514802 0 0 0 1 0 1:0.750929 2:-0.100173 3:0.721702 4:-0.999544 5:-0.999931 6:-0.999834 7:-0.239293 8:-0.787032 9:0.0467393 10:0.0627733 11:-0.172418 12:-0.590301 13:0.833101 14:0.0330852 15:0.727672 16:-0.999196 17:-0.999968 18:-0.999683 19:-0.230651 20:-0.943047 21:-0.335715 22:0.57488 23:-0.363408 24:0.706038 25:0.322231 26:-0.0317584 27:0.0909636 28:-0.999895 29:-0.99895 30:-0.999869 31:-0.999891 32:-0.998942 33:-0.999874 34:0.554108 35:0.529052 36:0.00916643 
1 0 0 0 1 1 1:0.747917 2:-0.105089 3:0.722364 4:-0.999684 5:-0.999978 6:-0.999853 7:-0.246186 8:-0.782217 9:0.0486344 10:0.0625997 11:-0.172345 12:-0.590213 13:0.828433 14:0.0292347 15:0.729413 16:-0.999348 17:-0.999977 18:-0.999697 19:-0.240932 20:-0.941902 21:-0.332585 22:0.574777 23:-0.363287 24:0.706066 25:0.322652 26:-0.0318259 27:0.0903184 28:-0.999898 29:-0.998948 30:-0.999869 31:-0.999894 32:-0.99894 33:-0.999874 34:0.554106 35:0.529053 36:0.00916746 
1 0 0.56197176221227274 0 1 0.28229026967172172 1:0.750445 2:-0.106654 3:0.719941 4:-0.999996 5:-0.999998 6:-0.999999 7:-0.240547 8:-0.780675 9:0.0416031 10:0.0625839 11:-0.172075 12:-0.590215 13:0.831597 14:0.0279291 15:0.726871 16:-0.999967 17:-0.999994 18:-0.999978 19:-0.23436 20:-0.94152 21:-0.337443 22:0.574944 23:-0.362228 24:0.705963 25:0.329242 26:-0.0399842 27:0.0925028 28:-0.999998 29:-0.999979 30:-0.999996 31:-0.999998 32:-0.999979 33:-0.999995 34:0.554437 35:0.528956 36:0.00946425 
0 0 0 1 0 0 1:0.698141 2:-0.00412333 3:0.784975 4:-0.989284 5:-0.998248 6:-0.995426 7:-0.351281 8:-0.869957 9:0.238696 10:0.0567106 11:-0.180994 12:-0.586375 13:0.767731 14:0.123769 15:0.79907 16:-0.97694 17:-0.999009 18:-0.993985 19:-0.355351 20:-0.966214 21:-0.19518 22:0.562761 23:-0.391835 24:0.710582 25:0.353075 26:-0.0523518 27:0.0790464 28:-0.996256 29:-0.976106 30:-0.985965 31:-0.996221 32:-0.976088 33:-0.98645 34:0.569504 35:0.519543 36:-0.00568205 
0 0 0 1 0 0 1:0.707013 2:-0.0121941 3:0.779136 4:-0.999931 5:-0.999994 6:-0.999967 7:-0.336155 8:-0.864352 9:0.218365 10:0.0625496 11:-0.172133 12:-0.590192 13:0.785197 14:0.112143 15:0.787575 16:-0.999548 17:-0.999983 18:-0.999833 19:-0.332268 20:-0.964147 21:-0.223406 22:0.574787 23:-0.362842 24:0.706038 25:0.328115 26:-0.0491039 27:0.0951442 28:-0.999986 29:-0.999689 30:-0.999968 31:-0.999986 32:-0.999678 33:-0.999966 34:0.554542 35:0.528933 36:0.00938715 
0 0 0 1 0 0 1:0.706265 2:-0.0119496 3:0.779709 4:-0.999996 5:-1 6:-0.999999 7:-0.337768 8:-0.864544 9:0.220128 10:0.0625821 11:-0.172075 12:-0.590214 13:0.785679 14:0.111594 15:0.787232 16:-0.999984 17:-0.999995 18:-0.999988 19:-0.331518 20:-0.964025 21:-0.224224 22:0.574951 23:-0.362182 24:0.70595 25:0.330282 26:-0.0382155 27:0.0917408 28:-0.999998 29:-0.999992 30:-0.999996 31:-0.999998 32:-0.999991 33:-0.999996 34:0.554432 35:0.528955 36:0.00946652 
0 0 0 1 0 0 1:0.714879 2:0.032172 3:0.777708 4:-0.968457 5:-0.992652 6:-0.984262 7:-0.308616 8:-0.894157 9:0.221363 10:0.0409361 11:-0.200376 12:-0.574775 13:0.787887 14:0.151843 15:0.78437 16:-0.956634 17:-0.997802 18:-0.985049 19:-0.303769 20:-0.971507 21:-0.215383 22:0.549657 23:-0.427853 24:0.718028 25:0.376934 26:0.017143 27:0.0750639 28:-0.997222 29:-0.936486 30:-0.975522 31:-0.997053 32:-0.936058 33:-0.976367 34:0.56453 35:0.524997 36:-0.0255437 
0 0 0 1 0 0 1:0.66377 2:0.0739282 3:0.819449 4:-0.970142 5:-0.996452 6:-0.987414 7:-0.414854 8:-0.921958 9:0.352592 10:0.0473306 11:-0.196707 12:-0.580356 13:0.742839 14:0.184232 15:0.818066 16:-0.958798 17:-0.998409 18:-0.986387 19:-0.394145 20:-0.978135 21:-0.149819 22:0.553489 23:-0.422876 24:0.716069 25:0.335494 26:0.0405791 27:0.0558268 28:-0.998165 29:-0.946951 30:-0.980853 31:-0.998167 32:-0.946091 33:-0.981285 34:0.561847 35:0.526205 36:-0.0188658 
0 0 0 1 0 0 1:0.623702 2:0.0918634 3:0.848931 4:-0.992196 5:-0.999591 6:-0.99743 7:-0.498958 8:-0.933231 9:0.445743 10:0.0598142 11:-0.177792 12:-0.588667 13:0.699695 14:0.201652 15:0.855294 16:-0.988604 17:-0.999629 18:-0.996867 19:-0.489618 20:-0.981936 21:-0.0828295 22:0.569546 23:-0.377533 24:0.708313 25:0.321975 26:0.0343084 27:0.0566344 28:-0.999775 29:-0.989179 30:-0.99495 31:-0.99977 32:-0.988444 33:-0.994874 34:0.554619 35:0.528952 36:0.00268297 
0 0 0 1 0 0 1:0.611202 2:0.0960375 3:0.857289 4:-0.999994 5:-0.999999 6:-0.999999 7:-0.524388 8:-0.935637 9:0.472906 10:0.0625808 11:-0.172076 12:-0.590214 13:0.686221 14:0.206307 15:0.866138 16:-0.999935 17:-0.999988 18:-0.999976 19:-0.519325 20:-0.982932 21:-0.0627333 22:0.5749 23:-0.362256 24:0.705968 25:0.330204 26:-0.0374727 27:0.0914462 28:-0.999996 29:-0.999949 30:-0.999986 31:-0.999996 32:-0.999948 33:-0.999987 34:0.554442 35:0.528953 36:0.00944385 
0 0 0 1 0 0 1:0.610167 2:0.0965165 3:0.857896 4:-0.999999 5:-0.999999 6:-1 7:-0.526252 8:-0.935894 9:0.474978 10:0.0625813 11:-0.172073 12:-0.590214 13:0.685996 14:0.206025 15:0.866251 16:-0.999992 17:-0.999994 18:-0.999991 19:-0.519746 20:-0.98289 21:-0.0625068 22:0.57495 23:-0.362186 24:0.705955 25:0.330491 26:-0.0383409 27:0.0915478 28:-0.999997 29:-0.999993 30:-0.999998 31:-0.999997 32:-0.999993 33:-0.999998 34:0.554437 35:0.528955 36:0.00946466 
0 0 0 1 0 0 1:0.609556 2:0.0968361 3:0.858259 4:-0.999999 5:-0.999999 6:-1 7:-0.527349 8:-0.936066 9:0.476217 10:0.0625822 11:-0.172073 12:-0.590214 13:0.685546 14:0.20603 15:0.866498 16:-0.999992 17:-0.999993 18:-0.999991 19:-0.520525 20:-0.98289 21:-0.0619761 22:0.574952 23:-0.362188 24:0.705951 25:0.329714 26:-0.0387622 27:0.0916595 28:-0.999997 29:-0.999993 30:-0.999997 31:-0.999997 32:-0.999993 33:-0.999997 34:0.554436 35:0.528955 36:0.00946518 
0 0 0 1 0 0 1:0.624568 2:0.111614 3:0.84778 4:-0.970339 5:-0.993522 6:-0.990417 7:-0.489931 8:-0.941448 9:0.445174 10:0.0459545 11:-0.193367 12:-0.58139 13:0.696533 14:0.2179 15:0.851792 16:-0.956194 17:-0.997155 18:-0.985651 19:-0.47785 20:-0.982951 21:-0.0794074 22:0.548323 23:-0.419043 24:0.716153 25:0.453845 26:0.0563875 27:0.0845123 28:-0.991646 29:-0.923017 30:-0.952156 31:-0.990452 32:-0.921786 33:-0.953909 34:0.593544 35:0.514698 36:-0.0350102 
0 0 0 1 0 0 1:-0.207776 2:0.378068 3:0.956229 4:-0.936535 5:-0.983651 6:-0.997148 7:-0.834221 8:-0.992226 9:0.831129 10:0.0917984 11:-0.155724 12:-0.582626 13:-0.157701 14:0.446136 15:0.94731 16:-0.889443 17:-0.984019 18:-0.976657 19:-0.810198 20:-0.989401 21:0.141796 22:0.599723 23:-0.409405 24:0.704134 25:0.377736 26:-0.118419 27:-0.401567 28:-0.992561 29:-0.783398 30:-0.715091 31:-0.992396 32:-0.782596 33:-0.67221 34:0.514114 35:0.515488 36:0.0709309 
0 0 0 1 0 0 1:-0.300214 2:0.330729 3:0.933086 4:-0.980832 5:-0.981559 6:-0.998374 7:-0.743033 8:-0.993476 9:0.743605 10:0.0892366 11:-0.164988 12:-0.582485 13:-0.269615 14:0.408683 15:0.942168 16:-0.944814 17:-0.985919 18:-0.993315 19:-0.719175 20:-0.990955 21:0.113718 22:0.584795 23:-0.367813 24:0.708193 25:0.424592 26:0.026327 27:-0.117968 28:-0.995007 29:-0.974104 30:-0.758378 31:-0.99431 32:-0.973521 33:-0.757665 34:0.554186 35:0.545215 36:-0.0226928 
0 0 0 1 0 0 1:-0.349324 2:0.395213 3:0.908794 4:-0.997095 5:-0.914346 6:-0.997961 7:-0.680263 8:-0.965801 9:0.65482 10:0.0561349 11:-0.169777 12:-0.606966 13:-0.325847 14:0.465292 15:0.911089 16:-0.973444 17:-0.978237 18:-0.965365 19:-0.659103 20:-0.9851 21:0.0694667 22:0.562203 23:-0.348462 24:0.661203 25:0.31082 26:-0.0156798 27:0.111247 28:-0.903928 29:-0.983952 30:-0.947091 31:-0.904091 32:-0.983876 33:-0.948951 34:0.593924 35:0.507398 36:-0.000439388 
0 0 0 1 0 0 1:-0.37502 2:0.354892 3:0.897013 4:-0.997102 5:-0.890933 6:-0.998739 7:-0.641253 8:-0.961097 9:0.612138 10:0.0723709 11:-0.170963 12:-0.602145 13:-0.344615 14:0.431495 15:0.887927 16:-0.979991 17:-0.975891 18:-0.967233 19:-0.635242 20:-0.984449 21:0.0161326 22:0.570427 23:-0.350823 24:0.662974 25:0.232257 26:-0.0177411 27:-0.0117902 28:-0.908032 29:-0.984901 30:-0.965974 31:-0.90746 32:-0.984837 33:-0.964898 34:0.593251 35:0.50092 36:-4.14346e-06 
0 0 0 1 1 0 1:-0.388947 2:0.230426 3:0.898821 4:-0.999762 5:-0.999995 6:-0.99996 7:-0.620072 8:-0.987595 9:0.618019 10:0.062606 11:-0.171947 12:-0.590204 13:-0.359597 14:0.326733 15:0.89863 16:-0.999529 17:-0.999979 18:-0.999076 19:-0.623072 20:-0.996906 21:0.0090633 22:0.575075 23:-0.361742 24:0.705981 25:0.327052 26:-0.0518212 27:0.0995281 28:-0.999951 29:-0.997305 30:-0.999496 31:-0.999951 32:-0.997286 33:-0.999499 34:0.55454 35:0.528937 36:0.0088861 
0 0 0 1 0.67207281137624686 0 1:-0.389115 2:0.231208 3:0.898826 4:-0.999999 5:-0.999999 6:-1 7:-0.619882 8:-0.98778 9:0.61802 10:0.0625815 11:-0.172072 12:-0.590214 13:-0.360941 14:0.326248 15:0.900966 16:-0.999969 17:-0.999997 18:-0.999994 19:-0.621242 20:-0.996883 21:0.0133763 22:0.574948 23:-0.362203 24:0.705954 25:0.329966 26:-0.0399585 27:0.0908721 28:-0.999998 29:-0.999991 30:-0.999985 31:-0.999998 32:-0.999991 33:-0.999986 34:0.554435 35:0.528954 36:0.00946163 
0 0 0 1 0.57878028297863582 0 1:-0.382959 2:0.246835 3:0.901863 4:-0.998065 5:-0.996318 6:-0.999665 7:-0.629071 8:-0.989867 9:0.629053 10:0.0666588 11:-0.171045 12:-0.588527 13:-0.350406 14:0.340489 15:0.902685 16:-0.992147 17:-0.999227 18:-0.999917 19:-0.633088 20:-0.997303 21:0.0172845 22:0.580654 23:-0.361911 24:0.706129 25:0.353019 26:-0.0719387 27:0.167003 28:-0.999246 29:-0.996909 30:-0.983136 31:-0.999206 32:-0.996772 33:-0.982492 34:0.55221 35:0.53332 36:0.00316117 
0 0 0 1 0 0 1:-0.382315 2:0.251694 3:0.902345 4:-0.997682 5:-0.996186 6:-0.999596 7:-0.629965 8:-0.990761 9:0.630817 10:0.0671329 11:-0.170839 12:-0.588334 13:-0.353685 14:0.343606 15:0.903848 16:-0.990047 17:-0.999177 18:-0.99984 19:-0.627009 20:-0.99745 21:0.0199565 22:0.581515 23:-0.361769 24:0.706213 25:0.325093 26:-0.037447 27:0.10095 28:-0.99878 29:-0.994068 30:-0.969079 31:-0.998781 32:-0.994067 33:-0.970197 34:0.550117 35:0.53689 36:-0.00250645 
0 0 0 1 0 0 1:-0.390219 2:0.235695 3:0.898515 4:-0.999555 5:-0.999373 6:-0.999914 7:-0.617951 8:-0.988587 9:0.616947 10:0.063382 11:-0.171823 12:-0.589865 13:-0.366017 14:0.328552 15:0.901325 16:-0.998111 17:-0.99989 18:-0.999911 19:-0.612397 20:-0.996973 21:0.0142557 22:0.575763 23:-0.362015 24:0.706092 25:0.300817 26:-0.00625456 27:0.025536 28:-0.99964 29:-0.997439 30:-0.988211 31:-0.999573 32:-0.997288 33:-0.987699 34:0.552709 35:0.531794 36:0.00455648 
0 0 0 1 0 0 1:-0.440054 2:0.263052 3:0.867059 4:-0.943108 5:-0.989569 6:-0.976183 7:-0.514104 8:-0.99042 9:0.517683 10:0.0562683 11:-0.125524 12:-0.591309 13:-0.406172 14:0.351531 15:0.864201 16:-0.949017 17:-0.998523 18:-0.986719 19:-0.521155 20:-0.997451 21:-0.0540913 22:0.578689 23:-0.297018 24:0.706332 25:0.508882 26:0.25308 27:-0.282273 28:-0.99077 29:-0.954741 30:-0.851505 31:-0.988262 32:-0.943265 33:-0.826316 34:0.565523 35:0.509479 36:-0.0644189 
0 0 0 0 0.77891337826260865 0 1:-0.627704 2:0.200681 3:0.720183 4:-0.85401 5:-0.963853 6:-0.919624 7:-0.0890501 8:-0.966825 9:0.0802895 10:0.155378 11:-0.0348164 12:-0.519253 13:-0.612384 14:0.295281 15:0.707929 16:-0.860634 17:-0.994396 18:-0.966751 19:-0.0609501 20:-0.990761 21:-0.339082 22:0.639154 23:-0.190309 24:0.730775 25:0.481875 26:0.179955 27:-0.27316 28:-0.988863 29:-0.941111 30:-0.839169 31:-0.987065 32:-0.934653 33:-0.815913 34:0.567363 35:0.510859 36:-0.0759655 
0 0 0 0 0.8902420476720263 0 1:-0.658855 2:0.128087 3:0.711441 4:-0.969213 5:-0.99652 6:-0.979722 7:-0.0510485 8:-0.950478 9:0.0269452 10:0.064303 11:-0.140259 12:-0.588072 13:-0.63339 14:0.223225 15:0.710497 16:-0.926208 17:-0.992995 18:-0.962644 19:-0.0465729 20:-0.981091 21:-0.330604 22:0.557701 23:-0.268562 24:0.680957 25:0.081129 26:-0.133233 27:0.399631 28:-0.943555 29:-0.95521 30:-0.846331 31:-0.938776 32:-0.954048 33:-0.831068 34:0.575946 35:0.418329 36:-0.029042 
0.22564313935181407 0 0 0 1 1 1:-0.627111 2:0.0884158 3:0.736346 4:-0.993956 5:-0.996013 6:-0.995696 7:-0.138051 8:-0.93007 9:0.0912338 10:0.0700282 11:-0.165602 12:-0.58387 13:-0.588635 14:0.19106 15:0.74519 16:-0.953816 17:-0.993857 18:-0.971618 19:-0.165194 20:-0.976426 21:-0.276664 22:0.569715 23:-0.306392 24:0.687585 25:0.312415 26:0.0395822 27:0.099396 28:-0.984214 29:-0.984762 30:-0.949023 31:-0.984221 32:-0.983919 33:-0.950886 34:0.528786 35:0.504116 36:0.0158525 
1 0 1 0 1 1 1:-0.652376 2:0.0581956 3:0.71104 4:-0.999981 5:-0.999997 6:-0.999987 7:-0.0778246 8:-0.913699 9:0.0162297 10:0.0625847 11:-0.172053 12:-0.590211 13:-0.632465 14:0.171557 15:0.711481 16:-0.99943 17:-0.999991 18:-0.999966 19:-0.0880129 20:-0.976805 21:-0.364874 22:0.575108 23:-0.36198 24:0.705972 25:0.328639 26:-0.0467661 27:0.0973895 28:-0.999988 29:-0.999639 30:-0.999763 31:-0.999988 32:-0.999632 33:-0.999763 34:0.554555 35:0.528898 36:0.00920691 
0 0 0 0 1 0 1:-0.65503 2:0.113403 3:0.714333 4:-0.994186 5:-0.971072 6:-0.993721 7:-0.0691889 8:-0.934418 9:0.0285439 10:0.0726584 11:-0.164539 12:-0.576499 13:-0.635709 14:0.218221 15:0.713154 16:-0.975628 17:-0.996224 18:-0.997766 19:-0.0675002 20:-0.982403 21:-0.359796 22:0.589936 23:-0.350537 24:0.708792 25:0.317471 26:0.079412 27:0.130301 28:-0.998716 29:-0.970428 30:-0.781167 31:-0.998706 32:-0.968528 33:-0.788892 34:0.55474 35:0.535062 36:-0.0424379 
0.3752962887828879 0.61156380781558328 0.55716890367651073 0 0.98867831754182378 0.57935667697774762 1:-0.788269 2:0.0585229 3:0.569031 4:-0.999692 5:-0.99991 6:-0.999505 7:0.29456 8:-0.913872 9:-0.34612 10:0.0628088 11:-0.171574 12:-0.589924 13:-0.77676 14:0.174105 15:0.567736 16:-0.998937 17:-0.999965 18:-0.999763 19:0.289202 20:-0.97727 21:-0.592962 22:0.575157 23:-0.361721 24:0.70607 25:0.340727 26:-0.00878211 27:0.0703956 28:-0.999964 29:-0.999277 30:-0.998275 31:-0.999955 32:-0.999148 33:-0.998244 34:0.554686 35:0.528732 36:0.00860243 
0 0.40249868737435324 0 0 0 0 1:-0.957934 2:0.310869 3:0.142292 4:-0.944941 5:-0.962952 6:-0.733315 7:0.866368 8:-0.986245 9:-0.830404 10:0.0242042 11:-0.0402128 12:-0.709309 13:-0.949314 14:0.386212 15:0.123678 16:-0.917771 17:-0.985296 18:-0.879274 19:0.868881 20:-0.990234 21:-0.862192 22:0.519107 23:-0.261579 24:0.631348 25:0.242507 26:-0.288371 27:0.371494 28:-0.893346 29:-0.556975 30:-0.808702 31:-0.892953 32:-0.54876 33:-0.798468 34:0.833792 35:0.516932 36:0.137244 
0 0.019894712376479259 0 0 0 0 1:-0.44179 2:0.50778 3:0.609688 4:0.553248 5:-0.947295 6:-0.517608 7:-0.0024313 8:-0.948198 9:-0.0226648 10:0.2958 11:0.839443 12:-0.495526 13:-0.455259 14:0.558259 15:0.595037 16:0.128936 17:-0.984759 18:-0.837072 19:0.142624 20:-0.982356 21:-0.396553 22:0.649901 23:0.317421 24:0.716907 25:0.0637517 26:-0.626909 27:0.104958 28:-0.974162 29:-0.113905 30:-0.221412 31:-0.968615 32:-0.0678936 33:-0.250056 34:0.44632 35:0.598454 36:-0.457751 
0 0 0 1 0 0 1:0.00362757 2:0.475431 3:0.966205 4:-0.779073 5:-0.93874 6:-0.988789 7:-0.91416 8:-0.956489 9:0.873209 10:0.13954 11:-0.192768 12:-0.623715 13:0.0359132 14:0.531415 15:0.933691 16:-0.744011 17:-0.983136 18:-0.944266 19:-0.84866 20:-0.984005 21:0.141375 22:0.580962 23:-0.452432 24:0.676601 25:0.15562 26:-0.398082 27:-0.142249 28:-0.973571 29:-0.31598 30:-0.299315 31:-0.971222 32:-0.298887 33:-0.313153 34:0.464886 35:0.59852 36:-0.369241 
0 0 0 1 0 0 1:0.0589123 2:0.396008 3:0.985733 4:-0.851666 5:-0.993604 6:-0.999507 7:-0.948594 8:-0.993674 9:0.94392 10:0.0628973 11:-0.18014 12:-0.589674 13:0.117526 14:0.457343 15:0.996275 16:-0.869269 17:-0.992535 18:-0.993366 19:-0.92974 20:-0.994552 21:0.243291 22:0.550555 23:-0.384466 24:0.709324 25:0.39233 26:-0.258537 27:0.0512702 28:-0.987476 29:-0.907422 30:-0.871319 31:-0.987194 32:-0.901034 33:-0.875711 34:0.603879 35:0.502742 36:-0.0143896 
0 0 0 1 0 0 1:0.0884229 2:0.583355 3:0.946395 4:-0.75083 5:-0.851634 6:-0.991385 7:-0.915267 8:-0.878861 9:0.796649 10:-0.0198813 11:-0.157529 12:-0.641849 13:0.127786 14:0.620651 15:0.942687 16:-0.732154 17:-0.968117 18:-0.973338 19:-0.856559 20:-0.963265 21:0.134199 22:0.501464 23:-0.389352 24:0.67514 25:0.405632 26:-0.167043 27:-0.570048 28:-0.91794 29:-0.845724 30:-0.551405 31:-0.917652 32:-0.843577 33:-0.471808 34:0.570342 35:0.524049 36:-0.122638 
0 0 0 1 0 0 1:-0.0515241 2:0.683789 3:0.938231 4:-0.855257 5:-0.938717 6:-0.993954 7:-0.919929 8:-0.842518 9:0.764841 10:0.125132 11:-0.179251 12:-0.618022 13:-0.0301816 14:0.726577 15:0.928022 16:-0.842651 17:-0.989155 18:-0.978462 19:-0.874947 20:-0.955546 21:0.0953379 22:0.609331 23:-0.410905 24:0.683597 25:0.339864 26:0.020423 27:-0.543724 28:-0.929592 29:-0.931619 30:-0.666567 31:-0.929725 32:-0.93114 33:-0.590229 34:0.524287 35:0.542702 36:-0.0793655 
0 0 0 1 0 0 1:-0.0899884 2:0.608842 3:0.965813 4:-0.998471 5:-0.999968 6:-0.999966 7:-0.94843 8:-0.916343 9:0.866421 10:0.0625172 11:-0.171787 12:-0.590232 13:-0.0566749 14:0.663971 15:0.968674 16:-0.995766 17:-0.999791 18:-0.998796 19:-0.942505 20:-0.975961 21:0.171034 22:0.574071 23:-0.36113 24:0.705578 25:0.328201 26:-0.0496313 27:0.096338 28:-0.999593 29:-0.995928 30:-0.999398 31:-0.999593 32:-0.995916 33:-0.999414 34:0.555607 35:0.528783 36:0.00927821 
0 0 0 1 0 0 1:-0.107041 2:0.614295 3:0.962212 4:-0.998065 5:-0.99995 6:-0.99994 7:-0.937734 8:-0.912963 9:0.852627 10:0.0621365 11:-0.171638 12:-0.590294 13:-0.0711914 14:0.663044 15:0.967579 16:-0.99777 17:-0.999914 18:-0.999887 19:-0.934715 20:-0.976218 21:0.16736 22:0.574196 23:-0.361484 24:0.705886 25:0.329116 26:-0.0178408 27:0.0915224 28:-0.999969 29:-0.999714 30:-0.999862 31:-0.999969 32:-0.999649 33:-0.999867 34:0.554481 35:0.528903 36:0.00941459 
0 0 0 1 0 0 1:-0.126288 2:0.61732 3:0.958527 4:-0.999737 5:-0.999991 6:-0.999991 7:-0.925194 8:-0.911078 9:0.838534 10:0.0625332 11:-0.172011 12:-0.590225 13:-0.0882745 14:0.662767 15:0.965313 16:-0.998729 17:-0.99993 18:-0.999823 19:-0.923954 20:-0.976281 21:0.162008 22:0.574376 23:-0.361516 24:0.705833 25:0.329129 26:-0.0501394 27:0.086407 28:-0.999959 29:-0.999523 30:-0.999883 31:-0.999959 32:-0.999509 33:-0.999883 34:0.554619 35:0.528908 36:0.00942158 
0 0 0 1 0 0 1:-0.11031 2:0.614382 3:0.961677 4:-0.998295 5:-0.999977 6:-0.999948 7:-0.935675 8:-0.912918 9:0.850578 10:0.0622715 11:-0.171691 12:-0.590268 13:-0.0681762 14:0.658981 15:0.968552 16:-0.997913 17:-0.999961 18:-0.999791 19:-0.936686 20:-0.977022 21:0.169781 22:0.574526 23:-0.361532 24:0.705847 25:0.32638 26:-0.0616645 27:0.0918017 28:-0.999972 29:-0.99962 30:-0.999896 31:-0.999971 32:-0.999556 33:-0.9999 34:0.554553 35:0.528932 36:0.00945524 
0 0 0 1 0 0 1:-0.0901299 2:0.610807 3:0.965609 4:-0.999921 5:-0.999994 6:-0.999997 7:-0.948839 8:-0.915144 9:0.86562 10:0.062553 11:-0.172054 12:-0.59022 13:-0.0477734 14:0.656439 15:0.972289 16:-0.999738 17:-0.999983 18:-0.999931 19:-0.949743 20:-0.977514 21:0.178611 22:0.574939 23:-0.362293 24:0.705935 25:0.328375 26:-0.045319 27:0.0942502 28:-0.999994 29:-0.999964 30:-0.999957 31:-0.999994 32:-0.99996 33:-0.999957 34:0.554435 35:0.528958 36:0.00945725 
0 0 0 1 0 0 1:-0.0734158 2:0.639521 3:0.961838 4:-0.997089 5:-0.989117 6:-0.999619 7:-0.957271 8:-0.892666 9:0.851348 10:0.0714153 11:-0.173276 12:-0.593429 13:-0.0421612 14:0.686183 15:0.967333 16:-0.998792 17:-0.997573 18:-0.999165 19:-0.95233 20:-0.970064 21:0.167468 22:0.575857 23:-0.362613 24:0.704186 25:0.380767 26:-0.0283626 27:0.357591 28:-0.994325 29:-0.996703 30:-0.924643 31:-0.994133 32:-0.996685 33:-0.911809 34:0.55165 35:0.521651 36:0.0177911 
0 0 0 1 0 0 1:-0.0560209 2:0.586309 3:0.969927 4:-0.995299 5:-0.961885 6:-0.998898 7:-0.965428 8:-0.916131 9:0.882757 10:0.0699742 11:-0.17267 12:-0.600277 13:-0.00143481 14:0.613603 15:0.974316 16:-0.878368 17:-0.981125 18:-0.947632 19:-0.907314 20:-0.972712 21:0.233937 22:0.515225 23:-0.262726 24:0.658735 25:0.222658 26:0.0465056 27:0.680157 28:-0.929688 29:-0.945789 30:-0.666183 31:-0.928918 32:-0.944797 33:-0.602198 34:0.469303 35:0.429364 36:0.0353293 
0 0 0 0 1 0 1:-0.258167 2:0.475932 3:-0.956768 4:-0.999647 5:-0.999958 6:-0.999967 7:-0.801366 8:-0.977943 9:0.784849 10:0.0624112 11:-0.17221 12:-0.590162 13:-0.220518 14:0.537397 15:-0.958126 16:-0.99937 17:-0.99998 18:-0.999408 19:-0.806171 20:-0.994259 21:0.104996 22:0.574826 23:-0.361614 24:0.706054 25:0.333083 26:-0.032006 27:0.090288 28:-0.999901 29:-0.999447 30:-0.999981 31:-0.9999 32:-0.999438 33:-0.999982 34:0.554531 35:0.528904 36:0.00946206 
0.92603096506458848 0.67717100533102192 0.90718501802140927 0 1 0.92171779755762051 1:-0.259597 2:0.46929 3:-0.956764 4:-0.998786 5:-0.999606 6:-0.999924 7:-0.799407 8:-0.979857 9:0.784856 10:0.0635947 11:-0.172459 12:-0.590446 13:-0.221838 14:0.531412 15:-0.957971 16:-0.998995 17:-0.999922 18:-0.999528 19:-0.804515 20:-0.994773 21:0.10452 22:0.575524 23:-0.362085 24:0.705974 25:0.345132 26:-0.0725658 27:0.0880986 28:-0.999713 29:-0.999239 30:-0.999954 31:-0.999695 32:-0.999096 33:-0.999954 34:0.554197 35:0.528801 36:0.00946779 
0 0.0021345343390782364 0 0 0 0 1:-0.273625 2:0.487479 3:-0.9502 4:-0.995935 5:-0.995751 6:-0.999593 7:-0.781711 8:-0.972676 9:0.760447 10:0.0636696 11:-0.173568 12:-0.589664 13:-0.241896 14:0.548002 15:-0.950975 16:-0.985342 17:-0.999095 18:-0.992389 19:-0.774428 20:-0.992646 21:0.0951945 22:0.574878 23:-0.369507 24:0.705562 25:0.300093 26:-0.0412287 27:0.0234584 28:-0.986774 29:-0.983905 30:-0.970169 31:-0.986729 32:-0.983907 33:-0.970261 34:0.542173 35:0.533794 36:-0.00704901 
0 0 0 0 0.30576430653481057 0 1:-0.244262 2:0.483025 3:-0.9603 4:-1 5:-0.999995 6:-1 7:-0.817337 8:-0.975668 9:0.798122 10:0.0625814 11:-0.172073 12:-0.590213 13:-0.207103 14:0.543807 15:-0.961318 16:-1 17:-0.999999 18:-0.999998 19:-0.820981 20:-0.99365 21:0.111866 22:0.574946 23:-0.362181 24:0.705953 25:0.331705 26:-0.0399102 27:0.0913801 28:-0.999999 29:-0.999999 30:-1 31:-0.999999 32:-0.999999 33:-1 34:0.554435 35:0.528957 36:0.00946484 
0 0 0 0.081580752570287629 0 0 1:-0.233901 2:0.489964 3:-0.962614 4:-0.999999 5:-0.999997 6:-1 7:-0.828717 8:-0.973323 9:0.806854 10:0.0625807 11:-0.172073 12:-0.590214 13:-0.194714 14:0.549091 15:-0.964043 16:-0.999996 17:-0.999999 18:-0.999997 19:-0.833846 20:-0.993114 21:0.118237 22:0.574946 23:-0.36218 24:0.705955 25:0.330586 26:-0.040116 27:0.0913547 28:-0.999998 29:-0.999999 30:-1 31:-0.999998 32:-0.999999 33:-1 34:0.554434 35:0.528957 36:0.00946486 
0 0 0 1 0 0 1:-0.233275 2:0.489596 3:-0.962821 4:-0.999999 5:-0.999999 6:-1 7:-0.829394 8:-0.973451 9:0.807639 10:0.0625834 11:-0.172073 12:-0.590215 13:-0.194154 14:0.548636 15:-0.964217 16:-0.999999 17:-1 18:-0.999997 19:-0.834419 20:-0.993161 21:0.118644 22:0.574947 23:-0.36218 24:0.705954 25:0.329905 26:-0.040399 27:0.0910398 28:-0.999999 29:-1 30:-1 31:-0.999999 32:-1 33:-1 34:0.554434 35:0.528957 36:0.00946489 
-1 1 0 0.39648995178475116 0 0 1:0.628487 2:-0.636314 3:0.250245 4:-0.296606 5:-0.952659 6:-0.856384 7:-0.253684 8:0.0758353 9:-0.802219 10:0.318828 11:-0.438102 12:-0.626333 13:0.309799 14:-0.623969 15:0.338882 16:-0.464118 17:-0.920219 18:-0.883906 19:-0.663303 20:-0.528675 21:-0.740186 22:0.354496 23:-0.388219 24:0.758759 25:0.200858 26:-0.11482 27:-0.487755 28:-0.770014 29:-0.683007 30:1 31:-0.769155 32:-0.68229 33:1 34:0.517495 35:0.437765 36:0.148862 
-1 0 0 0 1 1 1:0.806095 2:-0.632899 3:0.0962712 4:-0.974964 5:-0.978793 6:-0.906471 7:-0.100109 8:0.0591813 9:-0.935072 10:0.0963322 11:-0.157096 12:-0.546778 13:0.339948 14:-0.674156 15:0.206654 16:-0.893539 17:-0.93259 18:-0.838698 19:-0.875166 20:-0.495076 21:-0.787724 22:0.574818 23:-0.281105 24:0.692084 25:0.368679 26:-0.0274107 27:0.411244 28:-0.605424 29:-0.691185 30:-0.745954 31:-0.606091 32:-0.691198 33:-0.732784 34:0.379878 35:0.433827 36:0.0458076 
-1 0.28520328089114977 0 0 0 0 1:0.726138 2:-0.709609 3:0.0554464 4:-0.957367 5:-0.973955 6:-0.877251 7:-0.280373 8:0.234076 9:-0.934498 10:0.114678 11:-0.138682 12:-0.544808 13:0.252875 14:-0.711766 15:0.12887 16:-0.84005 17:-0.894117 18:-0.812652 19:-0.891373 20:-0.437988 21:-0.796207 22:0.608523 23:-0.24144 24:0.701623 25:0.268161 26:-0.291443 27:0.367034 28:-0.414752 29:-0.566429 30:-0.739991 31:-0.415615 32:-0.558008 33:-0.732834 34:-0.0390117 35:0.353741 36:0.107848 
-0 1 0 0 0 0 1:0.658566 2:-0.771757 3:0.0163937 4:-0.970792 5:-0.987823 6:-0.871922 7:-0.425334 8:0.379164 9:-0.93848 10:0.0905886 11:-0.108109 12:-0.537372 13:0.2479 14:-0.75508 15:0.146958 16:-0.757625 17:-0.891646 18:-0.806919 19:-0.849059 20:-0.397716 21:-0.784183 22:0.601506 23:-0.120841 24:0.714611 25:0.27104 26:-0.0799137 27:0.29989 28:-0.376734 29:-0.581875 30:-0.74899 31:-0.3777 32:-0.581706 33:-0.748657 34:-0.126151 35:0.17587 36:0.0954718 
-1 1 0 0 1 1 1:0.650096 2:-0.781534 3:0.0600207 4:-0.961776 5:-0.983724 6:-0.915099 7:-0.438771 8:0.404995 9:-0.951233 10:0.101668 11:-0.119264 12:-0.549446 13:0.20646 14:-0.773763 15:0.117233 16:-0.735837 17:-0.919354 18:-0.761589 19:-0.849774 20:-0.398353 21:-0.7507 22:0.592757 23:-0.0610332 24:0.722258 25:0.0657461 26:0.524833 27:0.235681 28:-0.518909 29:-0.62734 30:-0.751156 31:-0.514352 32:-0.584719 33:-0.755731 34:0.00328957 35:0.263909 36:0.0662494 
-0 0 0 0 0 1 1:0.535552 2:-0.832871 3:0.169201 4:-0.962352 5:-0.977384 6:-0.897936 7:-0.638086 8:0.538784 9:-0.891002 10:0.105466 11:-0.137948 12:-0.53457 13:0.171164 14:-0.726464 15:0.113468 16:-0.758647 17:-0.902426 18:-0.812391 19:-0.868316 20:-0.430353 21:-0.800851 22:0.515884 23:-0.355866 24:0.731498 25:0.325678 26:0.156515 27:0.33555 28:-0.571203 29:-0.407941 30:-0.492091 31:-0.572055 32:-0.402847 33:-0.49767 34:0.265147 35:0.362239 36:0.0264911 
-0 0 0 0 1 1 1:0.488442 2:-0.808517 3:0.298939 4:-0.943541 5:-0.967852 6:-0.903262 7:-0.700601 8:0.479006 9:-0.770356 10:0.113638 11:-0.148097 12:-0.516513 13:0.190731 14:-0.664507 15:0.154674 16:-0.847453 17:-0.931014 18:-0.807208 19:-0.912874 20:-0.502203 21:-0.781449 22:0.573552 23:-0.31513 24:0.722599 25:0.481922 26:0.225267 27:0.260384 28:-0.611695 29:-0.671034 30:-0.611626 31:-0.610646 32:-0.661666 33:-0.619637 34:0.247838 35:0.33464 36:0.0886877 
-0 0 0 0 1 1 1:0.396168 2:-0.828924 3:0.354994 4:-0.972252 5:-0.979104 6:-0.909798 7:-0.823404 8:0.527854 9:-0.699658 10:0.0797648 11:-0.170448 12:-0.528375 13:0.167068 14:-0.746648 15:0.133037 16:-0.882099 17:-0.868448 18:-0.701074 19:-0.934942 20:-0.390482 21:-0.687143 22:0.627541 23:-0.33997 24:0.713604 25:0.382597 26:0.165365 27:0.254436 28:-0.664682 29:-0.626639 30:-0.815957 31:-0.665131 32:-0.621045 33:-0.816875 34:0.413846 35:0.488682 36:0.0661032 
-0 0.75490454004682017 0 0 0 0 1:0.359181 2:-0.817939 3:0.380415 4:-0.962203 5:-0.961328 6:-0.872619 7:-0.857149 8:0.50558 9:-0.64453 10:0.0951296 11:-0.157744 12:-0.489252 13:0.185404 14:-0.790873 15:0.104839 16:-0.795446 17:-0.836153 18:-0.715116 19:-0.885951 20:-0.329051 21:-0.7095 22:0.536488 23:-0.288409 24:0.699606 25:0.212799 26:0.255344 27:0.218507 28:-0.528455 29:-0.315626 30:-0.753365 31:-0.528309 32:-0.304043 33:-0.758885 34:0.262203 35:0.649725 36:0.0104649 
-0.0053873460205688499 0 0 1 1 0 1:0.0122946 2:-0.748939 3:0.510792 4:-0.958882 5:-0.914946 6:-0.785447 7:-0.977491 8:0.348817 9:-0.370595 10:0.0624151 11:-0.174346 12:-0.379217 13:-0.109194 14:-0.702501 15:0.175225 16:-0.798692 17:-0.913209 18:-0.776979 19:-0.801728 20:-0.45832 21:-0.743549 22:0.681701 23:-0.277128 24:0.691145 25:0.474422 26:-0.0364051 27:0.565867 28:-0.595543 29:-0.701623 30:-0.76663 31:-0.594702 32:-0.701654 33:-0.725676 34:0.245061 35:0.755628 36:-0.0538677 
-0 0 0 0.3926784421924075 1 0 1:0.0210978 2:-0.761386 3:0.499539 4:-0.97116 5:-0.919823 6:-0.78542 7:-0.983656 8:0.377538 9:-0.393317 10:0.107509 11:-0.111505 12:-0.384976 13:-0.0791678 14:-0.71655 15:0.172941 16:-0.780471 17:-0.901022 18:-0.736684 19:-0.813138 20:-0.438216 21:-0.705699 22:0.669114 23:-0.20543 24:0.682607 25:0.496356 26:-0.132503 27:0.317938 28:-0.592135 29:-0.715827 30:-0.781658 31:-0.590763 32:-0.71471 33:-0.778393 34:0.144382 35:0.726178 36:-0.103803 
-0 0 0 0 1 0 1:0.0391313 2:-0.77743 3:0.48681 4:-0.987156 5:-0.924649 6:-0.794895 7:-0.992348 8:0.415589 9:-0.422911 10:0.0830339 11:-0.145414 12:-0.395587 13:-0.0778492 14:-0.726055 15:0.174866 16:-0.806039 17:-0.902111 18:-0.745043 19:-0.827702 20:-0.430514 21:-0.712902 22:0.680468 23:-0.228906 24:0.706384 25:0.479217 26:-0.0669994 27:0.343078 28:-0.573792 29:-0.781047 30:-0.805046 31:-0.572883 32:-0.780972 33:-0.798272 34:0.240896 35:0.709036 36:-0.0730136 
-0 0 0 0 1 0 1:0.029349 2:-0.803798 3:0.464386 4:-0.992337 5:-0.943553 6:-0.831086 7:-0.992481 8:0.475502 9:-0.482702 10:0.0620236 11:-0.170205 12:-0.437433 13:-0.10452 14:-0.750353 15:0.168381 16:-0.77778 17:-0.905762 18:-0.767982 19:-0.794005 20:-0.411064 21:-0.737894 22:0.71485 23:-0.26935 24:0.74487 25:0.354961 26:-0.0334338 27:0.470062 28:-0.60325 29:-0.826887 30:-0.802775 31:-0.603991 32:-0.826901 33:-0.778471 34:0.345277 35:0.644011 36:-0.0593203 
-0 0 0 0 1 1 1:0.0512908 2:-0.829731 3:0.433134 4:-0.9908 5:-0.954443 6:-0.840378 7:-0.995156 8:0.538668 9:-0.543271 10:0.0569112 11:-0.176809 12:-0.456889 13:-0.134106 14:-0.734096 15:0.166176 16:-0.83901 17:-0.912587 18:-0.790441 19:-0.803626 20:-0.430074 21:-0.76051 22:0.665624 23:-0.283771 24:0.754726 25:0.244245 26:-0.119679 27:0.371002 28:-0.597578 29:-0.854351 30:-0.836558 31:-0.597798 32:-0.853515 33:-0.825359 34:0.426971 35:0.644881 36:-0.0376133 
-0 0 0 0 1 1 1:0.0941127 2:-0.853712 3:0.401551 4:-0.99426 5:-0.964736 6:-0.849292 7:-0.997842 8:0.598341 9:-0.600335 10:0.0609059 11:-0.172406 12:-0.476819 13:-0.142285 14:-0.733961 15:0.172923 16:-0.909829 17:-0.884313 18:-0.724928 19:-0.834678 20:-0.412058 21:-0.694366 22:0.698308 23:-0.352362 24:0.748222 25:0.219576 26:-0.188904 27:0.25756 28:-0.570591 29:-0.86697 30:-0.872415 31:-0.570482 32:-0.864013 33:-0.871026 34:0.434625 35:0.619253 36:-0.0432738 
-0 0 0 0 1 1 1:0.124237 2:-0.859204 3:0.395026 4:-0.994492 5:-0.970311 6:-0.859492 7:-0.995237 8:0.611052 9:-0.615584 10:0.0575763 11:-0.183434 12:-0.489593 13:-0.123264 14:-0.703951 15:0.211481 16:-0.87584 17:-0.833229 18:-0.789535 19:-0.832173 20:-0.405756 21:-0.737723 22:0.641178 23:-0.29282 24:0.717401 25:0.392239 26:0.0236966 27:0.219228 28:-0.602698 29:-0.833062 30:-0.85697 31:-0.603183 32:-0.83254 33:-0.858633 34:0.249709 35:0.684179 36:-0.0795964 
-0 0 1 0 1 1 1:0.111662 2:-0.857014 3:0.412639 4:-0.99674 5:-0.975312 6:-0.899062 7:-0.997498 8:0.603426 9:-0.605757 10:0.0601723 11:-0.176625 12:-0.511702 13:-0.128189 14:-0.688327 15:0.219144 16:-0.857821 17:-0.87637 18:-0.815219 19:-0.81856 20:-0.44693 21:-0.758297 22:0.650935 23:-0.308686 24:0.707236 25:0.403321 26:0.0546703 27:0.127812 28:-0.714316 29:-0.895557 30:-0.873737 31:-0.71446 32:-0.894373 33:-0.878093 34:0.343152 35:0.633482 36:-0.0418921 
-0 0 1 0 1 1 1:0.101125 2:-0.858874 3:0.412879 4:-0.995653 5:-0.977118 6:-0.908122 7:-0.997967 8:0.607766 9:-0.609641 10:0.0551069 11:-0.183835 12:-0.5179 13:-0.132749 14:-0.691684 15:0.200573 16:-0.853542 17:-0.890186 18:-0.845814 19:-0.812536 20:-0.452908 21:-0.797751 22:0.678437 23:-0.266248 24:0.694525 25:0.311778 26:0.00853772 27:0.120375 28:-0.74693 29:-0.9193 30:-0.861384 31:-0.747407 32:-0.918996 33:-0.866303 34:0.409483 35:0.648158 36:-0.0317643 
-0 0 0 0 1 1 1:0.0966762 2:-0.860448 3:0.397551 4:-0.996539 5:-0.971794 6:-0.867192 7:-0.998509 8:0.613862 9:-0.61521 10:0.0567811 11:-0.181909 12:-0.494503 13:-0.141238 14:-0.712575 15:0.166198 16:-0.835662 17:-0.870303 18:-0.851442 19:-0.795835 20:-0.422003 21:-0.819348 22:0.677414 23:-0.237423 24:0.689411 25:0.193132 26:-0.0224489 27:0.167765 28:-0.692221 29:-0.874217 30:-0.852592 31:-0.691354 32:-0.874191 33:-0.856733 34:0.382545 35:0.671017 36:-0.0570029 
-0 0 0 0 1 1 1:0.0756715 2:-0.85793 3:0.395326 4:-0.994637 5:-0.968404 6:-0.848838 7:-0.998086 8:0.608314 9:-0.610072 10:0.0625199 11:-0.173439 12:-0.48211 13:-0.168039 14:-0.736949 15:0.170425 16:-0.774837 17:-0.856118 18:-0.812262 19:-0.739285 20:-0.391298 21:-0.77972 22:0.701177 23:-0.192365 24:0.704513 25:0.225572 26:0.0419554 27:0.131785 28:-0.643472 29:-0.842362 30:-0.841104 31:-0.64332 32:-0.841484 33:-0.846595 34:0.289494 35:0.669657 36:-0.0666914 
-0 0 0 0 1 1 1:0.063997 2:-0.842853 3:0.424804 4:-0.995584 5:-0.967716 6:-0.8675 7:-0.997882 8:0.568461 9:-0.570414 10:0.0600828 11:-0.176347 12:-0.48742 13:-0.178115 14:-0.748998 15:0.217368 16:-0.782371 17:-0.882542 18:-0.802666 19:-0.733733 20:-0.397398 21:-0.747173 22:0.726054 23:-0.209682 24:0.704561 25:0.226872 26:0.0603043 27:0.0832322 28:-0.675684 29:-0.879626 30:-0.856058 31:-0.67549 32:-0.878297 33:-0.861348 34:0.32716 35:0.652993 36:-0.0435245 
-0 0 0 0 1 1 1:0.0649465 2:-0.839414 3:0.436728 4:-0.996578 5:-0.971339 6:-0.888328 7:-0.99828 8:0.558109 9:-0.559673 10:0.0562772 11:-0.182419 12:-0.501085 13:-0.162438 14:-0.748586 15:0.236053 16:-0.791831 17:-0.906177 18:-0.816832 19:-0.753583 20:-0.41293 21:-0.750067 22:0.667178 23:-0.26153 24:0.713315 25:0.149858 26:0.102732 27:0.12098 28:-0.739349 29:-0.876475 30:-0.834954 31:-0.737304 32:-0.873768 33:-0.840839 34:0.370463 35:0.693461 36:-0.053999 
-0 0 0 0 1 1 1:0.048184 2:-0.844785 3:0.427168 4:-0.994457 5:-0.973088 6:-0.886622 7:-0.996045 8:0.571674 9:-0.575415 10:0.055118 11:-0.183865 12:-0.503697 13:-0.1502 14:-0.755626 15:0.220994 16:-0.792915 17:-0.873495 18:-0.719248 19:-0.765169 20:-0.385577 21:-0.664678 22:0.693087 23:-0.33173 24:0.708676 25:0.155052 26:0.068485 27:0.19038 28:-0.697936 29:-0.853266 30:-0.784189 31:-0.69612 32:-0.851712 33:-0.789974 34:0.336466 35:0.767417 36:-0.0701681 
-0 0 0 0 1 0 1:0.0708136 2:-0.863297 3:0.370037 4:-0.99234 5:-0.964555 6:-0.801914 7:-0.997143 8:0.624068 9:-0.626747 10:0.0604141 11:-0.179229 12:-0.460852 13:-0.111431 14:-0.674514 15:0.180232 16:-0.819482 17:-0.909427 18:-0.77762 19:-0.811177 20:-0.479915 21:-0.741882 22:0.64951 23:-0.379162 24:0.732414 25:0.536235 26:-0.115602 27:0.352897 28:-0.635814 29:-0.798348 30:-0.773988 31:-0.633181 32:-0.797602 33:-0.767249 34:0.262173 35:0.723762 36:-0.0815775 
-0 0 0 0 1 1 1:0.052779 2:-0.856726 3:0.373635 4:-0.993185 5:-0.960901 6:-0.780842 7:-0.996124 8:0.607743 9:-0.611413 10:0.0711703 11:-0.158482 12:-0.446688 13:-0.112256 14:-0.691584 15:0.197902 16:-0.774453 17:-0.898453 18:-0.798205 19:-0.786424 20:-0.458297 21:-0.753183 22:0.676916 23:-0.398837 24:0.743535 25:0.533187 26:0.0249282 27:0.212563 28:-0.626446 29:-0.802182 30:-0.811404 31:-0.62393 32:-0.801643 33:-0.815111 34:0.229571 35:0.718639 36:-0.0903446 
-0 0 0 0 1 1 1:0.0357879 2:-0.866381 3:0.369117 4:-0.994625 5:-0.968309 6:-0.819505 7:-0.994367 8:0.631046 9:-0.636428 10:0.0678275 11:-0.163879 12:-0.472702 13:-0.130092 14:-0.716023 15:0.194585 16:-0.718676 17:-0.906321 18:-0.775564 19:-0.742459 20:-0.442079 21:-0.733006 22:0.665547 23:-0.319088 24:0.717784 25:0.468118 26:-0.0292083 27:0.244612 28:-0.651758 29:-0.795184 30:-0.80468 31:-0.650946 32:-0.795192 33:-0.806697 34:0.191835 35:0.709847 36:-0.108162 
-0 0 1 0 1 1 1:0.0355189 2:-0.888815 3:0.359751 4:-0.994476 5:-0.98258 6:-0.909143 7:-0.994273 8:0.687034 9:-0.692515 10:0.0683501 11:-0.164098 12:-0.528857 13:-0.120637 14:-0.72143 15:0.176673 16:-0.761324 17:-0.918658 18:-0.714854 19:-0.772897 20:-0.445225 21:-0.682963 22:0.60264 23:-0.19835 24:0.679716 25:0.246574 26:-0.0138983 27:0.157768 28:-0.778341 29:-0.864562 30:-0.798274 31:-0.778233 32:-0.864487 33:-0.80473 34:0.335463 35:0.586823 36:-0.050815 
-0 0 1 0 1 1 1:0.0438231 2:-0.928495 3:0.277636 4:-0.993566 5:-0.992754 6:-0.910891 7:-0.995192 8:0.79415 9:-0.798749 10:0.0577955 11:-0.186079 12:-0.552452 13:-0.0940413 14:-0.738094 15:0.111264 16:-0.817983 17:-0.870058 18:-0.729007 19:-0.823101 20:-0.399214 21:-0.721064 22:0.658755 23:-0.195133 24:0.762981 25:0.256091 26:0.00482036 27:0.0662301 28:-0.801957 29:-0.915011 30:-0.791972 31:-0.801919 32:-0.914753 33:-0.7995 34:0.462531 35:0.535617 36:-0.00879678 
-0 0 1 0 1 1 1:0.0682235 2:-0.95845 3:0.164008 4:-0.993635 5:-0.994716 6:-0.870898 7:-0.997464 8:0.879369 9:-0.881766 10:0.0584881 11:-0.191233 12:-0.552694 13:-0.059865 14:-0.732701 15:0.0530572 16:-0.777771 17:-0.79584 18:-0.739544 19:-0.823814 20:-0.356431 21:-0.744172 22:0.68781 23:-0.0614739 24:0.93899 25:0.383234 26:0.071987 27:0.110953 28:-0.675907 29:-0.896139 30:-0.829255 31:-0.676329 32:-0.894477 33:-0.83546 34:0.429186 35:0.546022 36:-0.0130664 
-0 0.69987196955709718 0 0 0 0 1:0.0542575 2:-0.947589 3:0.17347 4:-0.984898 5:-0.991388 6:-0.829076 7:-0.993456 8:0.849162 9:-0.855457 10:0.0496989 11:-0.22165 12:-0.535788 13:-0.0629394 14:-0.728325 15:0.0442063 16:-0.756745 17:-0.69048 18:-0.659232 19:-0.810696 20:-0.292746 21:-0.667936 22:0.67147 23:0.0168674 24:1 25:0.233571 26:0.102343 27:0.195414 28:-0.527335 29:-0.826107 30:-0.7574 31:-0.527541 32:-0.823421 33:-0.763948 34:0.392901 35:0.618952 36:-0.0526127 
-0 1 0 0 0 0 1:0.0315178 2:-0.910359 3:0.259507 4:-0.981551 5:-0.979201 6:-0.783724 7:-0.989204 8:0.747896 9:-0.758319 10:0.0534277 11:-0.214164 12:-0.491472 13:-0.105301 14:-0.783333 15:0.109993 16:-0.804054 17:-0.639072 18:-0.455079 19:-0.807505 20:-0.209681 21:-0.457179 22:0.741379 23:-0.0136531 24:0.838718 25:0.183052 26:-0.0658578 27:0.278042 28:-0.375338 29:-0.695613 30:-0.653688 31:-0.374875 32:-0.695556 33:-0.658766 34:0.11249 35:0.833019 36:-0.134198 
-0 0.81857592640772481 0 0 0 0 1:0.0229826 2:-0.894215 3:0.291918 4:-0.986942 5:-0.974962 6:-0.768023 7:-0.989412 8:0.704582 9:-0.714797 10:0.0544404 11:-0.204058 12:-0.475284 13:-0.113998 14:-0.790591 15:0.125468 16:-0.851738 17:-0.755451 18:-0.552995 19:-0.826501 20:-0.277548 21:-0.546849 22:0.702831 23:-0.203634 24:0.726697 25:0.271105 26:-0.0369485 27:0.289177 28:-0.429005 29:-0.706535 30:-0.698767 31:-0.429868 32:-0.706566 33:-0.701242 34:0.107009 35:0.915104 36:-0.145075 
-0 0 0 0 0 1 1:0.0249109 2:-0.905465 3:0.282922 4:-0.992069 5:-0.981133 6:-0.802885 7:-0.991543 8:0.733568 9:-0.741712 10:0.0551076 11:-0.19322 12:-0.497988 13:-0.0847269 14:-0.72628 15:0.105787 16:-0.813028 17:-0.847974 18:-0.699834 19:-0.826874 20:-0.395588 21:-0.694493 22:0.563386 23:-0.236675 24:0.680783 25:0.434499 26:-0.10799 27:0.244734 28:-0.604177 29:-0.811026 30:-0.762326 31:-0.604104 32:-0.810426 33:-0.765896 34:0.317242 35:0.721259 36:-0.0870529 
-0 0 0 0 1 1 1:0.023994 2:-0.910669 3:0.292428 4:-0.994158 5:-0.983892 6:-0.853794 7:-0.99207 8:0.747106 9:-0.754738 10:0.0593565 11:-0.180059 12:-0.515784 13:-0.0812606 14:-0.723391 15:0.139927 16:-0.778461 17:-0.84674 18:-0.702872 19:-0.810676 20:-0.397358 21:-0.686428 22:0.539566 23:-0.146225 24:0.631105 25:0.516257 26:-0.0911623 27:0.15664 28:-0.659431 29:-0.832606 30:-0.788292 31:-0.65737 32:-0.832273 33:-0.795149 34:0.347773 35:0.617734 36:-0.0658677 
-0 0 1 0 1 1 1:0.00525467 2:-0.901511 3:0.329072 4:-0.99512 5:-0.985192 6:-0.904286 7:-0.988024 8:0.72115 9:-0.732718 10:0.0579331 11:-0.183337 12:-0.532044 13:-0.0934223 14:-0.76366 15:0.200552 16:-0.855819 17:-0.861757 18:-0.756351 19:-0.843809 20:-0.370708 21:-0.711457 22:0.614855 23:-0.27877 24:0.623332 25:0.492831 26:-0.0577349 27:0.181201 28:-0.696605 29:-0.823231 30:-0.845114 31:-0.695116 32:-0.823207 33:-0.849037 34:0.36563 35:0.647919 36:-0.0574435 
-0 0 0 0 1 1 1:0.021986 2:-0.889664 3:0.350167 4:-0.992228 5:-0.979197 6:-0.894409 7:-0.991003 8:0.690561 9:-0.699226 10:0.0656536 11:-0.17144 12:-0.517767 13:-0.0786569 14:-0.754725 15:0.208017 16:-0.90068 17:-0.878637 18:-0.734644 19:-0.87788 20:-0.389695 21:-0.686623 22:0.651407 23:-0.29504 24:0.642924 25:0.270316 26:-0.0620729 27:0.157128 28:-0.671903 29:-0.812484 30:-0.858794 31:-0.672275 32:-0.812439 33:-0.863039 34:0.279273 35:0.681315 36:-0.0695953 
-0 0 0 0 1 1 1:0.0701512 2:-0.891606 3:0.341074 4:-0.989816 5:-0.978229 6:-0.868869 7:-0.996257 8:0.696243 9:-0.699793 10:0.0623671 11:-0.176056 12:-0.508164 13:-0.0373185 14:-0.746406 15:0.168652 16:-0.851707 17:-0.86922 18:-0.762404 19:-0.876115 20:-0.391195 21:-0.732396 22:0.68465 23:-0.320169 24:0.699225 25:0.199831 26:-0.0121168 27:0.0617955 28:-0.643301 29:-0.82783 30:-0.783729 31:-0.642673 32:-0.827746 33:-0.791507 34:0.298777 35:0.692628 36:-0.0783865 
-0 0 0 0 0 1 1:0.323762 2:-0.915894 3:0.121255 4:-0.972822 5:-0.987985 6:-0.783037 7:-0.891971 8:0.760294 9:-0.865376 10:0.0882497 11:-0.108003 12:-0.528543 13:0.185157 14:-0.659188 15:0.141801 16:-0.800266 17:-0.878857 18:-0.721149 19:-0.888575 20:-0.473201 21:-0.703375 22:0.490127 23:-0.336237 24:0.719477 25:0.747408 26:-0.223097 27:0.35851 28:-0.539123 29:-0.463996 30:-0.680471 31:-0.526284 32:-0.459563 33:-0.676526 34:0.0720381 35:0.354329 36:0.00762814 
-0 0 0 0 0 1 1:0.304491 2:-0.934054 3:0.0590367 4:-0.97557 5:-0.994033 6:-0.803816 7:-0.90809 8:0.809489 9:-0.898885 10:0.0798962 11:-0.118378 12:-0.554435 13:0.171243 14:-0.737028 15:0.070177 16:-0.736654 17:-0.881478 18:-0.70231 19:-0.856523 20:-0.407495 21:-0.705307 22:0.550862 23:-0.368405 24:0.73898 25:0.596735 26:-0.151917 27:0.308998 28:-0.559657 29:-0.503555 30:-0.677786 31:-0.554917 32:-0.50193 33:-0.679222 34:0.162811 35:0.41938 36:0.0259132 
-0 0 0 0 0 0.18677569404213462 1:0.235045 2:-0.948531 3:0.0698755 4:-0.980012 5:-0.993772 6:-0.803935 7:-0.953818 8:0.851031 9:-0.895915 10:0.0760161 11:-0.135039 12:-0.549239 13:0.108821 14:-0.732387 15:0.134119 16:-0.792183 17:-0.890932 18:-0.780966 19:-0.88794 20:-0.417709 21:-0.763837 22:0.564647 23:-0.2185 24:0.718365 25:0.327963 26:-0.0179919 27:0.298533 28:-0.532994 29:-0.546473 30:-0.649261 31:-0.533923 32:-0.546459 33:-0.652726 34:0.0975778 35:0.445403 36:0.0467685 
-0 1 0 0 0 0 1:0.236845 2:-0.94497 3:0.061535 4:-0.97912 5:-0.99571 6:-0.778367 7:-0.952576 8:0.840107 9:-0.886199 10:0.0755801 11:-0.140863 12:-0.566555 13:0.13694 14:-0.786271 15:0.0818669 16:-0.737125 17:-0.846967 18:-0.706605 19:-0.859197 20:-0.340295 21:-0.707027 22:0.474021 23:-0.298796 24:0.754309 25:0.216692 26:0.0233782 27:0.233335 28:-0.517621 29:-0.322422 30:-0.529858 31:-0.517567 32:-0.321962 33:-0.542733 34:0.0174506 35:0.376256 36:0.0390381 
-0 1 0 0 0 0 1:0.229892 2:-0.942353 3:0.0931242 4:-0.980638 5:-0.994932 6:-0.776721 7:-0.956656 8:0.832875 9:-0.874994 10:0.0748225 11:-0.145828 12:-0.557887 13:0.113451 14:-0.797226 15:0.107438 16:-0.785937 17:-0.864219 18:-0.703126 19:-0.884888 20:-0.34108 21:-0.697202 22:0.494542 23:-0.332968 24:0.767574 25:0.214238 26:0.0617385 27:0.22734 28:-0.498504 29:-0.371199 30:-0.634396 31:-0.498444 32:-0.369888 33:-0.643787 34:0.00468849 35:0.444573 36:0.0347367 
-0 1 0 0 0 0 1:0.209356 2:-0.945232 3:0.108224 4:-0.981116 5:-0.994875 6:-0.787694 7:-0.966383 8:0.841153 9:-0.873804 10:0.0726893 11:-0.150578 12:-0.556227 13:0.14651 14:-0.705074 15:0.13708 16:-0.853454 17:-0.877751 18:-0.667302 19:-0.921219 20:-0.433337 21:-0.653141 22:0.525526 23:-0.273906 24:0.667008 25:0.391762 26:-0.126776 27:0.393993 28:-0.472164 29:-0.465693 30:-0.673179 31:-0.472914 32:-0.464741 33:-0.665053 34:0.0917693 35:0.467799 36:0.0397963 
-0 1 0 0 0 0 1:0.184846 2:-0.949771 3:0.0820415 4:-0.994108 5:-0.996526 6:-0.763188 7:-0.980331 8:0.853631 9:-0.872705 10:0.0658509 11:-0.179247 12:-0.574162 13:0.134603 14:-0.713734 15:0.120411 16:-0.851549 17:-0.87356 18:-0.673709 19:-0.920535 20:-0.423075 21:-0.66493 22:0.44822 23:-0.273064 24:0.6527 25:0.485664 26:0.0742155 27:0.329419 28:-0.501753 29:-0.550511 30:-0.720984 31:-0.500832 32:-0.54882 33:-0.71878 34:0.195984 35:0.513077 36:0.0432846 
-0 0 0 0 0 1 1:0.191788 2:-0.94943 3:0.0773171 4:-0.993602 5:-0.99674 6:-0.763046 7:-0.977667 8:0.852573 9:-0.874241 10:0.0669656 11:-0.170621 12:-0.567406 13:0.122957 14:-0.745674 15:0.111179 16:-0.830194 17:-0.879689 18:-0.721324 19:-0.908995 20:-0.398572 21:-0.713678 22:0.549211 23:-0.269256 24:0.763419 25:0.572789 26:-0.208803 27:0.260227 28:-0.573434 29:-0.503344 30:-0.811116 31:-0.569629 32:-0.49958 33:-0.811789 34:0.307051 35:0.591487 36:-0.0248613 
-0 0 0 0 0 1 1:0.169682 2:-0.956882 3:0.0723296 4:-0.990386 5:-0.997312 6:-0.791886 7:-0.983938 8:0.873905 9:-0.88947 10:0.0644652 11:-0.187627 12:-0.569506 13:0.112916 14:-0.76173 15:0.107163 16:-0.832992 17:-0.874065 18:-0.712671 19:-0.910069 20:-0.38037 21:-0.706488 22:0.563233 23:-0.294701 24:0.770469 25:0.522639 26:-0.220521 27:0.375965 28:-0.634784 29:-0.524355 30:-0.80854 31:-0.632581 32:-0.52004 33:-0.797757 34:0.382586 35:0.594348 36:-0.0383167 
-0 1 0 0 0 0 1:0.0413588 2:-0.938835 3:0.0953451 4:-0.876402 5:-0.993628 6:-0.761607 7:-0.955031 8:0.823268 9:-0.866969 10:0.041061 11:-0.239102 12:-0.548286 13:0.049748 14:-0.723135 15:0.10418 16:-0.752608 17:-0.873208 18:-0.683368 19:-0.8571 20:-0.414562 21:-0.679055 22:0.58074 23:-0.280514 24:0.709983 25:0.331653 26:-0.128301 27:-0.0739209 28:-0.527637 29:-0.413532 30:-0.579686 31:-0.528578 32:-0.412551 33:-0.589181 34:0.307594 35:0.707855 36:-0.0993619 
-0 0.48812229037951388 0 0 0 0 1:0.223151 2:-0.933968 3:0.120736 4:-0.960623 5:-0.992875 6:-0.760916 7:-0.953152 8:0.809653 9:-0.855181 10:0.0723707 11:-0.142225 12:-0.544347 13:0.202582 14:-0.722681 15:0.113148 16:-0.796406 17:-0.879123 18:-0.779167 19:-0.883111 20:-0.418758 21:-0.768896 22:0.487014 23:-0.383256 24:0.742498 25:0.340541 26:-0.167243 27:0.374994 28:-0.45035 29:-0.512493 30:-0.666819 31:-0.451435 32:-0.510376 33:-0.661379 34:0.442756 35:0.621466 36:-0.0436161 
-0 0 0 0 1 1 1:0.239419 2:-0.91632 3:0.205769 4:-0.973783 5:-0.988586 6:-0.786727 7:-0.949401 8:0.761276 9:-0.810449 10:0.0634567 11:-0.169082 12:-0.51906 13:0.218884 14:-0.745096 15:0.191484 16:-0.89236 17:-0.895501 18:-0.843777 19:-0.930486 20:-0.409237 21:-0.800342 22:0.484741 23:-0.338976 24:0.72055 25:0.306029 26:-0.0672534 27:0.443678 28:-0.502435 29:-0.81978 30:-0.848877 31:-0.50338 32:-0.819699 33:-0.827118 34:0.374664 35:0.565101 36:-0.0201928 
-0 0 1 0 1 1 1:0.1247 2:-0.919462 3:0.230732 4:-0.969064 5:-0.988088 6:-0.776154 7:-0.98653 8:0.770284 9:-0.783313 10:0.0613158 11:-0.181187 12:-0.513979 13:0.0968733 14:-0.766422 15:0.231586 16:-0.865184 17:-0.91718 18:-0.814714 19:-0.925983 20:-0.403725 21:-0.750678 22:0.561412 23:-0.295193 24:0.747329 25:0.0193284 26:0.100288 27:0.257418 28:-0.642736 29:-0.872953 30:-0.885716 31:-0.635825 32:-0.870339 33:-0.883847 34:0.437211 35:0.622514 36:-0.00306709 
-0 0 0 0 1 1 1:0.0515821 2:-0.921632 3:0.236593 4:-0.994234 5:-0.988813 6:-0.780062 7:-0.996354 8:0.77614 9:-0.779606 10:0.0596787 11:-0.185899 12:-0.519418 13:0.0409078 14:-0.773394 15:0.234402 16:-0.834993 17:-0.922186 18:-0.758731 19:-0.89886 20:-0.400511 21:-0.695005 22:0.595458 23:-0.327804 24:0.779525 25:0.0647705 26:0.0731736 27:0.291107 28:-0.621315 29:-0.846209 30:-0.898792 31:-0.616513 32:-0.844517 33:-0.893729 34:0.360372 35:0.688201 36:-0.0525063 
-0 0 0 0 1 1 1:0.0326259 2:-0.919108 3:0.25287 4:-0.994656 5:-0.987677 6:-0.805165 7:-0.993851 8:0.769432 9:-0.775334 10:0.0557312 11:-0.196218 12:-0.519573 13:0.0365652 14:-0.757336 15:0.228594 16:-0.849758 17:-0.913401 18:-0.759445 19:-0.905513 20:-0.409617 21:-0.699109 22:0.576549 23:-0.365551 24:0.775772 25:0.248937 26:0.0449203 27:0.206691 28:-0.558174 29:-0.832614 30:-0.877278 31:-0.558535 32:-0.831671 33:-0.878863 34:0.291337 35:0.683677 36:-0.0522664 
-0 0 0 0 0 1 1:0.0156149 2:-0.920887 3:0.249057 4:-0.971186 5:-0.988798 6:-0.830195 7:-0.982456 8:0.774045 9:-0.79104 10:0.0461631 11:-0.226848 12:-0.526308 13:-0.00890781 14:-0.71311 15:0.233221 16:-0.872742 17:-0.920544 18:-0.787774 19:-0.901109 20:-0.453761 21:-0.723724 22:0.552741 23:-0.384201 24:0.754202 25:0.394195 26:0.120142 27:0.240594 28:-0.575618 29:-0.841786 30:-0.766036 31:-0.576137 32:-0.838378 33:-0.769745 34:0.290156 35:0.769632 36:-0.065616 
-0 0 0 0 1 1 1:-0.0640767 2:-0.915686 3:0.224003 4:-0.969674 5:-0.987356 6:-0.810608 7:-0.952788 8:0.759933 9:-0.805809 10:0.0327958 11:-0.257825 12:-0.519644 13:-0.0380489 14:-0.705394 15:0.202064 16:-0.860273 17:-0.919683 18:-0.792445 19:-0.880318 20:-0.459956 21:-0.745499 22:0.585293 23:-0.395009 24:0.750013 25:0.517362 26:-0.047152 27:0.239278 28:-0.643112 29:-0.864248 30:-0.779957 31:-0.641051 32:-0.864256 33:-0.783239 34:0.426413 35:0.826708 36:0.0039328 
-0 0 0 0 1 1 1:-0.0327802 2:-0.92256 3:0.211526 4:-0.974268 5:-0.988582 6:-0.795137 7:-0.968381 8:0.778839 9:-0.809537 10:0.0367319 11:-0.255344 12:-0.519384 13:-0.0223194 14:-0.72713 15:0.203195 16:-0.820288 17:-0.905329 18:-0.755959 19:-0.86684 20:-0.431624 21:-0.709716 22:0.576803 23:-0.355128 24:0.76859 25:0.520401 26:-0.132905 27:0.284183 28:-0.646049 29:-0.869036 30:-0.812352 31:-0.643892 32:-0.867892 33:-0.811072 34:0.454472 35:0.77089 36:-0.0120009 
-0 0 0 0 1 1 1:0.00529524 2:-0.931053 3:0.195828 4:-0.972669 5:-0.989893 6:-0.792721 7:-0.980405 8:0.802416 9:-0.821412 10:0.0408425 11:-0.249776 12:-0.524826 13:0.0245363 14:-0.750781 15:0.202143 16:-0.785734 17:-0.894113 18:-0.728567 19:-0.867415 20:-0.403203 21:-0.683835 22:0.551806 23:-0.367592 24:0.782691 25:0.426257 26:-0.0052802 27:0.267755 28:-0.605215 29:-0.870065 30:-0.793167 31:-0.60527 32:-0.86992 33:-0.793929 34:0.456469 35:0.787606 36:-0.0384819 
-0 0 0 0 1 1 1:0.0445003 2:-0.934496 3:0.198671 4:-0.979999 5:-0.990459 6:-0.796706 7:-0.99067 8:0.812008 9:-0.821011 10:0.0461838 11:-0.238473 12:-0.527265 13:0.0730331 14:-0.764086 15:0.213175 16:-0.790898 17:-0.903014 18:-0.752646 19:-0.882715 20:-0.396782 21:-0.701219 22:0.519325 23:-0.357495 24:0.769356 25:0.348067 26:0.0662533 27:0.172108 28:-0.588835 29:-0.878779 30:-0.808436 31:-0.589627 32:-0.877286 33:-0.814052 34:0.443535 35:0.806922 36:-0.0452375 
-0 0 0 0 1 1 1:0.0700318 2:-0.930002 3:0.218045 4:-0.975478 5:-0.989209 6:-0.803896 7:-0.991379 8:0.799674 9:-0.807986 10:0.0404893 11:-0.249906 12:-0.523497 13:0.0894853 14:-0.751437 15:0.218875 16:-0.787604 17:-0.89996 18:-0.773759 19:-0.883533 20:-0.406359 21:-0.71845 22:0.495007 23:-0.389236 24:0.754539 25:0.306549 26:-0.038357 27:0.214499 28:-0.575789 29:-0.885687 30:-0.791591 31:-0.57659 32:-0.885699 33:-0.795923 34:0.459281 35:0.826617 36:-0.032366 
-0 0 0 0 1 1 1:0.0655398 2:-0.929202 3:0.225773 4:-0.973014 5:-0.989007 6:-0.816185 7:-0.990307 8:0.797475 9:-0.806829 10:0.0380237 11:-0.252673 12:-0.524389 13:0.075475 14:-0.720609 15:0.22773 16:-0.83653 17:-0.907514 18:-0.80033 19:-0.907601 20:-0.438802 21:-0.739053 22:0.501227 23:-0.449948 24:0.728421 25:0.346125 26:0.0419683 27:0.242229 28:-0.58569 29:-0.888559 30:-0.77715 31:-0.586494 32:-0.887676 33:-0.780341 34:0.433306 35:0.831589 36:-0.0365942 
-0 0 1 0 1 1 1:0.0392885 2:-0.934368 3:0.214507 4:-0.979325 5:-0.990249 6:-0.826237 7:-0.98971 8:0.811718 9:-0.821656 10:0.0425973 11:-0.240436 12:-0.529903 13:0.0553539 14:-0.718386 15:0.216505 16:-0.863221 17:-0.918698 18:-0.807183 19:-0.917747 20:-0.447938 21:-0.752008 22:0.556911 23:-0.340334 24:0.728075 25:0.322071 26:0.137433 27:0.170294 28:-0.615303 29:-0.890572 30:-0.805551 31:-0.616064 32:-0.886378 33:-0.811338 34:0.41029 35:0.800075 36:-0.029349 
-0 0 1 0 1 1 1:0.0323354 2:-0.934281 3:0.213435 4:-0.980707 5:-0.990196 6:-0.825118 7:-0.989059 8:0.811488 9:-0.822059 10:0.0425832 11:-0.24028 12:-0.529558 13:0.0646027 14:-0.74324 15:0.169717 16:-0.857867 17:-0.914552 18:-0.834227 19:-0.916945 20:-0.42313 21:-0.801219 22:0.562256 23:-0.286597 24:0.735196 25:0.191736 26:0.0159017 27:0.148131 28:-0.627552 29:-0.893188 30:-0.829242 31:-0.626784 32:-0.892784 33:-0.834819 34:0.419023 35:0.785853 36:-0.027289 
-0 0 1 0 1 1 1:0.0273329 2:-0.92421 3:0.235516 4:-0.978793 5:-0.987597 6:-0.812413 7:-0.987501 8:0.783845 9:-0.795929 10:0.0383491 11:-0.247894 12:-0.518232 13:0.0456263 14:-0.766669 15:0.176929 16:-0.840033 17:-0.916277 18:-0.834995 19:-0.902861 20:-0.402919 21:-0.798745 22:0.527376 23:-0.370815 24:0.741167 25:0.0578812 26:0.00107084 27:0.0611453 28:-0.675092 29:-0.900368 30:-0.864813 31:-0.66989 32:-0.900155 33:-0.869596 34:0.453039 35:0.724765 36:-0.0327635 
-0 0 1 0 1 1 1:0.014364 2:-0.915184 3:0.264278 4:-0.980633 5:-0.986889 6:-0.825132 7:-0.985376 8:0.758688 9:-0.772839 10:0.0388536 11:-0.241275 12:-0.51846 13:0.0282165 14:-0.783125 15:0.219445 16:-0.818346 17:-0.924274 18:-0.798442 19:-0.886097 20:-0.39282 21:-0.741944 22:0.538119 23:-0.394672 24:0.776213 25:-0.0241193 26:-0.00976933 27:0.117958 28:-0.708765 29:-0.909841 30:-0.829905 31:-0.699441 32:-0.90973 33:-0.836013 34:0.449258 35:0.739404 36:-0.0314196 
-0 0 0 0 1 1 1:-0.0648655 2:-0.891914 3:0.279864 4:-0.971309 5:-0.9795 6:-0.796894 7:-0.952947 8:0.69664 9:-0.742355 10:0.0251755 11:-0.263784 12:-0.494003 13:-0.021957 14:-0.690976 15:0.227709 16:-0.846699 17:-0.923646 18:-0.769361 19:-0.881165 20:-0.474981 21:-0.709189 22:0.545803 23:-0.446366 24:0.773635 25:0.580338 26:-0.038074 27:0.330866 28:-0.637593 29:-0.886451 30:-0.778316 31:-0.633367 32:-0.886464 33:-0.773847 34:0.410561 35:0.822948 36:-0.0454216 
-0 0 1 0 1 1 1:-0.0782257 2:-0.890636 3:0.284884 4:-0.98236 5:-0.977806 6:-0.809598 7:-0.949659 8:0.693722 9:-0.742636 10:0.0324299 11:-0.23945 12:-0.490899 13:-0.0482441 14:-0.708195 15:0.243173 16:-0.856338 17:-0.922447 18:-0.803496 19:-0.872647 20:-0.459285 21:-0.732873 22:0.581959 23:-0.386828 24:0.74336 25:0.531176 26:-0.0838883 27:0.289314 28:-0.677015 29:-0.924066 30:-0.842851 31:-0.674463 32:-0.923815 33:-0.840006 34:0.422516 35:0.740551 36:-0.0256288 
-0 0 1 0 1 1 1:-0.0776692 2:-0.90328 3:0.258083 4:-0.981129 5:-0.980425 6:-0.819606 7:-0.949546 8:0.727743 9:-0.776771 10:0.033965 11:-0.239709 12:-0.500316 13:-0.0526705 14:-0.728938 15:0.224977 16:-0.85426 17:-0.925793 18:-0.831858 19:-0.869017 20:-0.443144 21:-0.771052 22:0.606256 23:-0.387596 24:0.740966 25:0.410488 26:-0.0404279 27:0.244779 28:-0.678409 29:-0.919904 30:-0.825704 31:-0.678538 32:-0.919913 33:-0.826935 34:0.4017 35:0.769888 36:-0.0399212 
-0 0 0 0 0 0.30265553788439736 1:-0.0648603 2:-0.911765 3:0.233147 4:-0.974712 5:-0.981935 6:-0.80664 7:-0.954106 8:0.75086 9:-0.795452 10:0.0298111 11:-0.256147 12:-0.501889 13:-0.0477736 14:-0.743305 15:0.204885 16:-0.809842 17:-0.918083 18:-0.793419 19:-0.847998 20:-0.425337 21:-0.744973 22:0.600783 23:-0.419234 24:0.777409 25:0.326107 26:0.00301313 27:0.242448 28:-0.639487 29:-0.886701 30:-0.777843 31:-0.640203 32:-0.886468 33:-0.780994 34:0.346242 35:0.847712 36:-0.0689341 
-0 0 0 0 1 1 1:-0.0890665 2:-0.891833 3:0.260597 4:-0.982629 5:-0.976571 6:-0.773369 7:-0.943588 8:0.697452 9:-0.752277 10:0.0369312 11:-0.231606 12:-0.480523 13:-0.0457306 14:-0.730263 15:0.153373 16:-0.819617 17:-0.916281 18:-0.812343 19:-0.854374 20:-0.435862 21:-0.78692 22:0.617678 23:-0.375771 24:0.749607 25:0.110083 26:0.199664 27:0.150849 28:-0.652138 29:-0.835413 30:-0.772913 31:-0.64901 32:-0.827755 33:-0.780495 34:0.336469 35:0.772963 36:-0.0912154 
-0 0 0 0 1 0 1:-0.109814 2:-0.878673 3:0.270076 4:-0.979451 5:-0.973272 6:-0.749936 7:-0.929597 8:0.66259 9:-0.731031 10:0.0308177 11:-0.251982 12:-0.466782 13:-0.0639655 14:-0.759196 15:0.181012 16:-0.830979 17:-0.919725 18:-0.753325 19:-0.849845 20:-0.411976 21:-0.718083 22:0.596411 23:-0.460433 24:0.779593 25:-0.0438423 26:0.224521 27:0.0986747 28:-0.698505 29:-0.843902 30:-0.789547 31:-0.688069 32:-0.834567 33:-0.797289 34:0.348572 35:0.781099 36:-0.10567 
-0 0 0 0 0.17128267438688785 0 1:-0.105608 2:-0.863741 3:0.325741 4:-0.980445 5:-0.970831 6:-0.801435 7:-0.932671 8:0.623047 9:-0.688491 10:0.0310388 11:-0.242237 12:-0.475811 13:-0.0547461 14:-0.742869 15:0.251625 16:-0.862675 17:-0.924647 18:-0.781942 19:-0.872324 20:-0.429939 21:-0.706779 22:0.55007 23:-0.472964 24:0.791886 25:0.249431 26:0.00892039 27:0.230729 28:-0.647713 29:-0.868842 30:-0.759062 31:-0.647901 32:-0.868539 33:-0.763654 34:0.316124 35:0.880189 36:-0.0964921 
-0 0 0.73294964543893404 0 1 1 1:-0.138309 2:-0.836722 3:0.400132 4:-0.983342 5:-0.979546 6:-0.917501 7:-0.910795 8:0.548128 9:-0.63486 10:0.039821 11:-0.206874 12:-0.526236 13:-0.0573031 14:-0.664357 15:0.30884 16:-0.872533 17:-0.950235 18:-0.891942 19:-0.876108 20:-0.514658 21:-0.772408 22:0.560442 23:-0.407881 24:0.742723 25:0.696759 26:0.021005 27:0.179067 28:-0.713109 29:-0.933093 30:-0.790433 31:-0.70306 32:-0.932605 33:-0.796454 34:0.449235 35:0.762486 36:-0.0462377 
-0 0 1 0 1 1 1:-0.035075 2:-0.868264 3:0.377091 4:-0.866384 5:-0.986468 6:-0.972882 7:-0.930799 8:0.629712 9:-0.696979 10:0.00401939 11:-0.234543 12:-0.560059 13:0.0941444 14:-0.647617 15:0.321494 16:-0.852399 17:-0.989969 18:-0.983933 19:-0.918826 20:-0.55409 21:-0.851113 22:0.572067 23:-0.38783 24:0.706049 25:0.524542 26:0.078949 27:-0.240395 28:-0.901347 29:-0.971765 30:-0.842966 31:-0.898556 32:-0.96988 33:-0.824584 34:0.568014 35:0.605593 36:-0.0027912 
-0 0 1 0 1 1 1:0.203105 2:-0.911693 3:0.311467 4:-0.906177 5:-0.99861 6:-0.997843 7:-0.943539 8:0.744772 9:-0.79965 10:0.0656567 11:-0.181189 12:-0.588298 13:0.293956 14:-0.671559 15:0.307253 16:-0.978253 17:-0.997364 18:-0.991891 19:-0.947204 20:-0.538823 21:-0.870059 22:0.578472 23:-0.356188 24:0.709646 25:0.323801 26:-0.197207 27:-0.252394 28:-0.992793 29:-0.979637 30:-0.908268 31:-0.992804 32:-0.976327 33:-0.885699 34:0.539223 35:0.545449 36:-0.0096981 
-0 0 1 0 1 1 1:0.290163 2:-0.901889 3:0.308016 4:-0.988213 5:-0.99643 6:-0.975167 7:-0.922856 8:0.71823 9:-0.793239 10:0.0681988 11:-0.166991 12:-0.576254 13:0.308832 14:-0.669365 15:0.28672 16:-0.941893 17:-0.990673 18:-0.95661 19:-0.919826 20:-0.536383 21:-0.851397 22:0.599216 23:-0.330949 24:0.725989 25:0.211086 26:-0.248131 27:0.230155 28:-0.956699 29:-0.958965 30:-0.91728 31:-0.955668 32:-0.953166 33:-0.916078 34:0.51948 35:0.562725 36:-0.00171766 
-0 0 1 0 1 1 1:0.190979 2:-0.904527 3:0.299106 4:-0.955291 5:-0.989459 6:-0.886134 7:-0.964945 8:0.728021 9:-0.762058 10:0.0654689 11:-0.171021 12:-0.536615 13:0.201681 14:-0.686348 15:0.261978 16:-0.864051 17:-0.960422 18:-0.879149 19:-0.919553 20:-0.502543 21:-0.793821 22:0.599062 23:-0.362083 24:0.70989 25:0.373392 26:-0.159647 27:0.589457 28:-0.843327 29:-0.813201 30:-0.837557 31:-0.84349 32:-0.811301 33:-0.788942 34:0.5335 35:0.565938 36:-0.0157158 
-0 0 1 0 1 1 1:0.0745505 2:-0.908604 3:0.284613 4:-0.977248 5:-0.982248 6:-0.823416 7:-0.992146 8:0.741922 9:-0.749479 10:0.0428262 11:-0.217529 12:-0.504611 13:0.0757254 14:-0.716568 15:0.242074 16:-0.865916 17:-0.931343 18:-0.806892 19:-0.923389 20:-0.45765 21:-0.736825 22:0.56654 23:-0.285498 24:0.704726 25:0.572603 26:-0.205368 27:0.638198 28:-0.722826 29:-0.808615 30:-0.828264 31:-0.718731 32:-0.804971 33:-0.768789 34:0.545204 35:0.593174 36:-0.0282519 
-0 0 1 0 1 1 1:-0.0249829 2:-0.899105 3:0.286868 4:-0.958193 5:-0.977702 6:-0.830526 7:-0.965893 8:0.717127 9:-0.750239 10:0.0294017 11:-0.231711 12:-0.497571 13:-0.0169235 14:-0.73272 15:0.233328 16:-0.855028 17:-0.925893 18:-0.799941 19:-0.888001 20:-0.439837 21:-0.735397 22:0.562047 23:-0.216104 24:0.711911 25:0.360333 26:-0.109405 27:0.440681 28:-0.649004 29:-0.922582 30:-0.865195 31:-0.64963 32:-0.921944 33:-0.843298 34:0.488569 35:0.676467 36:-0.0369494 
-0 0 0 0 1 1 1:-0.11114 2:-0.888774 3:0.287209 4:-0.98831 5:-0.979123 6:-0.840391 7:-0.931733 8:0.688143 9:-0.754507 10:0.0436032 11:-0.205055 12:-0.503351 13:-0.0863755 14:-0.727406 15:0.233763 16:-0.85883 17:-0.91877 18:-0.800675 19:-0.850296 20:-0.440001 21:-0.735848 22:0.600345 23:-0.232451 24:0.695819 25:0.320172 26:0.0928569 27:0.240705 28:-0.621937 29:-0.924716 30:-0.886757 31:-0.622682 32:-0.922368 33:-0.886011 34:0.462705 35:0.650076 36:-0.0148 
-0 0 1 0 1 1 1:-0.122647 2:-0.890012 3:0.279312 4:-0.994751 5:-0.982355 6:-0.837714 7:-0.926077 8:0.690402 9:-0.762273 10:0.0504306 11:-0.196704 12:-0.509553 13:-0.0972928 14:-0.717848 15:0.223811 16:-0.843313 17:-0.90456 18:-0.788934 19:-0.834364 20:-0.439342 21:-0.730309 22:0.613558 23:-0.242086 24:0.707513 25:0.333738 26:0.0340641 27:0.144982 28:-0.617668 29:-0.92364 30:-0.898301 31:-0.618428 32:-0.922917 33:-0.90141 34:0.427511 35:0.634098 36:-0.0101979 
-0 0 1 0 1 1 1:-0.11989 2:-0.889391 3:0.283283 4:-0.992344 5:-0.982672 6:-0.841141 7:-0.927179 8:0.688584 9:-0.759382 10:0.0498805 11:-0.197947 12:-0.510623 13:-0.103219 14:-0.705404 15:0.247624 16:-0.852178 17:-0.901556 18:-0.824279 19:-0.834823 20:-0.44832 21:-0.750153 22:0.606471 23:-0.3393 24:0.703184 25:0.354393 26:0.0263463 27:0.191767 28:-0.633222 29:-0.924265 30:-0.887366 31:-0.633905 32:-0.923687 33:-0.889289 34:0.431164 35:0.657826 36:-0.0229451 
-0 0 1 0 1 1 1:-0.144158 2:-0.889367 3:0.279 4:-0.987903 5:-0.984332 6:-0.869236 7:-0.907871 8:0.68793 9:-0.777525 10:0.0468025 11:-0.203154 12:-0.520832 13:-0.134551 14:-0.689194 15:0.240348 16:-0.859744 17:-0.902149 18:-0.829897 19:-0.814366 20:-0.462723 21:-0.760074 22:0.617182 23:-0.37931 24:0.715347 25:0.336938 26:0.0685172 27:0.252582 28:-0.68359 29:-0.925205 30:-0.868313 31:-0.684216 32:-0.923642 33:-0.867434 34:0.496045 35:0.673771 36:-0.0362172 
-0 0 1 0 1 1 1:-0.1676 2:-0.882474 3:0.292069 4:-0.988608 5:-0.984593 6:-0.899806 7:-0.889011 8:0.668959 9:-0.776911 10:0.0436104 11:-0.207902 12:-0.529366 13:-0.149854 14:-0.674367 15:0.235961 16:-0.821906 17:-0.908743 18:-0.831444 19:-0.781006 20:-0.4796 21:-0.764219 22:0.627475 23:-0.326663 24:0.736692 25:0.332325 26:0.0749358 27:0.15123 28:-0.74732 29:-0.921092 30:-0.821007 31:-0.747823 32:-0.919338 33:-0.826808 34:0.503908 35:0.679594 36:-0.0369725 
-0 0 1 0 1 1 1:-0.173425 2:-0.879411 3:0.289111 4:-0.981596 5:-0.981411 6:-0.892446 7:-0.881591 8:0.661726 9:-0.776902 10:0.0350429 11:-0.223152 12:-0.520685 13:-0.14161 14:-0.704107 15:0.210691 16:-0.796719 17:-0.918091 18:-0.875626 19:-0.774653 20:-0.460055 21:-0.821199 22:0.605572 23:-0.372301 24:0.712671 25:0.190986 26:0.0174678 27:0.0681503 28:-0.782803 29:-0.91019 30:-0.784923 31:-0.781709 32:-0.90976 33:-0.792731 34:0.454902 35:0.726357 36:-0.0548909 
-0 0 1 0 1 1 1:-0.15439 2:-0.888076 3:0.258304 4:-0.976001 5:-0.981073 6:-0.841653 7:-0.89572 8:0.685537 9:-0.786961 10:0.0309855 11:-0.244555 12:-0.506914 13:-0.122934 14:-0.772118 15:0.178302 16:-0.847182 17:-0.928893 18:-0.85937 19:-0.817081 20:-0.405992 21:-0.821634 22:0.533567 23:-0.406535 24:0.732682 25:-0.0970106 26:0.025999 27:-0.057752 28:-0.804934 29:-0.919187 30:-0.852057 31:-0.790923 32:-0.918615 33:-0.852633 34:0.448595 35:0.693057 36:-0.0605048 
-0 0 1 0 1 1 1:-0.131611 2:-0.887726 3:0.277066 4:-0.981065 5:-0.98296 6:-0.841459 7:-0.915 8:0.683913 9:-0.766567 10:0.0357298 11:-0.237235 12:-0.511494 13:-0.114456 14:-0.749532 15:0.193805 16:-0.914889 17:-0.933386 18:-0.815446 19:-0.859985 20:-0.429527 21:-0.771867 22:0.557469 23:-0.40825 24:0.755112 25:0.0951722 26:0.01458 27:0.0589051 28:-0.724099 29:-0.907024 30:-0.860974 31:-0.720293 32:-0.906638 33:-0.865868 34:0.46079 35:0.725116 36:-0.051212 
-0 0 1 0 1 1 1:-0.127275 2:-0.886305 3:0.292544 4:-0.980796 5:-0.98322 6:-0.864381 7:-0.918051 8:0.679923 9:-0.759606 10:0.0358328 11:-0.232099 12:-0.517356 13:-0.0839624 14:-0.680875 15:0.193797 16:-0.90179 17:-0.936541 18:-0.822883 19:-0.874948 20:-0.491901 21:-0.779045 22:0.576174 23:-0.427196 24:0.732744 25:0.471981 26:-0.0619346 27:0.266841 28:-0.681256 29:-0.895798 30:-0.809852 31:-0.6803 32:-0.895744 33:-0.81007 34:0.469847 35:0.790153 36:-0.0550568 
-0 0 1 0 1 1 1:-0.124726 2:-0.885633 3:0.27808 4:-0.974934 5:-0.979519 6:-0.828373 7:-0.917876 8:0.679391 9:-0.759245 10:0.0280062 11:-0.250015 12:-0.499484 13:-0.0498476 14:-0.696231 15:0.190506 16:-0.859713 17:-0.931807 18:-0.825612 19:-0.87355 20:-0.475685 21:-0.783297 22:0.561062 23:-0.437012 24:0.732791 25:0.539648 26:-0.0886251 27:0.328108 28:-0.704355 29:-0.889565 30:-0.777922 31:-0.701473 32:-0.889259 33:-0.773757 34:0.505507 35:0.79407 36:-0.0658541 
-0 0 1 0 1 1 1:-0.100478 2:-0.893364 3:0.26041 4:-0.973844 5:-0.977336 6:-0.801701 7:-0.933683 8:0.701399 9:-0.765867 10:0.0288707 11:-0.245151 12:-0.488853 13:-0.0335077 14:-0.735689 15:0.155625 16:-0.898198 17:-0.938732 18:-0.861431 19:-0.903012 20:-0.445419 21:-0.833376 22:0.564122 23:-0.399662 24:0.725366 25:0.0887598 26:0.195544 27:0.125222 28:-0.677399 29:-0.890135 30:-0.795958 31:-0.673444 32:-0.882733 33:-0.80322 34:0.440597 35:0.780609 36:-0.0437391 
-0 0 0 0 1 1 1:-0.117341 2:-0.875829 3:0.291302 4:-0.97306 5:-0.976038 6:-0.797273 7:-0.922378 8:0.65388 9:-0.729347 10:0.0286341 11:-0.246279 12:-0.485096 13:-0.0161015 14:-0.773645 15:0.162355 16:-0.863971 17:-0.936478 18:-0.789169 19:-0.893173 20:-0.409447 21:-0.760902 22:0.541527 23:-0.415828 24:0.749132 25:-0.146619 26:0.0416081 27:0.0566395 28:-0.714699 29:-0.871821 30:-0.830738 31:-0.697328 32:-0.870948 33:-0.836712 34:0.440567 35:0.731819 36:-0.0396762 
-0 0 0 0 1 1 1:-0.101883 2:-0.875105 3:0.307628 4:-0.965746 5:-0.978022 6:-0.817547 7:-0.930048 8:0.651213 9:-0.719214 10:0.0242342 11:-0.260152 12:-0.496394 13:-0.00149365 14:-0.716877 15:0.204452 16:-0.847671 17:-0.942543 18:-0.746063 19:-0.890843 20:-0.464562 21:-0.699515 22:0.53916 23:-0.438683 24:0.764974 25:0.221006 26:-0.0186383 27:0.2448 28:-0.645327 29:-0.864282 30:-0.773449 31:-0.645094 32:-0.864237 33:-0.776605 34:0.43791 35:0.809714 36:-0.0505856 
-0 0 0 0 1 1 1:-0.0987442 2:-0.887604 3:0.275275 4:-0.975528 5:-0.980074 6:-0.796795 7:-0.935335 8:0.684595 9:-0.747452 10:0.0307034 11:-0.253401 12:-0.494459 13:-0.00289653 14:-0.678429 15:0.204864 16:-0.855535 17:-0.934797 18:-0.745626 19:-0.89447 20:-0.492865 21:-0.698879 22:0.513959 23:-0.375698 24:0.722747 25:0.639936 26:-0.0398973 27:0.374131 28:-0.646453 29:-0.862835 30:-0.829029 31:-0.639573 32:-0.86285 33:-0.817719 34:0.461538 35:0.743103 36:-0.0488753 
-0 0 0.94404622467983934 0 1 1 1:-0.0994936 2:-0.903525 3:0.224663 4:-0.987001 5:-0.982072 6:-0.772854 7:-0.938769 8:0.727842 9:-0.787362 10:0.0411328 11:-0.233606 12:-0.495035 13:-0.0119654 14:-0.728944 15:0.1892 16:-0.85233 17:-0.910701 18:-0.744665 19:-0.888817 20:-0.433458 21:-0.705843 22:0.548919 23:-0.331968 24:0.759403 25:0.562466 26:-0.0609474 27:0.3257 28:-0.660962 29:-0.882534 30:-0.870158 31:-0.657371 32:-0.882488 33:-0.862845 34:0.425871 35:0.705766 36:-0.0469316 
-0 0 0 0 1 1 1:-0.0346786 2:-0.922367 3:0.205793 4:-0.982125 5:-0.984716 6:-0.782636 7:-0.970295 8:0.77966 9:-0.808495 10:0.039728 11:-0.245581 12:-0.505071 13:0.0324711 14:-0.72723 15:0.13377 16:-0.879843 17:-0.934621 18:-0.844959 19:-0.920391 20:-0.450326 21:-0.825693 22:0.560384 23:-0.333995 24:0.771134 25:0.177927 26:0.135404 27:0.195323 28:-0.601762 29:-0.854886 30:-0.804786 31:-0.600729 32:-0.850793 33:-0.809592 34:0.356583 35:0.817491 36:-0.0590763 
-0 0 0 0 1 1 1:-0.0464216 2:-0.902653 3:0.249088 4:-0.980744 5:-0.981807 6:-0.763786 7:-0.964876 8:0.725514 9:-0.759617 10:0.0370014 11:-0.248918 12:-0.493175 13:0.0615818 14:-0.807399 15:0.128395 16:-0.865221 17:-0.929699 18:-0.773706 19:-0.92024 20:-0.373452 21:-0.758795 22:0.566842 23:-0.315067 24:0.801406 25:-0.153309 26:0.058079 27:0.15406 28:-0.698781 29:-0.825615 30:-0.841667 31:-0.680935 32:-0.824351 33:-0.84663 34:0.411032 35:0.723767 36:-0.0548256 
-0 0 1 0 1 1 1:-0.034873 2:-0.88238 3:0.3205 4:-0.986812 5:-0.978904 6:-0.807247 7:-0.97181 8:0.670711 9:-0.698058 10:0.04549 11:-0.214438 12:-0.497181 13:0.0187965 14:-0.752413 15:0.206074 16:-0.877337 17:-0.940551 18:-0.782775 19:-0.914526 20:-0.431511 21:-0.734081 22:0.547013 23:-0.413084 24:0.779649 25:0.169555 26:-0.0286359 27:0.179616 28:-0.6834 29:-0.846095 30:-0.879734 31:-0.681997 32:-0.846095 33:-0.882444 34:0.470865 35:0.672256 36:-0.0633612 
-0 0 1 0 1 1 1:-0.0134148 2:-0.904847 3:0.296209 4:-0.991561 5:-0.98222 6:-0.852444 7:-0.981268 8:0.731465 9:-0.749611 10:0.0502159 11:-0.205213 12:-0.514138 13:0.0417206 14:-0.67293 15:0.176666 16:-0.843804 17:-0.949077 18:-0.888148 19:-0.90381 20:-0.506689 21:-0.850141 22:0.472704 23:-0.425928 24:0.735747 25:0.598326 26:-0.255768 27:0.29353 28:-0.717154 29:-0.87657 30:-0.875246 31:-0.712033 32:-0.870346 33:-0.870836 34:0.54559 35:0.656539 36:-0.0563214 
-0 0 1 0 1 1 1:0.0537162 2:-0.942571 3:0.194473 4:-0.964429 5:-0.990384 6:-0.847161 7:-0.986445 8:0.835105 9:-0.848224 10:0.0486431 11:-0.217854 12:-0.533044 13:0.0639638 14:-0.743132 15:0.116202 16:-0.784495 17:-0.943519 18:-0.813379 19:-0.877499 20:-0.441809 21:-0.800977 22:0.491095 23:-0.417855 24:0.76893 25:0.596969 26:-0.666736 27:0.371266 28:-0.714766 29:-0.844164 30:-0.823516 31:-0.709707 32:-0.791604 33:-0.812765 34:0.531815 35:0.618459 36:-0.0554077 
-0 0 1 0 -0 1 1:0.112654 2:-0.950474 3:0.162255 4:-0.989225 5:-0.989895 6:-0.828591 7:-0.994846 8:0.857998 9:-0.862941 10:0.0525068 11:-0.204984 12:-0.529883 13:0.0315784 14:-0.749894 15:0.131111 16:-0.831296 17:-0.956738 18:-0.833146 19:-0.894103 20:-0.444179 21:-0.815215 22:0.590541 23:-0.390142 24:0.776207 25:0.493464 26:-0.767356 27:0.444608 28:-0.61435 29:-0.884424 30:-0.802555 31:-0.613009 32:-0.813627 33:-0.782358 34:0.552742 35:0.663761 36:-0.0439518 
-0 0 1 0 1 1 1:0.0863427 2:-0.945295 3:0.173659 4:-0.987962 5:-0.98902 6:-0.812156 7:-0.995892 8:0.843403 9:-0.847325 10:0.0509956 11:-0.213342 12:-0.524293 13:0.0383682 14:-0.738377 15:0.139402 16:-0.890673 17:-0.969695 18:-0.909554 19:-0.927964 20:-0.462873 21:-0.886004 22:0.586748 23:-0.284572 24:0.724866 25:0.122539 26:-0.218427 27:0.222301 28:-0.660396 29:-0.896563 30:-0.864064 31:-0.657673 32:-0.892308 33:-0.86529 34:0.535746 35:0.632297 36:-0.0405428 
-0 0 1 0 1 1 1:0.0620018 2:-0.932118 3:0.217751 4:-0.990553 5:-0.986226 6:-0.808697 7:-0.996036 8:0.806737 9:-0.810515 10:0.052389 11:-0.205694 12:-0.514788 13:0.0425625 14:-0.780885 15:0.155324 16:-0.738353 17:-0.961665 18:-0.862122 19:-0.847546 20:-0.41889 21:-0.834162 22:0.563753 23:-0.407839 24:0.743738 25:-0.124542 26:-0.0700993 27:0.197995 28:-0.757643 29:-0.875756 30:-0.80937 31:-0.74181 32:-0.875647 33:-0.813883 34:0.454814 35:0.639197 36:-0.0795683 
-0 0 0.031704105700159656 0 1 1 1:0.031492 2:-0.913843 3:0.275115 4:-0.988095 5:-0.983884 6:-0.831958 7:-0.991424 8:0.75599 9:-0.764251 10:0.045894 11:-0.214084 12:-0.513124 13:0.0302148 14:-0.730758 15:0.203493 16:-0.733691 17:-0.947169 18:-0.844382 19:-0.841379 20:-0.455235 21:-0.794863 22:0.576863 23:-0.532684 24:0.758248 25:0.173704 26:-0.148408 27:0.32789 28:-0.696651 29:-0.89021 30:-0.781126 31:-0.695325 32:-0.888645 33:-0.776866 34:0.401024 35:0.741199 36:-0.088502 
-0 0 1 0 1 1 1:0.00784879 2:-0.909487 3:0.262787 4:-0.987706 5:-0.983322 6:-0.789044 7:-0.986181 8:0.744005 9:-0.757369 10:0.0425222 11:-0.230419 12:-0.503978 13:0.0281476 14:-0.665207 15:0.204731 16:-0.889537 17:-0.950774 18:-0.865889 19:-0.924218 20:-0.514289 21:-0.814965 22:0.557771 23:-0.46503 24:0.740602 25:0.601119 26:0.003682 27:0.271885 28:-0.652384 29:-0.922462 30:-0.861904 31:-0.647274 32:-0.922217 33:-0.859809 34:0.414735 35:0.718886 36:-0.0478799 
-0 0 1 0 1 1 1:-0.00017631 2:-0.917866 3:0.22029 4:-0.985669 5:-0.982656 6:-0.757095 7:-0.983321 8:0.767713 9:-0.783864 10:0.0401425 11:-0.239309 12:-0.495543 13:0.035826 14:-0.701398 15:0.196337 16:-0.858297 17:-0.944189 18:-0.85555 19:-0.909867 20:-0.479151 21:-0.809292 22:0.571051 23:-0.497538 24:0.753932 25:0.663067 26:-0.000565962 27:0.320585 28:-0.665385 29:-0.915441 30:-0.862048 31:-0.657293 32:-0.915244 33:-0.855556 34:0.444318 35:0.692877 36:-0.053846 
-0 0 1 0 1 1 1:0.00994569 2:-0.93426 3:0.184231 4:-0.985656 5:-0.985382 6:-0.784807 7:-0.986015 8:0.81313 9:-0.826663 10:0.0418323 11:-0.231981 12:-0.510257 13:0.022082 14:-0.735474 15:0.214563 16:-0.856053 17:-0.93947 18:-0.844905 19:-0.904262 20:-0.446086 21:-0.789465 22:0.60987 23:-0.495048 24:0.753535 25:0.466652 26:-0.00617417 27:0.257677 28:-0.593568 29:-0.876825 30:-0.820495 31:-0.592903 32:-0.876687 33:-0.82101 34:0.455653 35:0.751059 36:-0.0817511 
-0 0 1 0 1 1 1:0.0272565 2:-0.93847 3:0.168792 4:-0.993279 5:-0.986422 6:-0.772683 7:-0.99241 8:0.824769 9:-0.832078 10:0.0539755 11:-0.206124 12:-0.512911 13:0.0154894 14:-0.726102 15:0.16055 16:-0.904853 17:-0.949291 18:-0.898678 19:-0.928087 20:-0.460736 21:-0.867296 22:0.596921 23:-0.413418 24:0.736733 25:0.163108 26:0.0910883 27:0.211603 28:-0.593883 29:-0.879418 30:-0.84953 31:-0.592491 32:-0.877137 33:-0.851883 34:0.448613 35:0.734997 36:-0.0725369 
-0 0 1 0 1 1 1:0.00812049 2:-0.91478 3:0.228842 4:-0.990248 5:-0.979347 6:-0.749919 7:-0.987115 8:0.760217 9:-0.772674 10:0.0475853 11:-0.218174 12:-0.486505 13:0.00563377 14:-0.757187 15:0.142082 16:-0.896016 17:-0.95734 18:-0.896979 19:-0.919628 20:-0.437937 21:-0.872893 22:0.600801 23:-0.384478 24:0.732328 25:-0.164898 26:0.015847 27:0.239994 28:-0.728414 29:-0.910057 30:-0.858046 31:-0.709613 32:-0.909652 33:-0.858404 34:0.421833 35:0.68016 36:-0.0566325 
-0 0 1 0 1 1 1:-0.00909315 2:-0.891143 3:0.300898 4:-0.988154 5:-0.975754 6:-0.788542 7:-0.9815 8:0.695843 9:-0.713759 10:0.0416816 11:-0.226181 12:-0.484629 13:0.00368043 14:-0.716012 15:0.21276 16:-0.881714 17:-0.956743 18:-0.845613 19:-0.911191 20:-0.474432 21:-0.791129 22:0.602173 23:-0.430187 24:0.751473 25:0.168722 26:-0.0860203 27:0.265896 28:-0.699839 29:-0.904117 30:-0.813647 31:-0.698382 32:-0.903843 33:-0.813798 34:0.363697 35:0.726626 36:-0.0681093 
-0 0 0 0 1 1 1:0.000230391 2:-0.893464 3:0.278139 4:-0.989685 5:-0.974638 6:-0.73984 7:-0.984801 8:0.702627 9:-0.717329 10:0.0431077 11:-0.226054 12:-0.471224 13:0.0335693 14:-0.657873 15:0.22163 16:-0.889876 17:-0.959116 18:-0.840624 19:-0.926105 20:-0.525782 21:-0.78141 22:0.572851 23:-0.422048 24:0.74834 25:0.693963 26:-0.0363665 27:0.310639 28:-0.642745 29:-0.887797 30:-0.835996 31:-0.632998 32:-0.887808 33:-0.831444 34:0.330544 35:0.741997 36:-0.0750074 
-0 0 1 0 1 1 1:0.0238495 2:-0.916851 3:0.21513 4:-0.990004 5:-0.977906 6:-0.7299 7:-0.990629 8:0.766537 9:-0.775574 10:0.0430371 11:-0.226229 12:-0.477057 13:0.0643147 14:-0.709419 15:0.212047 16:-0.923454 17:-0.950694 18:-0.860697 19:-0.952026 20:-0.476334 21:-0.806066 22:0.567161 23:-0.407406 24:0.753326 25:0.641319 26:-0.045438 27:0.26905 28:-0.651268 29:-0.894405 30:-0.850499 31:-0.644311 32:-0.894412 33:-0.849048 34:0.330158 35:0.739547 36:-0.0717647 
-0 0 1 0 1 1 1:0.045548 2:-0.939308 3:0.183601 4:-0.993526 5:-0.984826 6:-0.795353 7:-0.995404 8:0.827726 9:-0.832121 10:0.0502901 11:-0.204454 12:-0.51036 13:0.0371089 14:-0.718377 15:0.201792 16:-0.915661 17:-0.94627 18:-0.867181 19:-0.940983 20:-0.465632 21:-0.817737 22:0.596707 23:-0.425228 24:0.770352 25:0.387171 26:0.0568184 27:0.178803 28:-0.617863 29:-0.910294 30:-0.831371 31:-0.618366 32:-0.909054 33:-0.835895 34:0.347832 35:0.741604 36:-0.0660727 
-0 0 0 0 0 1 1:0.0254561 2:-0.935326 3:0.178472 4:-0.988908 5:-0.985784 6:-0.772509 7:-0.990576 8:0.816024 9:-0.825118 10:0.0573174 11:-0.168124 12:-0.512636 13:-0.0110994 14:-0.733909 15:0.131685 16:-0.813931 17:-0.918422 18:-0.849707 19:-0.86863 20:-0.433984 21:-0.830995 22:0.598659 23:-0.532145 24:0.746512 25:0.0332849 26:-0.0607159 27:0.215921 28:-0.558881 29:-0.659249 30:-0.639473 31:-0.552807 32:-0.659228 33:-0.649332 34:0.558618 35:0.579835 36:-0.0939747 
-0 0 0 0 1 1 1:-0.0581549 2:-0.878815 3:0.282583 4:-0.946623 5:-0.978374 6:-0.738858 7:-0.947864 8:0.661176 9:-0.711833 10:0.091201 11:-0.0821281 12:-0.485208 13:-0.07596 14:-0.703589 15:0.191945 16:-0.848529 17:-0.94248 18:-0.838054 19:-0.851698 20:-0.47615 21:-0.794595 22:0.673042 23:-0.250944 24:0.73321 25:0.274565 26:0.0802771 27:0.341427 28:-0.667371 29:-0.695867 30:-0.877913 31:-0.66779 32:-0.693969 33:-0.868638 34:0.0500879 35:0.543001 36:-0.0203773 
-0 0 0 0 1 0 1:-0.127488 2:-0.871063 3:0.257894 4:-0.99337 5:-0.975629 6:-0.692255 7:-0.922171 8:0.641103 9:-0.71677 10:0.0657176 11:-0.16807 12:-0.467594 13:-0.096348 14:-0.64059 15:0.186514 16:-0.86841 17:-0.950093 18:-0.842464 19:-0.848485 20:-0.5343 21:-0.801481 22:0.688492 23:-0.322129 24:0.739803 25:0.631776 26:-0.181064 27:0.352669 28:-0.628736 29:-0.800803 30:-0.844889 31:-0.622285 32:-0.798157 33:-0.835565 34:0.183187 35:0.679899 36:-0.0917946 
-0 0 0 0 1 0 1:-0.144076 2:-0.881547 3:0.1894 4:-0.994733 5:-0.975261 6:-0.645759 7:-0.910256 8:0.669723 9:-0.756993 10:0.057522 11:-0.191563 12:-0.457997 13:-0.122947 14:-0.685212 15:0.169918 16:-0.876779 17:-0.937883 18:-0.824243 19:-0.832929 20:-0.489058 21:-0.7915 22:0.703281 23:-0.374244 24:0.750912 25:0.67032 26:-0.126619 27:0.389426 28:-0.644571 29:-0.77712 30:-0.824427 31:-0.636135 32:-0.776137 33:-0.811333 34:0.186015 35:0.719351 36:-0.121356 
-0 0 0 0 1 0 1:-0.120446 2:-0.909011 3:0.147185 4:-0.992364 5:-0.979291 6:-0.707477 7:-0.9268 8:0.744099 9:-0.815272 10:0.0527496 11:-0.211071 12:-0.482451 13:-0.115128 14:-0.720961 15:0.107969 16:-0.919451 17:-0.947147 18:-0.894126 19:-0.861912 20:-0.463914 21:-0.881307 22:0.681806 23:-0.341953 24:0.747577 25:0.0899261 26:0.189734 27:0.133441 28:-0.650663 29:-0.815277 30:-0.83486 31:-0.646807 32:-0.808245 33:-0.840551 34:0.207163 35:0.738778 36:-0.113318 
-0 0 0.96308621026131469 0 1 1 1:-0.140553 2:-0.878637 3:0.236711 4:-0.989559 5:-0.971344 6:-0.716652 7:-0.911205 8:0.663173 9:-0.749518 10:0.0514723 11:-0.204834 12:-0.457064 13:-0.138313 14:-0.739734 15:0.126409 16:-0.903178 17:-0.955793 18:-0.873217 19:-0.834488 20:-0.452737 21:-0.855454 22:0.647377 23:-0.378955 24:0.745201 25:-0.135962 26:0.22136 27:0.111928 28:-0.763596 29:-0.835388 30:-0.819562 31:-0.74692 32:-0.826278 33:-0.826115 34:0.253846 35:0.717239 36:-0.105656 
-0 0 0 0 1 0 1:-0.164244 2:-0.858558 3:0.285102 4:-0.994895 5:-0.973819 6:-0.743567 7:-0.893997 8:0.608082 9:-0.711173 10:0.0585585 11:-0.18986 12:-0.470217 13:-0.126956 14:-0.679773 15:0.194967 16:-0.90614 17:-0.958369 18:-0.862283 19:-0.845447 20:-0.506842 21:-0.816472 22:0.65265 23:-0.375262 24:0.735202 25:0.281584 26:-0.0336524 27:0.358063 28:-0.71349 29:-0.791529 30:-0.802756 31:-0.713875 32:-0.791546 33:-0.794357 34:0.162572 35:0.773924 36:-0.142136 
-0 0 0 0 1 0 1:-0.153099 2:-0.865717 3:0.246059 4:-0.992777 5:-0.972121 6:-0.67939 7:-0.902464 8:0.62791 9:-0.722761 10:0.0526208 11:-0.206517 12:-0.451404 13:-0.102146 14:-0.664635 15:0.197367 16:-0.891853 17:-0.948212 18:-0.868534 19:-0.856866 20:-0.513127 21:-0.821299 22:0.665175 23:-0.384695 24:0.733853 25:0.684476 26:-0.123033 27:0.413027 28:-0.685887 29:-0.77399 30:-0.808356 31:-0.676592 32:-0.773089 33:-0.792635 34:0.142988 35:0.759631 36:-0.152719 
-0 0 0 0 1 1 1:-0.177183 2:-0.887518 3:0.16619 4:-0.982251 5:-0.975003 6:-0.710211 7:-0.878503 8:0.68615 9:-0.804333 10:0.0394424 11:-0.240964 12:-0.467138 13:-0.171672 14:-0.720548 15:0.111546 16:-0.882803 17:-0.95122 18:-0.892533 19:-0.793711 20:-0.466891 21:-0.878733 22:0.653781 23:-0.383913 24:0.74225 25:0.0401179 26:0.29354 27:0.105319 28:-0.698672 29:-0.857787 30:-0.761161 31:-0.692635 32:-0.842931 33:-0.769916 34:0.29362 35:0.761494 36:-0.0915601 
-0 0 0 0 1 0 1:-0.186261 2:-0.862567 3:0.237898 4:-0.986902 5:-0.970282 6:-0.708873 7:-0.871887 8:0.620084 9:-0.7447 10:0.047304 11:-0.218897 12:-0.452354 13:-0.16907 14:-0.730436 15:0.15244 16:-0.889405 17:-0.949176 18:-0.883505 19:-0.799703 20:-0.45681 21:-0.855939 22:0.650382 23:-0.406749 24:0.73646 25:-0.0843071 26:0.201973 27:0.0658085 28:-0.766372 29:-0.789695 30:-0.783165 31:-0.753281 32:-0.781894 33:-0.791013 34:0.201856 35:0.763409 36:-0.136258 
-0 0 0 0 1 0 1:-0.166174 2:-0.860571 3:0.272239 4:-0.994918 5:-0.971336 6:-0.729559 7:-0.892371 8:0.614354 9:-0.719029 10:0.0566589 11:-0.196599 12:-0.461406 13:-0.112797 14:-0.667563 15:0.195286 16:-0.900893 17:-0.948183 18:-0.845215 19:-0.853757 20:-0.510646 21:-0.799848 22:0.652154 23:-0.358719 24:0.758685 25:0.354818 26:0.0173456 27:0.221072 28:-0.673527 29:-0.77737 30:-0.80565 31:-0.674129 32:-0.776957 33:-0.809098 34:0.104607 35:0.811841 36:-0.145341 
-0 0 0 0 1 0 1:-0.150306 2:-0.868328 3:0.224109 4:-0.988751 5:-0.970745 6:-0.649258 7:-0.903331 8:0.635436 9:-0.729443 10:0.0447985 11:-0.234811 12:-0.443361 13:-0.0984993 14:-0.666735 15:0.185594 16:-0.881094 17:-0.931953 18:-0.817229 19:-0.853743 20:-0.500933 21:-0.777577 22:0.670241 23:-0.378091 24:0.771023 25:0.671764 26:-0.133102 27:0.348097 28:-0.634724 29:-0.798432 30:-0.790715 31:-0.62623 32:-0.797291 33:-0.783908 34:0.144485 35:0.80803 36:-0.134971 
-0 0 1 0 1 1 1:-0.127651 2:-0.917166 3:0.128385 4:-0.989084 5:-0.983396 6:-0.74287 7:-0.920597 8:0.765484 9:-0.842699 10:0.051499 11:-0.220237 12:-0.498802 13:-0.104968 14:-0.699754 15:0.13812 16:-0.885294 17:-0.95039 18:-0.901083 19:-0.851279 20:-0.484555 21:-0.878295 22:0.676123 23:-0.349064 24:0.752409 25:0.39752 26:0.135501 27:0.14711 28:-0.678455 29:-0.811971 30:-0.815631 31:-0.678735 32:-0.807878 33:-0.821735 34:0.151455 35:0.788448 36:-0.121841 
-0 0 1 0 1 1 1:-0.142747 2:-0.897907 3:0.163673 4:-0.988844 5:-0.979849 6:-0.700148 7:-0.909281 8:0.713054 9:-0.801278 10:0.0489331 11:-0.227461 12:-0.479869 13:-0.132355 14:-0.736886 15:0.110416 16:-0.882332 17:-0.955489 18:-0.902991 19:-0.828286 20:-0.455097 21:-0.889154 22:0.630417 23:-0.3911 24:0.744603 25:-0.150339 26:0.298647 27:0.0532056 28:-0.772727 29:-0.852578 30:-0.831206 31:-0.754959 32:-0.837264 33:-0.837109 34:0.312855 35:0.713188 36:-0.0893591 
-0 0 0 0 1 1 1:-0.158225 2:-0.884173 3:0.212573 4:-0.988805 5:-0.97768 6:-0.726684 7:-0.896941 8:0.676044 9:-0.776277 10:0.0455086 11:-0.229333 12:-0.476956 13:-0.130393 14:-0.724066 15:0.152998 16:-0.892205 17:-0.948852 18:-0.867872 19:-0.835187 20:-0.46226 21:-0.840638 22:0.592002 23:-0.434483 24:0.742083 25:-0.035314 26:0.11711 27:0.147253 28:-0.739647 29:-0.830639 30:-0.776126 31:-0.729626 32:-0.827362 33:-0.783682 34:0.296793 35:0.766632 36:-0.102548 
-0 0 0 0 1 0 1:-0.130663 2:-0.896562 3:0.181562 4:-0.977128 5:-0.980455 6:-0.708113 7:-0.914355 8:0.70912 9:-0.792404 10:0.0353609 11:-0.26474 12:-0.482301 13:-0.0943522 14:-0.703266 15:0.156087 16:-0.809472 17:-0.93297 18:-0.785564 19:-0.818322 20:-0.470331 21:-0.760001 22:0.612378 23:-0.37666 24:0.748953 25:0.680266 26:-0.162664 27:0.362483 28:-0.688569 29:-0.848663 30:-0.756977 31:-0.679503 32:-0.846662 33:-0.749742 34:0.279048 35:0.797395 36:-0.109411 
-0 0 0 0 0 1 1:-0.10451 2:-0.92586 3:0.138339 4:-0.981287 5:-0.986753 6:-0.776922 7:-0.933661 8:0.788807 9:-0.853306 10:0.0429363 11:-0.244744 12:-0.512827 13:-0.101054 14:-0.712821 15:0.119433 16:-0.866066 17:-0.939538 18:-0.880982 19:-0.843845 20:-0.466199 21:-0.865193 22:0.653923 23:-0.369158 24:0.734503 25:0.269089 26:0.147061 27:0.196852 28:-0.672591 29:-0.794163 30:-0.751527 31:-0.672949 32:-0.789511 33:-0.758224 34:0.307904 35:0.833718 36:-0.104777 
-0 0 1 0 1 1 1:-0.117839 2:-0.910602 3:0.178038 4:-0.978619 5:-0.983567 6:-0.763139 7:-0.923926 8:0.747034 9:-0.821005 10:0.0373713 11:-0.255251 12:-0.498091 13:-0.128974 14:-0.744401 15:0.107964 16:-0.855728 17:-0.954767 18:-0.872029 19:-0.816802 20:-0.44788 21:-0.859992 22:0.64631 23:-0.336556 24:0.74871 25:-0.11059 26:0.211687 27:0.0868591 28:-0.785144 29:-0.822716 30:-0.752964 31:-0.770242 32:-0.81427 33:-0.762062 34:0.355267 35:0.759692 36:-0.112437 
-0 0 0 0 0 0.99980324273588561 1:-0.135164 2:-0.894227 3:0.245088 4:-0.986667 5:-0.983758 6:-0.808731 7:-0.914282 8:0.701511 9:-0.784865 10:0.0441841 11:-0.224762 12:-0.507069 13:-0.138171 14:-0.727043 15:0.191282 16:-0.828689 17:-0.951718 18:-0.833881 19:-0.794698 20:-0.461458 21:-0.790894 22:0.597412 23:-0.338726 24:0.751452 25:-0.00979861 26:-0.136819 27:0.348031 28:-0.788597 29:-0.749707 30:-0.746557 31:-0.7799 32:-0.748476 33:-0.741384 34:0.309112 35:0.74803 36:-0.129807 
-0 0 0 0 1 1 1:-0.0879961 2:-0.902138 3:0.219847 4:-0.992502 5:-0.983468 6:-0.736336 7:-0.94757 8:0.723497 9:-0.774447 10:0.0532541 11:-0.212224 12:-0.492877 13:-0.105838 14:-0.783171 15:0.132717 16:-0.766223 17:-0.914708 18:-0.822276 19:-0.786838 20:-0.386641 21:-0.804177 22:0.636193 23:-0.334665 24:0.776705 25:-0.105253 26:0.172462 27:0.124201 28:-0.744232 29:-0.794334 30:-0.818768 31:-0.72978 32:-0.788326 33:-0.825205 34:0.292716 35:0.731762 36:-0.101311 
-0 0 0 0 1 0 1:-0.14401 2:-0.872065 3:0.252079 4:-0.98748 5:-0.974602 6:-0.715579 7:-0.907842 8:0.644179 9:-0.733796 10:0.0435294 11:-0.231856 12:-0.463204 13:-0.163223 14:-0.767165 15:0.139907 16:-0.837512 17:-0.920445 18:-0.785857 19:-0.777337 20:-0.405136 21:-0.766491 22:0.665538 23:-0.342979 24:0.778339 25:-0.117033 26:0.264409 27:0.133817 28:-0.727621 29:-0.789417 30:-0.767963 31:-0.712382 32:-0.777054 33:-0.776111 34:0.28884 35:0.797009 36:-0.1326 
-0 0 0 0 1 1 1:-0.164025 2:-0.871599 3:0.257803 4:-0.983694 5:-0.977245 6:-0.7594 7:-0.890375 8:0.641984 9:-0.748604 10:0.0381806 11:-0.23801 12:-0.478526 13:-0.153289 14:-0.680514 15:0.174929 16:-0.849808 17:-0.928959 18:-0.799232 19:-0.792917 20:-0.487345 21:-0.765149 22:0.6253 23:-0.32064 24:0.746961 25:0.630384 26:-0.161184 27:0.442921 28:-0.732191 29:-0.79546 30:-0.789793 31:-0.7256 32:-0.793513 33:-0.770329 34:0.353521 35:0.759722 36:-0.100373 
-0 0 0 0 0 1 1:-0.180999 2:-0.882527 3:0.225039 4:-0.978293 5:-0.976009 6:-0.789628 7:-0.873746 8:0.672135 9:-0.794948 10:0.0295738 11:-0.248146 12:-0.482378 13:-0.181431 14:-0.706009 15:0.188797 16:-0.838572 17:-0.934415 18:-0.807488 19:-0.76062 20:-0.46887 21:-0.766643 22:0.632708 23:-0.343166 24:0.738296 25:0.508158 26:-0.0189084 27:0.413804 28:-0.749683 29:-0.785681 30:-0.752352 31:-0.747676 32:-0.785646 33:-0.738584 34:0.385852 35:0.776789 36:-0.118314 
