svm_type c_svc
kernel_type rbf
gamma 0.027777777777777776
nr_class 7
total_sv 385
rho -0.82693270310337974 -0.60289348109875773 -0.54050301201661188 -3.1392423189496799 -0.87776189688192074 -0.7746983958749496 0.69822195373975182 0.78080957125405959 0.034601371089260667 0.24475208618838337 -2.3006326074262624 0.0016168687870409106 -0.17608570292476242 -0.55907444100409454 -0.6860559375950227 0.0048479524053939493 -0.40046235261263663 -3.6788018297891916 -0.016453845398930814 -0.075781861270553696 -3.8194414251794586
label 0 1 2 3 4 5 6
probA -4.6237324260487043 -4.9165539223261243 -5.2889482208249552 -4.0085698284672402 -5.0646444714564236 -5.0921017854280253 -3.9298173894720514 -4.0487937761777202 -5.322245913480514 -3.4061138677512615 -4.0200319499474499 -4.6893494333316319 -5.5211401813586525 -4.3650986950619091 -4.3823026166892554 -5.7045493077742719 -4.0157354750893717 -4.1892877992406223 -4.8396381198127614 -5.4488706653982177 -4.0253383935781626
probB -0.22162631969280414 0.28751489420415832 -0.0047964303705915678 -0.16872811627138837 0.027314810637756409 0.076010674060376565 -0.024468709314786181 -0.15110478137370964 0.25662008700949268 0.057270310799656436 -0.40211064233607879 0.44931892369187526 0.18043789900584339 0.28217313334133387 0.51830587631052827 0.012370355454647593 -0.40468431069687499 -0.28188442669209751 -0.62922780162091818 -0.21406182168661816 -0.32210717827689073
nr_sv 53 68 12 62 25 86 79
SV
0 1.4044888543377256 0 0 0 0 1:1 2:-0.112021 3:-0.0420433 4:-0.968742 5:-0.717233 6:-0.434557 7:0.444214 8:-0.675499 9:-0.730214 10:0.659951 11:0.537487 12:0.745847 13:0.96264 14:0.852402 15:0.140412 16:-0.605288 17:-0.95386 18:-0.575909 19:0.29058 20:-0.896374 21:-0.563772 22:-0.483489 23:0.159789 24:-0.407665 25:-0.404639 26:-0.42022 27:-0.432502 28:-0.151952 29:0.136149 30:-0.285003 31:-0.111022 32:0.15538 33:-0.251055 34:-0.0926358 35:-0.210056 36:-0.0563927 
0 1.2243529545431895 0 0 0 0 1:0.716347 2:-0.55106 3:0.133575 4:-0.529475 5:-0.778237 6:-0.618266 7:-0.156251 8:-0.0402379 9:-0.780985 10:0.880026 11:-0.838886 12:-0.881023 13:0.571641 14:0.460905 15:0.558891 16:-0.167407 17:-0.904841 18:-0.0651206 19:-0.251349 20:-0.93818 21:0.296285 22:0.289165 23:-0.1254 24:-0.691997 25:-0.324247 26:0.873848 27:0.173901 28:-0.570313 29:0.524821 30:0.61592 31:-0.537367 32:0.636348 33:0.557891 34:-0.360484 35:-0.0187903 36:0.729379 
5.9548548910825181 1.9415191414655959 0.81734710282712564 0 1.3380667789021043 0.19313634870216415 1:0.639089 2:-0.705839 3:0.134415 4:-0.71034 5:-0.970264 6:-0.734473 7:-0.37439 8:0.226558 9:-0.835451 10:0.849935 11:-0.801334 12:-0.764883 13:0.59333 14:0.121993 15:0.871174 16:-0.0862734 17:-0.965424 18:-0.828981 19:-0.177317 20:-0.944266 21:0.113047 22:-0.386387 23:-0.00743665 24:0.143034 25:0.0382579 26:-0.281095 27:-0.0499139 28:-0.896376 29:0.0336861 30:0.959896 31:-0.88986 32:0.0413582 33:0.892062 34:0.0633282 35:0.226929 36:0.73623 
0.46669971783596104 1.8142649236088642 0.53321233713842686 0 0.7293835510341391 1.1925280829433622 1:0.779953 2:-0.592775 3:-0.232293 4:-0.911542 5:-0.961895 6:-0.822299 7:-0.141844 8:-0.0201848 9:-0.81507 10:0.780963 11:0.408408 12:-0.150237 13:1 14:0.175514 15:0.404377 16:-0.633065 17:-0.967907 18:-0.740979 19:0.374897 20:-0.95697 21:-0.541293 22:0.225023 23:-0.489734 24:-0.276951 25:0.215756 26:-0.374299 27:-0.399017 28:-0.942441 29:-0.602119 30:-0.262788 31:-0.941524 32:-0.587198 33:-0.237122 34:-0.424132 35:0.00686537 36:0.134339 
6.2893178513198595 0 3.7623467360313225 0 1.5478179409075956 3.7586771057787596 1:0.815551 2:-0.536967 3:0.265662 4:-0.955357 5:-0.896897 6:-0.875742 7:-0.0699776 8:-0.109925 9:-0.795278 10:0.947814 11:0.268138 12:0.524507 13:0.716408 14:0.146933 15:0.781084 16:-0.845679 17:-0.968856 18:-0.870362 19:-0.382933 20:-0.951922 21:-0.111117 22:-0.0709672 23:-0.615036 24:-0.00882406 25:0.556414 26:0.241603 27:-0.127949 28:-0.967955 29:-0.720146 30:-0.746845 31:-0.963972 32:-0.709578 33:-0.745618 34:-0.12599 35:-0.632029 36:-0.0775595 
0 0 0 10 0 0 1:0.440413 2:0.235622 3:0.930816 4:-0.895985 5:-0.995003 6:-0.98625 7:-0.746902 8:-0.987028 9:0.740924 10:-0.999167 11:-0.993832 12:0.98731 13:0.368917 14:0.358155 15:0.985306 16:-0.999382 17:-0.999955 18:-0.999855 19:-0.911697 20:-0.998684 21:0.210173 22:-0.693448 23:-0.682471 24:0.503832 25:0.33467 26:-0.0394664 27:0.0840043 28:-0.999886 29:-0.999687 30:-0.999899 31:-0.999884 32:-0.999687 33:-0.999891 34:0.908955 35:-0.576906 36:-0.510061 
0 0 0 9.1693754578172051 0 0 1:0.372425 2:0.260381 3:0.954245 4:-0.932374 5:-0.982471 6:-0.991225 7:-0.834241 8:-0.987471 9:0.826392 10:-0.401645 11:-0.995499 12:0.416351 13:0.404683 14:0.346911 15:0.95488 16:-0.832281 17:-0.98788 18:-0.947663 19:-0.793635 20:-0.990385 21:0.187566 22:-0.836339 23:-0.76487 24:0.410648 25:0.377012 26:0.00302599 27:0.313158 28:-0.951114 29:-0.818447 30:-0.475752 31:-0.951037 32:-0.818221 33:-0.484229 34:0.352137 35:-0.0261468 36:-0.63392 
0 0 0 9.1202390764707157 0 0 1:0.424238 2:0.106979 3:0.928934 4:-0.959615 5:-0.986088 6:-0.994276 7:-0.787794 8:-0.936471 9:0.73017 10:-0.920254 11:-0.995078 12:0.94439 13:0.480476 14:0.218596 15:0.939367 16:-0.93883 17:-0.99524 18:-0.99405 19:-0.777056 20:-0.98183 21:0.106493 22:-0.951305 23:-0.766149 24:0.701269 25:0.274799 26:-0.215578 27:0.235168 28:-0.992539 29:-0.983278 30:-0.954553 31:-0.992313 32:-0.979148 33:-0.951667 34:0.710505 35:-0.687778 36:-0.730543 
0 0.75222099836186163 0 0 0.29340617119041806 0.088868972138339025 1:-0.162247 2:0.543507 3:0.643969 4:1 5:-0.736649 6:-0.44525 7:-0.217663 8:-0.858619 9:0.0972765 10:-0.8909 11:0.870457 12:-0.595273 13:-0.121308 14:0.602156 15:0.61324 16:0.387208 17:-0.948682 18:-0.808134 19:-0.156999 20:-0.953609 21:-0.34131 22:-0.892797 23:0.825143 24:-0.571601 25:0.718472 26:0.913693 27:-0.339659 28:-0.985385 29:-0.762418 30:-0.881913 31:-0.973499 32:-0.640794 33:-0.845457 34:0.362448 35:-0.265948 36:0.176942 
0 0 0 10 0 0 1:0.185239 2:0.303697 3:0.989068 4:-0.931007 5:-0.996628 6:-0.997815 7:-0.958748 8:-0.997677 9:0.957809 10:0.0315515 11:-0.91888 12:-0.222547 13:0.258772 14:0.389328 15:0.992371 16:-0.914995 17:-0.987972 18:-0.975966 19:-0.929237 20:-0.992018 21:0.250483 22:-0.314681 23:-0.219672 24:0.128388 25:0.412227 26:-0.309117 27:0.512184 28:-0.979487 29:-0.89162 30:-0.574278 31:-0.978994 32:-0.881932 33:-0.550984 34:0.394258 35:0.108689 36:-0.270463 
0 0 0 10 0 0 1:0.24601 2:0.255306 3:0.981955 4:-0.95878 5:-0.983496 6:-0.998708 7:-0.940713 8:-0.986947 9:0.92952 10:-0.546326 11:-0.968482 12:0.507522 13:0.298249 14:0.356696 15:0.992065 16:-0.963071 17:-0.994053 18:-0.986934 19:-0.936862 20:-0.994832 21:0.239152 22:-0.205675 23:-0.21389 24:0.165313 25:0.213701 26:-0.11529 27:0.666883 28:-0.93498 29:-0.889069 30:-0.782176 31:-0.93404 32:-0.88832 33:-0.717316 34:0.898795 35:0.27254 36:0.346804 
0 0 0 0 0.024440908495228574 0.47198538354937736 1:0.150525 2:0.212512 3:0.982157 4:-0.866186 5:-0.997039 6:-0.998461 7:-0.946759 8:-0.981964 9:0.930423 10:0.11607 11:0.846733 12:0.332235 13:0.19949 14:0.318154 15:0.9879 16:-0.887836 17:-0.997279 18:-0.994754 19:-0.93277 20:-0.994551 21:0.221419 22:-0.129227 23:0.357624 24:0.0183366 25:0.317202 26:-0.0271278 27:0.00501374 28:-0.992855 29:-0.691128 30:-0.971131 31:-0.992857 32:-0.69114 33:-0.970564 34:0.162565 35:-0.266021 36:0.108357 
0 0 0 10 0 0 1:0.174537 2:0.599618 3:0.965441 4:-0.934318 5:-0.946033 6:-0.994627 7:-0.963407 8:-0.902857 9:0.867514 10:0.429874 11:-0.770916 12:-0.885918 13:0.220192 14:0.660297 15:0.953638 16:-0.933273 17:-0.983144 18:-0.983354 19:-0.952047 20:-0.965985 21:0.150204 22:-0.14558 23:0.0309621 24:-0.593926 25:0.510677 26:-0.0320317 27:-0.119385 28:-0.960194 29:-0.923125 30:-0.855653 31:-0.957697 32:-0.923125 33:-0.851226 34:0.38606 35:-0.626504 36:0.309683 
0 0 0 0 0.86121591000895614 0 1:0.441815 2:0.110837 3:0.908513 4:-0.87984 5:-0.916724 6:-0.983109 7:-0.739702 8:-0.913946 9:0.660824 10:-0.756308 11:-0.965225 12:0.59779 13:0.511459 14:0.176258 15:0.912735 16:-0.837474 17:-0.960951 18:-0.967382 19:-0.687467 20:-0.952646 21:0.0712328 22:-0.683644 23:-0.43292 24:-0.184211 25:-0.0974094 26:-0.247864 27:0.575732 28:-0.91645 29:-0.882836 30:-0.19336 31:-0.90219 32:-0.87706 33:-0.171445 34:0.29791 35:-0.846316 36:0.02884 
2.8848274457538925 0 0.65982808066241083 0 0 0 1:0.654784 2:-0.0339404 3:0.791908 4:-0.911955 5:-0.99017 6:-0.971114 7:-0.412734 8:-0.843392 9:0.271953 10:-0.896143 11:-0.986217 12:0.937139 13:0.739557 14:0.0852751 15:0.789215 16:-0.939839 17:-0.997222 18:-0.977031 19:-0.390239 20:-0.955753 21:-0.198206 22:-0.659868 23:-0.80495 24:0.305612 25:0.203221 26:-0.233808 27:0.0425482 28:-0.995067 29:-0.958902 30:-0.986071 31:-0.993807 32:-0.953873 33:-0.986065 34:0.773698 35:-0.113632 36:0.2606 
0.015569023430447132 0 0 0 1.5699917768402609 0 1:0.747917 2:-0.105089 3:0.722364 4:-0.999684 5:-0.999978 6:-0.999853 7:-0.246186 8:-0.782217 9:0.0486344 10:0.12954 11:-0.989332 12:0.0170959 13:0.828433 14:0.0292347 15:0.729413 16:-0.999348 17:-0.999977 18:-0.999697 19:-0.240932 20:-0.941902 21:-0.332585 22:-0.502841 23:-0.937775 24:0.58104 25:0.322652 26:-0.0318259 27:0.0903184 28:-0.999898 29:-0.998948 30:-0.999869 31:-0.999894 32:-0.99894 33:-0.999874 34:-0.539641 35:0.597227 36:-0.869411 
0 0 0 0 0.11646103089899583 0 1:0.706265 2:-0.0119496 3:0.779709 4:-0.999996 5:-1 6:-0.999999 7:-0.337768 8:-0.864544 9:0.220128 10:0.103417 11:-0.986907 12:0.0593125 13:0.785679 14:0.111594 15:0.787232 16:-0.999984 17:-0.999995 18:-0.999988 19:-0.331518 20:-0.964025 21:-0.224224 22:0.163196 23:0.00709357 24:-0.253832 25:0.330282 26:-0.0382155 27:0.0917408 28:-0.999998 29:-0.999992 30:-0.999996 31:-0.999998 32:-0.999991 33:-0.999996 34:-0.422604 35:-0.477532 36:0.327907 
0 0 0 3.1067120706373168 0 0 1:0.623702 2:0.0918634 3:0.848931 4:-0.992196 5:-0.999591 6:-0.99743 7:-0.498958 8:-0.933231 9:0.445743 10:-0.942131 11:-0.998926 12:0.943425 13:0.699695 14:0.201652 15:0.855294 16:-0.988604 17:-0.999629 18:-0.996867 19:-0.489618 20:-0.981936 21:-0.0828295 22:-0.961355 23:-0.973619 24:0.964006 25:0.321975 26:0.0343084 27:0.0566344 28:-0.999775 29:-0.989179 30:-0.99495 31:-0.99977 32:-0.988444 33:-0.994874 34:0.02326 35:0.0113607 36:-1 
0 0 0 10 0 0 1:0.611202 2:0.0960375 3:0.857289 4:-0.999994 5:-0.999999 6:-0.999999 7:-0.524388 8:-0.935637 9:0.472906 10:-0.255507 11:-0.987596 12:0.404351 13:0.686221 14:0.206307 15:0.866138 16:-0.999935 17:-0.999988 18:-0.999976 19:-0.519325 20:-0.982932 21:-0.0627333 22:-0.571371 23:-0.666709 24:0.322111 25:0.330204 26:-0.0374727 27:0.0914462 28:-0.999996 29:-0.999949 30:-0.999986 31:-0.999996 32:-0.999948 33:-0.999987 34:0.229446 35:-0.432648 36:-0.851283 
0 0 0 1.9649674931932075 0 0 1:0.610167 2:0.0965165 3:0.857896 4:-0.999999 5:-0.999999 6:-1 7:-0.526252 8:-0.935894 9:0.474978 10:-0.343799 11:-0.945205 12:0.631589 13:0.685996 14:0.206025 15:0.866251 16:-0.999992 17:-0.999994 18:-0.999991 19:-0.519746 20:-0.98289 21:-0.0625068 22:0.124252 23:-0.132437 24:0.00812136 25:0.330491 26:-0.0383409 27:0.0915478 28:-0.999997 29:-0.999993 30:-0.999998 31:-0.999997 32:-0.999993 33:-0.999998 34:0.159611 35:-0.505882 36:-0.0401636 
0 0 0 1.7613274882872008 4.2399604947982494 0 1:-0.390219 2:0.235695 3:0.898515 4:-0.999555 5:-0.999373 6:-0.999914 7:-0.617951 8:-0.988587 9:0.616947 10:0.922681 11:0.997673 12:0.940793 13:-0.366017 14:0.328552 15:0.901325 16:-0.998111 17:-0.99989 18:-0.999911 19:-0.612397 20:-0.996973 21:0.0142557 22:0.636426 23:0.164206 24:0.607974 25:0.300817 26:-0.00625456 27:0.025536 28:-0.99964 29:-0.997439 30:-0.988211 31:-0.999573 32:-0.997288 33:-0.987699 34:-0.938489 35:0.989624 36:-0.972968 
0 0 0 0 3.420160268055235 2.5724491487662409 1:-0.627111 2:0.0884158 3:0.736346 4:-0.993956 5:-0.996013 6:-0.995696 7:-0.138051 8:-0.93007 9:0.0912338 10:0.924367 11:0.992322 12:0.958165 13:-0.588635 14:0.19106 15:0.74519 16:-0.953816 17:-0.993857 18:-0.971618 19:-0.165194 20:-0.976426 21:-0.276664 22:-0.121863 23:0.599453 24:-0.608507 25:0.312415 26:0.0395822 27:0.099396 28:-0.984214 29:-0.984762 30:-0.949023 31:-0.984221 32:-0.983919 33:-0.950886 34:-0.866849 35:-0.60484 36:0.280562 
0 0 0.40320900158189699 0 0 0 1:-0.652376 2:0.0581956 3:0.71104 4:-0.999981 5:-0.999997 6:-0.999987 7:-0.0778246 8:-0.913699 9:0.0162297 10:0.23545 11:0.993589 12:0.342781 13:-0.632465 14:0.171557 15:0.711481 16:-0.99943 17:-0.999991 18:-0.999966 19:-0.0880129 20:-0.976805 21:-0.364874 22:0.783616 23:0.552666 24:0.42594 25:0.328639 26:-0.0467661 27:0.0973895 28:-0.999988 29:-0.999639 30:-0.999763 31:-0.999988 32:-0.999632 33:-0.999763 34:0.87403 35:-0.762814 36:-0.959751 
1.5135318535551461 0 0 0 3.2938372443618626 0.57563228168255054 1:-0.65503 2:0.113403 3:0.714333 4:-0.994186 5:-0.971072 6:-0.993721 7:-0.0691889 8:-0.934418 9:0.0285439 10:0.47381 11:0.975334 12:0.636599 13:-0.635709 14:0.218221 15:0.713154 16:-0.975628 17:-0.996224 18:-0.997766 19:-0.0675002 20:-0.982403 21:-0.359796 22:0.557626 23:0.613584 24:0.432393 25:0.317471 26:0.079412 27:0.130301 28:-0.998716 29:-0.970428 30:-0.781167 31:-0.998706 32:-0.968528 33:-0.788892 34:-0.0112553 35:0.273007 36:-0.696006 
0 1.1799093028901952 0 0 0 0 1:-0.711858 2:0.125511 3:0.659953 4:-0.979467 5:-0.974883 6:-0.979539 7:0.0843516 8:-0.941633 9:-0.113714 10:0.718186 11:0.996305 12:0.758269 13:-0.698526 14:0.229966 15:0.654578 16:-0.958481 17:-0.996721 18:-0.992239 19:0.0984295 20:-0.984472 21:-0.453842 22:0.74107 23:0.774622 24:0.628287 25:0.305756 26:0.0389519 27:0.156396 28:-0.998448 29:-0.959703 30:-0.778149 31:-0.998405 32:-0.958876 33:-0.785387 34:0.19983 35:0.21142 36:-0.629775 
0 0.71901667167397221 0.68185461695248528 0 0 0 1:-0.767285 2:0.0826393 3:0.600998 4:-0.999998 5:-0.999999 6:-0.999998 7:0.232859 8:-0.928238 9:-0.271685 10:-0.887818 11:0.997577 12:-0.852148 13:-0.754546 14:0.195547 15:0.599201 16:-0.99998 17:-0.999998 18:-0.999998 19:0.226376 20:-0.981141 21:-0.547546 22:0.21074 23:-0.733445 24:-0.324506 25:0.3302 26:-0.0392832 27:0.0915224 28:-1 29:-0.999997 30:-0.999997 31:-1 32:-0.999997 33:-0.999997 34:0.443724 35:0.209703 36:-0.250225 
0 0.11850413486953146 0.057133960263748701 0 0 0 1:-0.760187 2:0.098068 3:0.610305 4:-0.996817 5:-0.992985 6:-0.994896 7:0.213444 8:-0.934248 9:-0.246774 10:0.983847 11:0.99975 12:0.9806 13:-0.745159 14:0.2088 15:0.610037 16:-0.992142 17:-0.99902 18:-0.998466 19:0.204725 20:-0.982715 21:-0.52979 22:0.767434 23:0.704351 24:0.952664 25:0.337267 26:0.0455667 27:-0.0699435 28:-0.999843 29:-0.995462 30:-0.981018 31:-0.999839 32:-0.994486 33:-0.976012 34:0.35162 35:-0.152495 36:-0.853851 
0 0.12010962261193332 0 0 0 0 1:-0.804644 2:0.0780172 3:0.552884 4:-0.999618 5:-0.999953 6:-0.999397 7:0.343697 8:-0.925575 9:-0.382251 10:0.798666 11:0.99917 12:0.820446 13:-0.793116 14:0.192063 15:0.551319 16:-0.999076 17:-0.999988 18:-0.999783 19:0.335961 20:-0.980533 21:-0.615834 22:0.713242 23:0.739232 24:0.587243 25:0.339535 26:-0.0103707 27:0.0682875 28:-0.999907 29:-0.998605 30:-0.998913 31:-0.9999 32:-0.998488 33:-0.998839 34:0.978797 35:-0.689642 36:-0.690539 
0 0.96671492718768404 0 0 0 0 1:-0.808708 2:0.0769718 3:0.547342 4:-1 5:-1 6:-1 7:0.355898 8:-0.924986 9:-0.394717 10:-0.0787183 11:0.969784 12:0.166501 13:-0.796771 14:0.190897 15:0.54629 16:-0.999995 17:-0.999999 18:-0.999999 19:0.346048 20:-0.980337 21:-0.62291 22:0.0813351 23:-0.450759 24:-0.153349 25:0.32968 26:-0.0397108 27:0.0910906 28:-1 29:-0.999999 30:-0.999998 31:-1 32:-0.999999 33:-0.999998 34:0.328764 35:-0.0137922 36:-0.163164 
0 0.45237768361849529 0 0 0 0 1:-0.957934 2:0.310869 3:0.142292 4:-0.944941 5:-0.962952 6:-0.733315 7:0.866368 8:-0.986245 9:-0.830404 10:-0.516767 11:0.851243 12:-0.749485 13:-0.949314 14:0.386212 15:0.123678 16:-0.917771 17:-0.985296 18:-0.879274 19:0.868881 20:-0.990234 21:-0.862192 22:-0.591821 23:0.396103 24:-0.7754 25:0.242507 26:-0.288371 27:0.371494 28:-0.893346 29:-0.556975 30:-0.808702 31:-0.892953 32:-0.54876 33:-0.798468 34:0.609463 35:-0.0444657 36:0.514823 
0 0.35646799537704094 0.58051624780565358 0 0 0 1:-1 2:0.450824 3:-0.145703 4:-1 5:-1 6:-0.999999 7:1 8:-0.985147 9:-0.961597 10:-0.567831 11:-0.961323 12:0.772165 13:-0.999823 14:0.515766 15:-0.150618 16:-0.999997 17:-1 18:-0.999999 19:0.999374 20:-0.996132 21:-0.975374 22:-0.0118053 23:0.0531048 24:-0.200701 25:0.330027 26:-0.0401385 27:0.0908163 28:-1 29:-0.999999 30:-0.999999 31:-1 32:-0.999999 33:-0.999999 34:-0.572623 35:-0.411977 36:0.536285 
0 1.0543493075170962 0 0 0 0 1:-0.44179 2:0.50778 3:0.609688 4:0.553248 5:-0.947295 6:-0.517608 7:-0.0024313 8:-0.948198 9:-0.0226648 10:0.497009 11:0.914131 12:0.371489 13:-0.455259 14:0.558259 15:0.595037 16:0.128936 17:-0.984759 18:-0.837072 19:0.142624 20:-0.982356 21:-0.396553 22:0.198118 23:0.616215 24:0.0996758 25:0.0637517 26:-0.626909 27:0.104958 28:-0.974162 29:-0.113905 30:-0.221412 31:-0.968615 32:-0.0678936 33:-0.250056 34:-0.395051 35:0.362042 36:-0.603644 
0 0 0 10 0 0 1:0.0589123 2:0.396008 3:0.985733 4:-0.851666 5:-0.993604 6:-0.999507 7:-0.948594 8:-0.993674 9:0.94392 10:0.00689695 11:-0.73768 12:0.190387 13:0.117526 14:0.457343 15:0.996275 16:-0.869269 17:-0.992535 18:-0.993366 19:-0.92974 20:-0.994552 21:0.243291 22:-0.292479 23:-0.280123 24:0.213508 25:0.39233 26:-0.258537 27:0.0512702 28:-0.987476 29:-0.907422 30:-0.871319 31:-0.987194 32:-0.901034 33:-0.875711 34:0.693316 35:-0.447191 36:-0.219499 
0 0 0 10 0 0 1:-0.0515241 2:0.683789 3:0.938231 4:-0.855257 5:-0.938717 6:-0.993954 7:-0.919929 8:-0.842518 9:0.764841 10:0.405077 11:-0.189798 12:-0.903646 13:-0.0301816 14:0.726577 15:0.928022 16:-0.842651 17:-0.989155 18:-0.978462 19:-0.874947 20:-0.955546 21:0.0953379 22:0.292793 23:-0.310875 24:-0.640045 25:0.339864 26:0.020423 27:-0.543724 28:-0.929592 29:-0.931619 30:-0.666567 31:-0.929725 32:-0.93114 33:-0.590229 34:-0.254379 35:0.0786523 36:-0.632441 
0 0 0 5.5006194470715393 0 0 1:-0.107041 2:0.614295 3:0.962212 4:-0.998065 5:-0.99995 6:-0.99994 7:-0.937734 8:-0.912963 9:0.852627 10:-0.868793 11:0.995131 12:-0.911362 13:-0.0711914 14:0.663044 15:0.967579 16:-0.99777 17:-0.999914 18:-0.999887 19:-0.934715 20:-0.976218 21:0.16736 22:-0.628185 23:0.537083 24:-0.299839 25:0.329116 26:-0.0178408 27:0.0915224 28:-0.999969 29:-0.999714 30:-0.999862 31:-0.999969 32:-0.999649 33:-0.999867 34:0.210258 35:-0.567189 36:-0.257462 
0 0 0 10 0 0 1:-0.0901299 2:0.610807 3:0.965609 4:-0.999921 5:-0.999994 6:-0.999997 7:-0.948839 8:-0.915144 9:0.86562 10:-0.822328 11:0.988745 12:-0.897398 13:-0.0477734 14:0.656439 15:0.972289 16:-0.999738 17:-0.999983 18:-0.999931 19:-0.949743 20:-0.977514 21:0.178611 22:-0.0454493 23:-0.302497 24:-0.246567 25:0.328375 26:-0.045319 27:0.0942502 28:-0.999994 29:-0.999964 30:-0.999957 31:-0.999994 32:-0.99996 33:-0.999957 34:-0.0226948 35:0.0272613 36:-0.191445 
0 0 0 10 0 0 1:-0.0734158 2:0.639521 3:0.961838 4:-0.997089 5:-0.989117 6:-0.999619 7:-0.957271 8:-0.892666 9:0.851348 10:0.956258 11:-0.893847 12:-0.98727 13:-0.0421612 14:0.686183 15:0.967333 16:-0.998792 17:-0.997573 18:-0.999165 19:-0.95233 20:-0.970064 21:0.167468 22:0.183347 23:-0.154363 24:-0.542639 25:0.380767 26:-0.0283626 27:0.357591 28:-0.994325 29:-0.996703 30:-0.924643 31:-0.994133 32:-0.996685 33:-0.911809 34:-0.359479 35:-0.235001 36:0.614501 
0 1.3228627714124015 0 0 0 0 1:-0.70694 2:0.511156 3:-0.659419 4:-0.929159 5:-0.983747 6:-0.877572 7:0.0881599 8:-0.959751 9:-0.0993113 10:-0.601611 11:-0.985196 12:0.568847 13:-0.680823 14:0.56748 15:-0.683011 16:-0.925257 17:-0.997294 18:-0.958923 19:0.0708091 20:-0.989344 21:-0.403262 22:-0.602836 23:-0.664516 24:0.391175 25:0.313148 26:0.388227 27:0.110546 28:-0.962123 29:-0.938594 30:-0.97105 31:-0.962176 32:-0.914083 33:-0.972034 34:0.501193 35:-0.470443 36:-0.022273 
0 0 0.38775634952762333 0 0 0 1:-0.603782 2:0.501951 3:-0.780333 4:-0.99689 5:-0.99847 6:-0.997961 7:-0.194615 8:-0.968476 9:0.184699 10:-0.610065 11:-0.989987 12:0.714629 13:-0.585056 14:0.559165 15:-0.790545 16:-0.989854 17:-0.999707 18:-0.997943 19:-0.192535 20:-0.991844 21:-0.249052 22:-0.190154 23:0.0810917 24:0.29972 25:0.229196 26:-0.0836311 27:0.0569951 28:-0.990087 29:-0.996251 30:-0.994243 31:-0.989304 32:-0.995995 33:-0.994199 34:0.158722 35:0.465788 36:-0.510087 
0.92887823431378536 0 0.020266240507712335 0 0 0 1:-0.625753 2:0.492222 3:-0.765389 4:-0.999686 5:-0.999438 6:-0.999757 7:-0.143282 8:-0.972339 9:0.138589 10:-0.642893 11:-0.982549 12:0.771853 13:-0.606522 14:0.552365 15:-0.773862 16:-0.998897 17:-0.999884 18:-0.999494 19:-0.148601 20:-0.992697 21:-0.28217 22:-0.435012 23:0.45482 24:-0.0629129 25:0.262546 26:-0.0632852 27:0.0759325 28:-0.995042 29:-0.999286 30:-0.998869 31:-0.994693 32:-0.999212 33:-0.99886 34:0.358652 35:0.426926 36:0.240874 
0 0 0.31064241121681591 0 0 0 1:-0.577803 2:0.49673 3:-0.800522 4:-0.999987 5:-0.999989 6:-0.999993 7:-0.255364 8:-0.970928 9:0.246292 10:-0.949953 11:-0.99871 12:0.963598 13:-0.556349 14:0.555643 15:-0.806211 16:-0.999951 17:-0.999998 18:-0.999976 19:-0.260928 20:-0.992418 21:-0.220699 22:-0.471039 23:0.634461 24:-0.0323274 25:0.331191 26:-0.0367974 27:0.0889799 28:-0.999997 29:-0.999996 30:-0.999993 31:-0.999997 32:-0.999994 33:-0.999993 34:0.414109 35:-0.851772 36:-0.631401 
0 0 0.022170186275271443 0 0 0 1:-0.575762 2:0.496033 3:-0.802029 4:-0.999997 5:-0.999998 6:-0.999998 7:-0.25996 8:-0.971182 9:0.251021 10:-0.951304 11:-0.998888 12:0.963755 13:-0.55402 14:0.555275 15:-0.808014 16:-0.999994 17:-0.999999 18:-0.999992 19:-0.265947 20:-0.992459 21:-0.217187 22:-0.277262 23:0.226356 24:-0.0195417 25:0.32906 26:-0.0408396 27:0.0917357 28:-0.999999 29:-0.999998 30:-0.999998 31:-0.999999 32:-0.999998 33:-0.999998 34:0.212602 35:-0.813973 36:-0.333907 
0 0 0.018757719610550859 0 0 0 1:-0.575773 2:0.497152 3:-0.801891 4:-0.999993 5:-0.999993 6:-0.999997 7:-0.259933 8:-0.970776 9:0.250589 10:-0.581932 11:-0.987501 12:0.702447 13:-0.553707 14:0.556778 15:-0.807702 16:-0.99989 17:-0.999997 18:-0.999973 19:-0.266561 20:-0.992294 21:-0.21778 22:0.160091 23:0.807311 24:0.270617 25:0.329923 26:-0.040161 27:0.0891145 28:-0.999978 29:-0.999986 30:-0.999934 31:-0.999978 32:-0.999986 33:-0.999936 34:-0.207863 35:-0.681023 36:0.65421 
0.53341253143441181 0 0 0 0 0 1:-0.273529 2:0.480943 3:-0.951625 4:-0.999967 5:-0.999995 6:-0.999996 7:-0.783199 8:-0.976352 9:0.765573 10:-0.927048 11:-0.999035 12:0.941588 13:-0.235688 14:0.542038 15:-0.953823 16:-0.999975 17:-0.999998 18:-0.999991 19:-0.789451 20:-0.993824 21:0.0944454 22:-0.577038 23:0.150656 24:-0.0431803 25:0.330998 26:-0.0369003 27:0.0912074 28:-0.999996 29:-0.999991 30:-0.999999 31:-0.999996 32:-0.99999 33:-1 34:0.601754 35:0.028135 36:0.163492 
0 0 0 1.1676898556362763 0 0 1:-0.264298 2:0.496622 3:-0.952367 4:-0.995746 5:-0.997118 6:-0.999544 7:-0.792842 8:-0.969953 9:0.768561 10:-0.0286463 11:-0.940189 12:0.364328 13:-0.232755 14:0.557366 15:-0.952933 16:-0.985076 17:-0.999332 18:-0.992386 19:-0.784819 20:-0.991803 21:0.0997212 22:-0.0720863 23:-0.264565 24:-0.0779782 25:0.285447 26:0.00774987 27:0.0267806 28:-0.987078 29:-0.984457 30:-0.970101 31:-0.986947 32:-0.984156 33:-0.970292 34:-0.437879 35:0.1878 36:-0.804465 
0 0 0.88117340686042589 0 0 0 1:-0.247036 2:0.483464 3:-0.959458 4:-0.999998 5:-0.999998 6:-1 7:-0.814227 8:-0.975524 9:0.79495 10:-0.942487 11:-0.995126 12:0.969989 13:-0.210478 14:0.544783 15:-0.960378 16:-0.999997 17:-0.999999 18:-0.999996 19:-0.817391 20:-0.993553 21:0.109675 22:-0.253698 23:0.169272 24:0.0571105 25:0.331544 26:-0.038804 27:0.0913496 28:-0.999998 29:-0.999999 30:-1 31:-0.999998 32:-0.999999 33:-1 34:-0.246928 35:-0.529292 36:0.340114 
0 0 0 0 0.40935600556846968 0 1:-0.234186 2:0.490585 3:-0.962477 4:-0.999998 5:-0.999993 6:-1 7:-0.828409 8:-0.973106 9:0.806336 10:0.734474 11:-0.572963 12:0.138575 13:-0.195011 14:0.54974 15:-0.963999 16:-0.999989 17:-0.999999 18:-0.999978 19:-0.83354 20:-0.993046 21:0.118152 22:0.0627175 23:0.582072 24:-0.0943762 25:0.33519 26:-0.0418429 27:0.0922691 28:-0.999971 29:-0.999991 30:-0.999996 31:-0.999969 32:-0.999991 33:-0.999996 34:-0.773315 35:-0.1083 36:-0.0736379 
0 0 0.025322593084970688 0 0 0 1:-0.273762 2:0.553844 3:-0.943433 4:-0.998748 5:-0.999958 6:-0.99986 7:-0.782501 8:-0.946635 9:0.73517 10:-0.96194 11:-0.999253 12:0.969277 13:-0.237819 14:0.60442 15:-0.945108 16:-0.998355 17:-0.999961 18:-0.999779 19:-0.78613 20:-0.986173 21:0.0745598 22:-0.701333 23:-0.557034 24:0.64244 25:0.336569 26:-0.0144193 27:0.0984461 28:-0.999827 29:-0.99901 30:-0.999816 31:-0.999824 32:-0.998924 33:-0.999811 34:0.614146 35:0.115722 36:-0.00858725 
0 0 0 0 0 0.94017426200400511 1:-0.244975 2:0.549127 3:-0.952968 4:-0.999966 5:-0.999999 6:-0.999997 7:-0.816528 8:-0.948932 9:0.770593 10:-0.960167 11:-0.999566 12:0.966908 13:-0.205967 14:0.601008 15:-0.955036 16:-0.999973 17:-0.999999 18:-0.999987 19:-0.822168 20:-0.986692 21:0.0972601 22:-0.31808 23:-0.0200687 24:-0.108895 25:0.330968 26:-0.0381834 27:0.0914411 28:-0.999999 29:-0.999987 30:-1 31:-0.999998 32:-0.999987 33:-1 34:0.30569 35:-0.0298251 36:0.636714 
0.19321499077432122 0 0 0 0 0 1:-0.237897 2:0.54581 3:-0.955418 4:-0.999911 5:-0.999991 6:-0.999993 7:-0.824341 8:-0.950504 9:0.779772 10:-0.376268 11:-0.988529 12:0.511856 13:-0.198443 14:0.597859 15:-0.957314 16:-0.99992 17:-0.999998 18:-0.999968 19:-0.829984 20:-0.987141 21:0.102567 22:-0.168333 23:0.0704577 24:0.344861 25:0.330447 26:-0.0360256 27:0.0912125 28:-0.999993 29:-0.999965 30:-0.999998 31:-0.999993 32:-0.999963 33:-0.999998 34:0.182105 35:0.312239 36:0.658962 
0 0 0 0 0.84948063545268904 0 1:-0.233728 2:0.545491 3:-0.956643 4:-0.999994 5:-0.999994 6:-1 7:-0.828903 8:-0.950655 9:0.784364 10:0.880439 11:-0.864246 12:-0.517858 13:-0.193993 14:0.597694 15:-0.958408 16:-0.999989 17:-0.999998 18:-0.99997 19:-0.834576 20:-0.987164 21:0.105111 22:0.29285 23:0.520747 24:0.222387 25:0.329697 26:-0.0400742 27:0.0911465 28:-0.999994 29:-0.999979 30:-0.999998 31:-0.999994 32:-0.999979 33:-0.999998 34:-0.0932644 35:0.26862 36:0.576818 
0 0 0 0 0.91887511567593838 0 1:-0.234124 2:0.547043 3:-0.956337 4:-0.999999 5:-0.999993 6:-1 7:-0.828476 8:-0.949922 9:0.783216 10:0.96655 11:0.829582 12:0.948546 13:-0.19466 14:0.599176 15:-0.958209 16:-0.999998 17:-0.999998 18:-0.999998 19:-0.833902 20:-0.986954 21:0.10462 22:0.178176 23:0.0870241 24:-0.0734235 25:0.330933 26:-0.0411483 27:0.0913801 28:-0.999997 29:-0.999999 30:-1 31:-0.999997 32:-0.999999 33:-1 34:-0.561655 35:0.393391 36:-0.157837 
0 0 0 0 0.02920872367111018 0 1:-0.230852 2:0.54503 3:-0.957503 4:-1 5:-0.999997 6:-1 7:-0.831997 8:-0.950873 9:0.787594 10:0.762487 11:0.340759 12:0.869962 13:-0.191991 14:0.597639 15:-0.958871 16:-0.999998 17:-0.999999 18:-0.999999 19:-0.836611 20:-0.987173 21:0.10616 22:0.0961449 23:0.106581 24:-0.175589 25:0.330124 26:-0.0402897 27:0.0911541 28:-0.999998 29:-1 30:-1 31:-0.999998 32:-1 33:-1 34:-0.25265 35:0.491136 36:-0.0182289 
-7.0055503227634492 4.5365129726564923 0 0.42246335811640628 2.2289197075017593 0 1:0.628487 2:-0.636314 3:0.250245 4:-0.296606 5:-0.952659 6:-0.856384 7:-0.253684 8:0.0758353 9:-0.802219 10:0.855747 11:-0.654748 12:-0.274 13:0.309799 14:-0.623969 15:0.338882 16:-0.464118 17:-0.920219 18:-0.883906 19:-0.663303 20:-0.528675 21:-0.740186 22:-0.396035 23:-0.0304263 24:0.244266 25:0.200858 26:-0.11482 27:-0.487755 28:-0.770014 29:-0.683007 30:1 31:-0.769155 32:-0.68229 33:1 34:-0.104848 35:-0.0800591 36:0.220131 
-5.2880585070213382 0 0 0 0 0 1:0.806095 2:-0.632899 3:0.0962712 4:-0.974964 5:-0.978793 6:-0.906471 7:-0.100109 8:0.0591813 9:-0.935072 10:0.892572 11:0.242114 12:0.61011 13:0.339948 14:-0.674156 15:0.206654 16:-0.893539 17:-0.93259 18:-0.838698 19:-0.875166 20:-0.495076 21:-0.787724 22:-0.00975411 23:0.246406 24:-0.0554245 25:0.368679 26:-0.0274107 27:0.411244 28:-0.605424 29:-0.691185 30:-0.745954 31:-0.606091 32:-0.691198 33:-0.732784 34:-0.287322 35:-0.197593 36:0.169514 
-0 3.4522711743487005 0 0 0 0 1:0.658566 2:-0.771757 3:0.0163937 4:-0.970792 5:-0.987823 6:-0.871922 7:-0.425334 8:0.379164 9:-0.93848 10:0.904971 11:0.818101 12:0.837037 13:0.2479 14:-0.75508 15:0.146958 16:-0.757625 17:-0.891646 18:-0.806919 19:-0.849059 20:-0.397716 21:-0.784183 22:0.0502603 23:0.436657 24:0.0293661 25:0.27104 26:-0.0799137 27:0.29989 28:-0.376734 29:-0.581875 30:-0.74899 31:-0.3777 32:-0.581706 33:-0.748657 34:-0.705839 35:-0.616883 36:0.321107 
-0 0 0 0 10 0 1:0.0210978 2:-0.761386 3:0.499539 4:-0.97116 5:-0.919823 6:-0.78542 7:-0.983656 8:0.377538 9:-0.393317 10:0.569593 11:0.602293 12:0.978826 13:-0.0791678 14:-0.71655 15:0.172941 16:-0.780471 17:-0.901022 18:-0.736684 19:-0.813138 20:-0.438216 21:-0.705699 22:0.222577 23:0.259148 24:-0.0605253 25:0.496356 26:-0.132503 27:0.317938 28:-0.592135 29:-0.715827 30:-0.781658 31:-0.590763 32:-0.71471 33:-0.778393 34:-0.641168 35:0.483045 36:-0.483268 
-0 0 0 0 10 0 1:0.111662 2:-0.857014 3:0.412639 4:-0.99674 5:-0.975312 6:-0.899062 7:-0.997498 8:0.603426 9:-0.605757 10:-0.16288 11:-0.196316 12:0.983852 13:-0.128189 14:-0.688327 15:0.219144 16:-0.857821 17:-0.87637 18:-0.815219 19:-0.81856 20:-0.44693 21:-0.758297 22:0.198747 23:0.135896 24:0.00678106 25:0.403321 26:0.0546703 27:0.127812 28:-0.714316 29:-0.895557 30:-0.873737 31:-0.71446 32:-0.894373 33:-0.878093 34:-0.650563 35:0.404785 36:-0.47489 
-0 0 0 0 6.4766835607927131 0 1:0.101125 2:-0.858874 3:0.412879 4:-0.995653 5:-0.977118 6:-0.908122 7:-0.997967 8:0.607766 9:-0.609641 10:-0.455707 11:-0.460403 12:0.986589 13:-0.132749 14:-0.691684 15:0.200573 16:-0.853542 17:-0.890186 18:-0.845814 19:-0.812536 20:-0.452908 21:-0.797751 22:0.286873 23:0.25395 24:-0.0355609 25:0.311778 26:0.00853772 27:0.120375 28:-0.74693 29:-0.9193 30:-0.861384 31:-0.747407 32:-0.918996 33:-0.866303 34:-0.545645 35:0.465731 36:-0.410777 
-0 0 0 0 10 0 1:0.052779 2:-0.856726 3:0.373635 4:-0.993185 5:-0.960901 6:-0.780842 7:-0.996124 8:0.607743 9:-0.611413 10:0.321053 11:0.275115 12:0.969922 13:-0.112256 14:-0.691584 15:0.197902 16:-0.774453 17:-0.898453 18:-0.798205 19:-0.786424 20:-0.458297 21:-0.753183 22:0.235258 23:-0.05624 24:0.118468 25:0.533187 26:0.0249282 27:0.212563 28:-0.626446 29:-0.802182 30:-0.811404 31:-0.62393 32:-0.801643 33:-0.815111 34:-0.636451 35:0.521098 36:-0.552535 
-0 0 0 0 10 10 1:0.0355189 2:-0.888815 3:0.359751 4:-0.994476 5:-0.98258 6:-0.909143 7:-0.994273 8:0.687034 9:-0.692515 10:0.358724 11:0.278464 12:0.964794 13:-0.120637 14:-0.72143 15:0.176673 16:-0.761324 17:-0.918658 18:-0.714854 19:-0.772897 20:-0.445225 21:-0.682963 22:0.0629099 23:0.249972 24:-0.0726867 25:0.246574 26:-0.0138983 27:0.157768 28:-0.778341 29:-0.864562 30:-0.798274 31:-0.778233 32:-0.864487 33:-0.80473 34:-0.670975 35:0.208885 36:-0.382711 
-0 0 10 0 10 10 1:0.0438231 2:-0.928495 3:0.277636 4:-0.993566 5:-0.992754 6:-0.910891 7:-0.995192 8:0.79415 9:-0.798749 10:-0.426184 11:-0.457582 12:0.929625 13:-0.0940413 14:-0.738094 15:0.111264 16:-0.817983 17:-0.870058 18:-0.729007 19:-0.823101 20:-0.399214 21:-0.721064 22:0.188518 23:0.297504 24:0.136655 25:0.256091 26:0.00482036 27:0.0662301 28:-0.801957 29:-0.915011 30:-0.791972 31:-0.801919 32:-0.914753 33:-0.7995 34:-0.391972 35:0.0383695 36:-0.128793 
-0 0 0 0 3.8165541937598713 0 1:0.0682235 2:-0.95845 3:0.164008 4:-0.993635 5:-0.994716 6:-0.870898 7:-0.997464 8:0.879369 9:-0.881766 10:-0.429164 11:-0.522837 12:0.898613 13:-0.059865 14:-0.732701 15:0.0530572 16:-0.777771 17:-0.79584 18:-0.739544 19:-0.823814 20:-0.356431 21:-0.744172 22:0.183045 23:0.488069 24:0.447331 25:0.383234 26:0.071987 27:0.110953 28:-0.675907 29:-0.896139 30:-0.829255 31:-0.676329 32:-0.894477 33:-0.83546 34:-0.379055 35:0.0664982 36:-0.16437 
-0 0.31151153354897498 0 0 0 0 1:0.0315178 2:-0.910359 3:0.259507 4:-0.981551 5:-0.979201 6:-0.783724 7:-0.989204 8:0.747896 9:-0.758319 10:-0.283905 11:-0.521257 12:0.920965 13:-0.105301 14:-0.783333 15:0.109993 16:-0.804054 17:-0.639072 18:-0.455079 19:-0.807505 20:-0.209681 21:-0.457179 22:0.217862 23:0.417891 24:0.134664 25:0.183052 26:-0.0658578 27:0.278042 28:-0.375338 29:-0.695613 30:-0.653688 31:-0.374875 32:-0.695556 33:-0.658766 34:-0.545254 35:0.477986 36:-0.4696 
-0 0 0 0 0 10 1:0.023994 2:-0.910669 3:0.292428 4:-0.994158 5:-0.983892 6:-0.853794 7:-0.99207 8:0.747106 9:-0.754738 10:-0.201802 11:-0.21376 12:0.959436 13:-0.0812606 14:-0.723391 15:0.139927 16:-0.778461 17:-0.84674 18:-0.702872 19:-0.810676 20:-0.397358 21:-0.686428 22:-0.0788683 23:0.331794 24:-0.151147 25:0.516257 26:-0.0911623 27:0.15664 28:-0.659431 29:-0.832606 30:-0.788292 31:-0.65737 32:-0.832273 33:-0.795149 34:-0.470918 35:0.249218 36:-0.42234 
-0 0 0 0 0 1.7854904259312241 1:0.00525467 2:-0.901511 3:0.329072 4:-0.99512 5:-0.985192 6:-0.904286 7:-0.988024 8:0.72115 9:-0.732718 10:-0.33233 11:-0.407703 12:0.966568 13:-0.0934223 14:-0.76366 15:0.200552 16:-0.855819 17:-0.861757 18:-0.756351 19:-0.843809 20:-0.370708 21:-0.711457 22:0.0933569 23:0.179919 24:-0.194861 25:0.492831 26:-0.0577349 27:0.181201 28:-0.696605 29:-0.823231 30:-0.845114 31:-0.695116 32:-0.823207 33:-0.849037 34:-0.445669 35:0.403672 36:-0.427022 
-0 4.2366183253693137 0 0 0 0 1:0.236845 2:-0.94497 3:0.061535 4:-0.97912 5:-0.99571 6:-0.778367 7:-0.952576 8:0.840107 9:-0.886199 10:0.836943 11:0.358894 12:0.479985 13:0.13694 14:-0.786271 15:0.0818669 16:-0.737125 17:-0.846967 18:-0.706605 19:-0.859197 20:-0.340295 21:-0.707027 22:-0.191772 23:0.0969211 24:0.103378 25:0.216692 26:0.0233782 27:0.233335 28:-0.517621 29:-0.322422 30:-0.529858 31:-0.517567 32:-0.321962 33:-0.542733 34:-0.507953 35:-0.211882 36:0.0831187 
-0 5.4072421310235539 0 0 0 0 1:0.0413588 2:-0.938835 3:0.0953451 4:-0.876402 5:-0.993628 6:-0.761607 7:-0.955031 8:0.823268 9:-0.866969 10:-0.466299 11:-0.305459 12:0.672954 13:0.049748 14:-0.723135 15:0.10418 16:-0.752608 17:-0.873208 18:-0.683368 19:-0.8571 20:-0.414562 21:-0.679055 22:0.00266563 23:0.121254 24:0.0118932 25:0.331653 26:-0.128301 27:-0.0739209 28:-0.527637 29:-0.413532 30:-0.579686 31:-0.528578 32:-0.412551 33:-0.589181 34:-0.271711 35:0.299397 36:-0.220213 
-0 0 0 0 0 2.1465083869927404 1:0.239419 2:-0.91632 3:0.205769 4:-0.973783 5:-0.988586 6:-0.786727 7:-0.949401 8:0.761276 9:-0.810449 10:0.0314546 11:0.031294 12:0.902147 13:0.218884 14:-0.745096 15:0.191484 16:-0.89236 17:-0.895501 18:-0.843777 19:-0.930486 20:-0.409237 21:-0.800342 22:-0.317791 23:0.0780501 24:0.053275 25:0.306029 26:-0.0672534 27:0.443678 28:-0.502435 29:-0.81978 30:-0.848877 31:-0.50338 32:-0.819699 33:-0.827118 34:-0.337694 35:0.108458 36:-0.176114 
-0 0 0 0 10 0 1:0.1247 2:-0.919462 3:0.230732 4:-0.969064 5:-0.988088 6:-0.776154 7:-0.98653 8:0.770284 9:-0.783313 10:-0.0395011 11:-0.0856699 12:0.923534 13:0.0968733 14:-0.766422 15:0.231586 16:-0.865184 17:-0.91718 18:-0.814714 19:-0.925983 20:-0.403725 21:-0.750678 22:-0.0556766 23:0.171808 24:0.149887 25:0.0193284 26:0.100288 27:0.257418 28:-0.642736 29:-0.872953 30:-0.885716 31:-0.635825 32:-0.870339 33:-0.883847 34:-0.312521 35:0.342945 36:-0.0915594 
-0 0 0 0 10 0 1:-0.138309 2:-0.836722 3:0.400132 4:-0.983342 5:-0.979546 6:-0.917501 7:-0.910795 8:0.548128 9:-0.63486 10:-0.750209 11:-0.734355 12:0.974291 13:-0.0573031 14:-0.664357 15:0.30884 16:-0.872533 17:-0.950235 18:-0.891942 19:-0.876108 20:-0.514658 21:-0.772408 22:-0.0752766 23:-0.139537 24:0.223478 25:0.696759 26:0.021005 27:0.179067 28:-0.713109 29:-0.933093 30:-0.790433 31:-0.70306 32:-0.932605 33:-0.796454 34:-0.417554 35:0.689438 36:-0.500789 
-0 0 10 0 10 10 1:-0.035075 2:-0.868264 3:0.377091 4:-0.866384 5:-0.986468 6:-0.972882 7:-0.930799 8:0.629712 9:-0.696979 10:-0.837987 11:-0.81183 12:0.984741 13:0.0941444 14:-0.647617 15:0.321494 16:-0.852399 17:-0.989969 18:-0.983933 19:-0.918826 20:-0.55409 21:-0.851113 22:-0.0363515 23:-0.192097 24:0.00631572 25:0.524542 26:0.078949 27:-0.240395 28:-0.901347 29:-0.971765 30:-0.842966 31:-0.898556 32:-0.96988 33:-0.824584 34:0.0931303 35:0.451061 36:-0.180974 
-0 0 10 0 10 1.3666790248263951 1:0.203105 2:-0.911693 3:0.311467 4:-0.906177 5:-0.99861 6:-0.997843 7:-0.943539 8:0.744772 9:-0.79965 10:0.164612 11:-0.501262 12:0.692345 13:0.293956 14:-0.671559 15:0.307253 16:-0.978253 17:-0.997364 18:-0.991891 19:-0.947204 20:-0.538823 21:-0.870059 22:0.159717 23:0.182312 24:0.353946 25:0.323801 26:-0.197207 27:-0.252394 28:-0.992793 29:-0.979637 30:-0.908268 31:-0.992804 32:-0.976327 33:-0.885699 34:-0.666906 35:0.469257 36:-0.470609 
-0 0 10 0 10 10 1:0.290163 2:-0.901889 3:0.308016 4:-0.988213 5:-0.99643 6:-0.975167 7:-0.922856 8:0.71823 9:-0.793239 10:0.527946 11:0.232343 12:0.927509 13:0.308832 14:-0.669365 15:0.28672 16:-0.941893 17:-0.990673 18:-0.95661 19:-0.919826 20:-0.536383 21:-0.851397 22:0.369016 23:0.247669 24:0.44085 25:0.211086 26:-0.248131 27:0.230155 28:-0.956699 29:-0.958965 30:-0.91728 31:-0.955668 32:-0.953166 33:-0.916078 34:-0.45268 35:0.414607 36:-0.18977 
-0 0 1.8605299940304838 0 0 10 1:0.190979 2:-0.904527 3:0.299106 4:-0.955291 5:-0.989459 6:-0.886134 7:-0.964945 8:0.728021 9:-0.762058 10:0.0816404 11:0.0115346 12:0.967783 13:0.201681 14:-0.686348 15:0.261978 16:-0.864051 17:-0.960422 18:-0.879149 19:-0.919553 20:-0.502543 21:-0.793821 22:0.110076 23:0.00983351 24:0.0280679 25:0.373392 26:-0.159647 27:0.589457 28:-0.843327 29:-0.813201 30:-0.837557 31:-0.84349 32:-0.811301 33:-0.788942 34:-0.0975946 35:0.179257 36:-0.13685 
-0 0 0 0 10 0 1:-0.11114 2:-0.888774 3:0.287209 4:-0.98831 5:-0.979123 6:-0.840391 7:-0.931733 8:0.688143 9:-0.754507 10:-0.73912 11:-0.597299 12:0.941335 13:-0.0863755 14:-0.727406 15:0.233763 16:-0.85883 17:-0.91877 18:-0.800675 19:-0.850296 20:-0.440001 21:-0.735848 22:0.0768506 23:0.305626 24:-0.0319643 25:0.320172 26:0.0928569 27:0.240705 28:-0.621937 29:-0.924716 30:-0.886757 31:-0.622682 32:-0.922368 33:-0.886011 34:-0.309254 35:0.429573 36:-0.268912 
-0 0 0 0 10 0 1:-0.122647 2:-0.890012 3:0.279312 4:-0.994751 5:-0.982355 6:-0.837714 7:-0.926077 8:0.690402 9:-0.762273 10:-0.768204 11:-0.660192 12:0.942919 13:-0.0972928 14:-0.717848 15:0.223811 16:-0.843313 17:-0.90456 18:-0.788934 19:-0.834364 20:-0.439342 21:-0.730309 22:0.105354 23:0.26237 24:0.00788008 25:0.333738 26:0.0340641 27:0.144982 28:-0.617668 29:-0.92364 30:-0.898301 31:-0.618428 32:-0.922917 33:-0.90141 34:-0.409274 35:0.392645 36:-0.224606 
-0 0 0.47044147006111886 0 10 0 1:-0.15439 2:-0.888076 3:0.258304 4:-0.976001 5:-0.981073 6:-0.841653 7:-0.89572 8:0.685537 9:-0.786961 10:-0.902089 11:-0.919765 12:0.951848 13:-0.122934 14:-0.772118 15:0.178302 16:-0.847182 17:-0.928893 18:-0.85937 19:-0.817081 20:-0.405992 21:-0.821634 22:-0.153226 23:-0.106293 24:0.120556 25:-0.0970106 26:0.025999 27:-0.057752 28:-0.804934 29:-0.919187 30:-0.852057 31:-0.790923 32:-0.918615 33:-0.852633 34:-0.459582 35:0.699055 36:-0.690102 
-0 0 0 0 10 0 1:-0.100478 2:-0.893364 3:0.26041 4:-0.973844 5:-0.977336 6:-0.801701 7:-0.933683 8:0.701399 9:-0.765867 10:-0.842451 11:-0.793755 12:0.945821 13:-0.0335077 14:-0.735689 15:0.155625 16:-0.898198 17:-0.938732 18:-0.861431 19:-0.903012 20:-0.445419 21:-0.833376 22:-0.0589298 23:-0.111274 24:0.0956725 25:0.0887598 26:0.195544 27:0.125222 28:-0.677399 29:-0.890135 30:-0.795958 31:-0.673444 32:-0.882733 33:-0.80322 34:-0.339874 35:0.709587 36:-0.37228 
-0 0 0 0 10 0 1:-0.117341 2:-0.875829 3:0.291302 4:-0.97306 5:-0.976038 6:-0.797273 7:-0.922378 8:0.65388 9:-0.729347 10:-0.812967 11:-0.785487 12:0.943467 13:-0.0161015 14:-0.773645 15:0.162355 16:-0.863971 17:-0.936478 18:-0.789169 19:-0.893173 20:-0.409447 21:-0.760902 22:-0.139643 23:-0.111738 24:0.167079 25:-0.146619 26:0.0416081 27:0.0566395 28:-0.714699 29:-0.871821 30:-0.830738 31:-0.697328 32:-0.870948 33:-0.836712 34:-0.335237 35:0.668724 36:-0.348017 
-0 0 5.0835588488403669 0 0 0 1:-0.0134148 2:-0.904847 3:0.296209 4:-0.991561 5:-0.98222 6:-0.852444 7:-0.981268 8:0.731465 9:-0.749611 10:-0.614085 11:-0.734666 12:0.929125 13:0.0417206 14:-0.67293 15:0.176666 16:-0.843804 17:-0.949077 18:-0.888148 19:-0.90381 20:-0.506689 21:-0.850141 22:-0.42514 23:-0.175101 24:0.176599 25:0.598326 26:-0.255768 27:0.29353 28:-0.717154 29:-0.87657 30:-0.875246 31:-0.712033 32:-0.870346 33:-0.870836 34:-0.0599013 35:0.495997 36:-0.567508 
-0 0 10 0 0 0 1:-0.00017631 2:-0.917866 3:0.22029 4:-0.985669 5:-0.982656 6:-0.757095 7:-0.983321 8:0.767713 9:-0.783864 10:-0.866033 11:-0.891454 12:0.912406 13:0.035826 14:-0.701398 15:0.196337 16:-0.858297 17:-0.944189 18:-0.85555 19:-0.909867 20:-0.479151 21:-0.809292 22:-0.0250959 23:-0.352667 24:0.237964 25:0.663067 26:-0.000565962 27:0.320585 28:-0.665385 29:-0.915441 30:-0.862048 31:-0.657293 32:-0.915244 33:-0.855556 34:-0.364974 35:0.555305 36:-0.630096 
-0 0 0 0 10 0 1:0.0238495 2:-0.916851 3:0.21513 4:-0.990004 5:-0.977906 6:-0.7299 7:-0.990629 8:0.766537 9:-0.775574 10:-0.800176 11:-0.815291 12:0.916331 13:0.0643147 14:-0.709419 15:0.212047 16:-0.923454 17:-0.950694 18:-0.860697 19:-0.952026 20:-0.476334 21:-0.806066 22:-0.0551824 23:-0.158129 24:0.254337 25:0.641319 26:-0.045438 27:0.26905 28:-0.651268 29:-0.894405 30:-0.850499 31:-0.644311 32:-0.894412 33:-0.849048 34:-0.623225 35:0.668122 36:-0.697462 
-0 0 0 0 10 0 1:-0.0581549 2:-0.878815 3:0.282583 4:-0.946623 5:-0.978374 6:-0.738858 7:-0.947864 8:0.661176 9:-0.711833 10:0.513598 11:0.595958 12:0.874095 13:-0.07596 14:-0.703589 15:0.191945 16:-0.848529 17:-0.94248 18:-0.838054 19:-0.851698 20:-0.47615 21:-0.794595 22:0.372095 23:0.281453 24:0.1272 25:0.274565 26:0.0802771 27:0.341427 28:-0.667371 29:-0.695867 30:-0.877913 31:-0.66779 32:-0.693969 33:-0.868638 34:-0.832676 35:0.0644774 36:-0.148371 
-0 0 0 0 7.7250332129575483 0 1:-0.186375 2:-0.884746 3:0.202768 4:-0.968703 5:-0.9766 6:-0.777835 7:-0.865597 8:0.677994 9:-0.808741 10:-0.89236 11:-0.869398 12:0.928712 13:-0.200862 14:-0.722356 15:0.104721 16:-0.732324 17:-0.931185 18:-0.814448 19:-0.684105 20:-0.452441 21:-0.805358 22:0.110164 23:0.202933 24:0.139225 25:0.0245572 26:0.256878 27:-0.0174744 28:-0.747935 29:-0.773546 30:-0.7275 31:-0.741068 32:-0.761791 33:-0.734946 34:-0.353022 35:0.697631 36:-0.257748 
-0 0 0 0 5.2152698832068962 0 1:-0.147599 2:-0.866282 3:0.278928 4:-0.960563 5:-0.97667 6:-0.766563 7:-0.895893 8:0.627826 9:-0.729074 10:-0.229505 11:-0.0775081 12:0.915998 13:-0.197209 14:-0.72164 15:0.173186 16:-0.687643 17:-0.925427 18:-0.750488 19:-0.663939 20:-0.449381 21:-0.718906 22:0.16252 23:0.204072 24:0.0830313 25:-0.0683691 26:-0.0787432 27:0.0852387 28:-0.741075 29:-0.700609 30:-0.826346 31:-0.729057 32:-0.70044 33:-0.832736 34:-0.632759 35:0.53541 36:-0.225684 
-0 0 0 0 0 10 1:0.104133 2:-0.909186 3:0.25554 4:-0.817676 5:-0.992438 6:-0.865105 7:-0.937277 8:0.739949 9:-0.800921 10:0.0177767 11:0.0357549 12:0.909031 13:0.138495 14:-0.724 15:0.186346 16:-0.722713 17:-0.960373 18:-0.905206 19:-0.851445 20:-0.469709 21:-0.862088 22:0.245357 23:-0.114333 24:-0.107867 25:0.205077 26:-0.0167924 27:-0.206737 28:-0.79724 29:-0.779395 30:-0.79115 31:-0.796411 32:-0.779348 33:-0.779334 34:-0.408946 35:0.441761 36:-0.452552 
-0 0 10 0 0 0 1:0.351372 2:-0.897654 3:0.25291 4:-0.907375 5:-0.998409 6:-0.975604 7:-0.845764 8:0.705801 9:-0.855859 10:-0.0958026 11:-0.86012 12:0.465914 13:0.429672 14:-0.66331 15:0.210642 16:-0.920076 17:-0.996709 18:-0.991652 19:-0.81837 20:-0.545348 21:-0.933155 22:0.422408 23:-0.0115633 24:0.270944 25:0.208936 26:-0.0363922 27:-0.383046 28:-0.987745 29:-0.947395 30:-0.921963 31:-0.986612 32:-0.947399 33:-0.875398 34:0.0797229 35:0.336398 36:0.00563268 
-0 0 10 0 10 10 1:0.448679 2:-0.865829 3:0.267621 4:-0.996002 5:-0.996417 6:-0.980643 7:-0.770705 8:0.619635 9:-0.842753 10:0.661266 11:0.434606 12:0.962807 13:0.485516 14:-0.630591 15:0.300111 16:-0.989335 17:-0.997211 18:-0.989234 19:-0.79858 20:-0.572694 21:-0.872959 22:-0.0182071 23:-0.0898909 24:0.335157 25:0.393457 26:0.0339322 27:-0.019354 28:-0.995047 29:-0.990028 30:-0.988334 31:-0.994739 32:-0.989301 33:-0.986079 34:0.617044 35:-0.33987 36:-0.208711 
-0 0 10 0 10 10 1:0.409256 2:-0.851654 3:0.334816 4:-0.975273 5:-0.996727 6:-0.991491 7:-0.810163 8:0.581565 9:-0.766266 10:0.817331 11:0.209649 12:0.715652 13:0.396169 14:-0.60729 15:0.33216 16:-0.851855 17:-0.977397 18:-0.958117 19:-0.811277 20:-0.578723 21:-0.817443 22:-0.0363065 23:0.50413 24:0.165318 25:0.309363 26:-0.190573 27:0.500638 28:-0.951912 29:-0.912639 30:-0.911369 31:-0.951974 32:-0.909609 33:-0.877764 34:-0.284907 35:-0.304158 36:-0.111907 
-0 0 0 0 10 9.3789163923211216 1:0.178041 2:-0.89519 3:0.257031 4:-0.807082 5:-0.986645 6:-0.828057 7:-0.919049 8:0.703148 9:-0.781862 10:0.352656 11:0.260249 12:0.880305 13:0.132037 14:-0.672757 15:0.238757 16:-0.694598 17:-0.931082 18:-0.848976 19:-0.836458 20:-0.495293 21:-0.779448 22:0.195779 23:0.443981 24:0.140669 25:0.533539 26:-0.201432 27:0.744919 28:-0.792128 29:-0.78645 30:-0.834889 31:-0.789271 32:-0.78298 33:-0.746991 34:-0.66256 35:-0.115248 36:-0.0120627 
-0 0 0 0 0 10 1:-0.0818844 2:-0.918169 3:0.189038 4:-0.948086 5:-0.984227 6:-0.800147 7:-0.935976 8:0.768009 9:-0.830252 10:-0.273312 11:0.0153856 12:0.894161 13:-0.0132596 14:-0.727647 15:0.108639 16:-0.825665 17:-0.930598 18:-0.843688 19:-0.873947 20:-0.447374 21:-0.832459 22:0.0620566 23:0.0094011 24:-0.0399659 25:0.258891 26:0.0896316 27:0.0165601 28:-0.660107 29:-0.47985 30:-0.735164 31:-0.660384 32:-0.477664 33:-0.743698 34:-0.204435 35:0.278014 36:-0.0708438 
-0 0 0 0 0 10 1:0.0326392 2:-0.90322 3:0.279158 4:-0.978897 5:-0.978984 6:-0.788518 7:-0.988497 8:0.728084 9:-0.739191 10:-0.148274 11:-0.00491316 12:0.943004 13:0.100416 14:-0.794028 15:0.166838 16:-0.871079 17:-0.941956 18:-0.817683 19:-0.929505 20:-0.393957 21:-0.786506 22:-0.113781 23:-0.186341 24:0.0733189 25:-0.0174511 26:0.00639927 27:0.221585 28:-0.677008 29:-0.631118 30:-0.833936 31:-0.668117 32:-0.630873 33:-0.836313 34:0.109133 35:0.186374 36:-0.0846713 
-0 0 0 0 0 10 1:0.104357 2:-0.856562 3:0.408589 4:-0.972225 5:-0.979931 6:-0.894821 7:-0.989788 8:0.600586 9:-0.610421 10:-0.203569 11:-0.250319 12:0.961863 13:0.181146 14:-0.652066 15:0.329724 16:-0.875542 17:-0.957203 18:-0.868408 19:-0.929554 20:-0.529387 21:-0.732928 22:-0.0092117 23:0.127413 24:0.0822821 25:0.686293 26:-0.144675 27:0.321078 28:-0.711035 29:-0.725647 30:-0.87949 31:-0.701588 32:-0.724207 33:-0.872305 34:0.233375 35:0.47925 36:0.175735 
-0 0 0 0 10 10 1:0.174677 2:-0.816988 3:0.449707 4:-0.948666 5:-0.965791 6:-0.879273 7:-0.96824 8:0.501546 9:-0.532347 10:-0.162916 11:-0.182546 12:0.975288 13:0.281742 14:-0.650587 15:0.39599 16:-0.829264 17:-0.955247 18:-0.909402 19:-0.873345 20:-0.529359 21:-0.712169 22:-0.142907 23:0.193821 24:0.159771 25:0.691006 26:0.0578185 27:0.182593 28:-0.678855 29:-0.685066 30:-0.819259 31:-0.669205 32:-0.683824 33:-0.824079 34:0.393086 35:0.433424 36:0.276361 
-6.2290527027214946 0 0 5.3458990553830121 10 6.6758878933424199 1:0.21544 2:-0.704561 3:0.582663 4:-0.983135 5:-0.953156 6:-0.892384 7:-0.964385 8:0.229615 9:-0.264137 10:-0.543107 11:-0.569874 12:0.987354 13:0.309506 14:-0.543165 15:0.568833 16:-0.903002 17:-0.972802 18:-0.958344 19:-0.898615 20:-0.625166 21:-0.551457 22:-0.436443 23:-0.270483 24:0.356979 25:0.511843 26:0.131339 27:-0.0225593 28:-0.81903 29:-0.881589 30:-0.890346 31:-0.81678 32:-0.877681 33:-0.891544 34:0.578249 35:0.415032 36:0.303343 
-0.25764500699406045 0 0 0 10 0 1:0.163955 2:-0.744416 3:0.471657 4:-0.937037 5:-0.918625 6:-0.617468 7:-0.967442 8:0.336543 9:-0.368103 10:0.519249 11:0.708435 12:0.956665 13:0.162233 14:-0.586068 15:0.430703 16:-0.868502 17:-0.966072 18:-0.878744 19:-0.928158 20:-0.588158 21:-0.646708 22:0.639648 23:0.776515 24:0.489288 25:-0.291014 26:0.144103 27:0.26488 28:-0.903931 29:-0.851817 30:-0.757029 31:-0.873667 32:-0.847306 33:-0.759344 34:-0.440741 35:-0.253956 36:0.869773 
-0 0 0 0 10 0 1:-0.0112154 2:-0.882393 3:0.260006 4:-0.847309 5:-0.968259 6:-0.745396 7:-0.932956 8:0.674505 9:-0.739677 10:0.327465 11:0.379434 12:0.904894 13:-0.0809337 14:-0.724905 15:0.165386 16:-0.809033 17:-0.952101 18:-0.851912 19:-0.827274 20:-0.463601 21:-0.820148 22:0.323517 23:0.203283 24:0.270281 25:-0.408931 26:0.0286424 27:0.463012 28:-0.780265 29:-0.760586 30:-0.717285 31:-0.737585 32:-0.759985 33:-0.697294 34:-0.537501 35:0.147367 36:0.499041 
-0 0 0 0 10 0 1:-0.184095 2:-0.867112 3:0.281579 4:-0.990839 5:-0.983209 6:-0.815366 7:-0.875207 8:0.627756 9:-0.749142 10:-0.179469 11:0.0316347 12:0.904668 13:-0.181869 14:-0.672639 15:0.152758 16:-0.880917 17:-0.948643 18:-0.82255 19:-0.782879 20:-0.506657 21:-0.797011 22:0.185078 23:0.000822682 24:0.241038 25:0.377606 26:-0.159721 27:0.369254 28:-0.720949 29:-0.780893 30:-0.869401 31:-0.721326 32:-0.778995 33:-0.857206 34:-0.577646 35:0.527971 36:-0.484492 
-0 0 0 0 10 0 1:-0.212327 2:-0.849044 3:0.259422 4:-0.994801 5:-0.979088 6:-0.717872 7:-0.849475 8:0.580849 9:-0.727279 10:0.352033 11:0.310816 12:0.93252 13:-0.179228 14:-0.655808 15:0.164827 16:-0.894134 17:-0.95172 18:-0.834754 19:-0.792536 20:-0.522759 21:-0.803835 22:0.137045 23:0.20379 24:0.127355 25:0.693473 26:-0.266033 27:0.392545 28:-0.72756 29:-0.783182 30:-0.870513 31:-0.717672 32:-0.776361 33:-0.855309 34:-0.568927 35:0.43906 36:-0.657503 
-0 0 0 0 10 0 1:-0.184633 2:-0.878364 3:0.201041 4:-0.992504 5:-0.978717 6:-0.716452 7:-0.875282 8:0.659829 9:-0.781146 10:0.0589224 11:0.245806 12:0.899139 13:-0.197385 14:-0.693572 15:0.16849 16:-0.869869 17:-0.947013 18:-0.814548 19:-0.761393 20:-0.487734 21:-0.782769 22:0.179014 23:0.0976057 24:0.0578823 25:0.494838 26:-0.465751 27:0.38494 28:-0.702187 29:-0.812352 30:-0.857411 31:-0.700635 32:-0.788105 33:-0.843685 34:-0.617223 35:0.420684 36:-0.647323 
-0 0 0 0 10 0 1:-0.121864 2:-0.898259 3:0.210964 4:-0.996087 5:-0.981592 6:-0.740747 7:-0.927078 8:0.713411 9:-0.78431 10:-0.236828 11:-0.147391 12:0.903902 13:-0.223852 14:-0.723088 15:0.0761041 16:-0.927683 17:-0.968279 18:-0.90464 19:-0.764077 20:-0.475588 21:-0.899307 22:0.175478 23:0.100953 24:0.230527 25:-0.238644 26:-0.260547 27:0.258647 28:-0.757822 29:-0.824298 30:-0.855631 31:-0.732769 32:-0.817801 33:-0.854781 34:-0.567446 35:0.458422 36:-0.350398 
-0 0 10 0 9.6642525154885952 0 1:-0.0897215 2:-0.943245 3:0.0602266 4:-0.993416 5:-0.992199 6:-0.781531 7:-0.946869 8:0.836395 9:-0.888042 10:-0.630665 11:-0.299545 12:0.75445 13:-0.180137 14:-0.702169 15:0.0875693 16:-0.908839 17:-0.96717 18:-0.83383 19:-0.799531 20:-0.493223 21:-0.828456 22:0.0243015 23:0.209247 24:0.110813 25:0.276819 26:-0.650172 27:0.314393 28:-0.751218 29:-0.841838 30:-0.862284 31:-0.751489 32:-0.79202 33:-0.856399 34:-0.44965 35:0.0221105 36:-0.275065 
-0 0 10 0 0 0 1:-0.0973995 2:-0.940273 3:0.0689421 4:-0.991945 5:-0.99367 6:-0.778135 7:-0.941745 8:0.827365 9:-0.883999 10:-0.550446 11:-0.136429 12:0.669118 13:-0.160021 14:-0.742888 15:0.0464861 16:-0.923028 17:-0.954366 18:-0.895593 19:-0.826087 20:-0.448986 21:-0.89565 22:-0.0688232 23:0.133885 24:0.066129 25:-0.171042 26:-0.348519 27:0.288531 28:-0.744112 29:-0.812961 30:-0.810191 31:-0.724797 32:-0.800235 33:-0.808617 34:-0.394586 35:0.238954 36:-0.429294 
-0 0 0 0 10 0 1:-0.231869 2:-0.866336 3:0.161834 4:-0.987787 5:-0.98462 6:-0.681558 7:-0.826756 8:0.625164 9:-0.793719 10:-0.531135 11:-0.623263 12:0.881464 13:-0.13225 14:-0.69078 15:0.138861 16:-0.906468 17:-0.922795 18:-0.821133 19:-0.841305 20:-0.474603 21:-0.800901 22:-0.119537 23:0.193157 24:0.0754955 25:0.754267 26:-0.0332376 27:0.359582 28:-0.675149 29:-0.82823 30:-0.776683 31:-0.661585 32:-0.828243 33:-0.769066 34:-0.467821 35:0.47742 36:-0.426034 
-0 0 0 0 10 0 1:-0.240655 2:-0.878015 3:0.106367 4:-0.990416 5:-0.988644 6:-0.698283 7:-0.818083 8:0.655373 9:-0.832373 10:-0.273597 11:-0.436647 12:0.8692 13:-0.148668 14:-0.718131 15:0.175061 16:-0.907611 17:-0.932828 18:-0.833738 19:-0.827966 20:-0.457225 21:-0.798377 22:0.0953237 23:-0.0024771 24:0.123542 25:0.725015 26:0.407698 27:0.279723 28:-0.674941 29:-0.792782 30:-0.855813 31:-0.663269 32:-0.766006 33:-0.853305 34:-0.62353 35:0.667299 36:-0.4279 
-0 0 0 0 10 0 1:-0.173416 2:-0.89748 3:0.121027 4:-0.988637 5:-0.988106 6:-0.69061 7:-0.883992 8:0.708958 9:-0.821801 10:-0.166557 11:-0.326986 12:0.857906 13:-0.138626 14:-0.741539 15:0.0827266 16:-0.878312 17:-0.954538 18:-0.870714 19:-0.820901 20:-0.45031 21:-0.865151 22:0.311236 23:0.0991532 24:0.397696 25:-0.00707147 26:0.422895 27:-0.0196791 28:-0.76978 29:-0.796666 30:-0.869148 31:-0.761266 32:-0.768039 33:-0.871269 34:-0.763333 35:0.668588 36:-0.546928 
-0 0 0 0 3.1693367072433838 0 1:-0.114147 2:-0.894625 3:0.1749 4:-0.983318 5:-0.982507 6:-0.656834 7:-0.92803 8:0.703049 9:-0.77302 10:0.853102 11:0.745396 12:0.852441 13:-0.108138 14:-0.719263 15:0.1357 16:-0.902138 17:-0.941032 18:-0.870939 19:-0.857946 20:-0.46149 21:-0.850078 22:0.453187 23:0.3185 24:0.11586 25:0.0668517 26:0.221022 27:0.266678 28:-0.63425 29:-0.686546 30:-0.924033 31:-0.629509 32:-0.677476 33:-0.920057 34:-0.684234 35:0.118135 36:-0.398444 
-0 0 0 0 10 0 1:-0.114997 2:-0.876497 3:0.238976 4:-0.984673 5:-0.979152 6:-0.668706 7:-0.927917 8:0.654596 9:-0.724671 10:0.774194 11:0.760259 12:0.869623 13:-0.120958 14:-0.747677 15:0.138919 16:-0.905196 17:-0.939133 18:-0.831197 19:-0.84973 20:-0.434893 21:-0.810589 22:0.383595 23:0.167107 24:0.0391034 25:-0.124624 26:0.243815 27:0.310776 28:-0.70249 29:-0.75881 30:-0.877458 31:-0.68676 32:-0.748071 33:-0.871366 34:-0.688314 35:0.186627 36:-0.486541 
-0 0 0 0 10 10 1:-0.159174 2:-0.872141 3:0.22506 4:-0.99407 5:-0.976667 6:-0.67957 7:-0.897949 8:0.643656 9:-0.742905 10:0.498383 11:0.529934 12:0.888395 13:-0.104873 14:-0.746955 15:0.129879 16:-0.931531 17:-0.933768 18:-0.805219 19:-0.876122 20:-0.432104 21:-0.788695 22:0.152132 23:0.180462 24:-0.184659 25:-0.147729 26:0.214575 27:0.194622 28:-0.698977 29:-0.770268 30:-0.91049 31:-0.681553 32:-0.761632 33:-0.911433 34:-0.688444 35:0.363687 36:-0.359627 
-0 0 0 0 10 0 1:-0.0574271 2:-0.90067 3:0.216041 4:-0.984624 5:-0.979054 6:-0.695964 7:-0.961129 8:0.720984 9:-0.758734 10:0.533415 11:0.484597 12:0.905077 13:-0.040356 14:-0.745337 15:0.136729 16:-0.924483 17:-0.945792 18:-0.851697 19:-0.91349 20:-0.441278 21:-0.83115 22:0.303975 23:0.11341 24:0.01618 25:-0.0725487 26:0.356677 27:0.264778 28:-0.666591 29:-0.738194 30:-0.80975 31:-0.654458 32:-0.717186 33:-0.81013 34:-0.504865 35:0.175414 36:-0.121162 
-0 0 0 0 8.6142856423914544 0 1:-0.0825495 2:-0.877616 3:0.278752 4:-0.99166 5:-0.97644 6:-0.718966 7:-0.95041 8:0.658595 9:-0.706773 10:0.467137 11:0.414614 12:0.924425 13:-0.0421584 14:-0.741676 15:0.185718 16:-0.92432 17:-0.94224 18:-0.838242 19:-0.91243 20:-0.442298 21:-0.797788 22:0.37429 23:0.157987 24:0.0108604 25:-0.0503198 26:0.126644 27:0.239237 28:-0.707859 29:-0.73258 30:-0.858875 31:-0.697018 32:-0.728901 33:-0.859252 34:-0.613197 35:0.398962 36:-0.190093 
-0 0 0 0 10 0 1:0.0723121 2:-0.92558 3:0.137016 4:-0.981947 5:-0.98637 6:-0.650349 7:-0.99367 8:0.788148 9:-0.794227 10:0.724702 11:0.67827 12:0.802904 13:0.125259 14:-0.784136 15:0.0746328 16:-0.861057 17:-0.915927 18:-0.821219 19:-0.925584 20:-0.386523 21:-0.819133 22:0.00984673 23:0.352589 24:0.125743 25:-0.135858 26:0.175935 27:0.232451 28:-0.596982 29:-0.590081 30:-0.89602 31:-0.580646 32:-0.583896 33:-0.89546 34:-0.628978 35:0.0147326 36:0.0523403 
-0 0 6.3289114404832354 0 10 9.0145608660887078 1:0.0495103 2:-0.912865 3:0.16621 4:-0.953628 5:-0.986544 6:-0.636408 7:-0.982324 8:0.752312 9:-0.769433 10:0.80876 11:0.762771 12:0.808433 13:0.0347806 14:-0.781053 15:0.10777 16:-0.851196 17:-0.904805 18:-0.798907 19:-0.905749 20:-0.38226 21:-0.789507 22:0.104023 23:0.24984 24:0.0656181 25:-0.0232999 26:0.19239 27:0.249011 28:-0.604938 29:-0.650135 30:-0.882568 31:-0.595867 32:-0.642958 33:-0.881414 34:-0.8021 35:-0.392094 36:0.121169 
-0 0 0 0 10 0 1:-0.110058 2:-0.907118 3:0.128757 4:-0.991836 5:-0.989648 6:-0.652271 7:-0.933646 8:0.735167 9:-0.799674 10:0.476128 11:0.349041 12:0.765643 13:-0.0672731 14:-0.736573 15:0.137782 16:-0.898634 17:-0.93632 18:-0.859675 19:-0.884056 20:-0.443081 21:-0.83847 22:0.227335 23:0.366073 24:0.00711115 25:0.117605 26:0.364244 27:0.269167 28:-0.597879 29:-0.793127 30:-0.840228 31:-0.595117 32:-0.771302 33:-0.839146 34:-0.711314 35:0.0871013 36:-0.319246 
-0 5.3610526508871335 0 0 0 0 1:-0.0836784 2:-0.885269 3:0.204606 4:-0.987681 5:-0.979766 6:-0.611152 7:-0.948418 8:0.678306 9:-0.728426 10:0.652234 11:0.775766 12:0.782967 13:-0.0234027 14:-0.691678 15:0.233053 16:-0.808893 17:-0.834567 18:-0.648889 19:-0.860213 20:-0.417236 21:-0.589842 22:0.22573 23:0.199703 24:-0.34132 25:0.663773 26:-0.221858 27:0.268751 28:-0.400139 29:-0.686904 30:-0.795548 31:-0.392538 32:-0.682506 33:-0.796145 34:-0.801687 35:-0.195382 36:0.00701742 
-0 0 6.8935731233336313 0 0 10 1:0.0174362 2:-0.939997 3:0.0959633 4:-0.991003 5:-0.99459 6:-0.697235 7:-0.989604 8:0.826249 9:-0.836292 10:0.64849 11:0.687783 12:0.612373 13:0.0161972 14:-0.769147 15:0.127113 16:-0.844134 17:-0.925588 18:-0.794739 19:-0.89581 20:-0.406611 21:-0.779514 22:-0.0645241 23:0.192345 24:-0.21558 25:-0.135975 26:0.297936 27:0.325776 28:-0.647442 29:-0.649501 30:-0.776876 31:-0.630997 32:-0.634274 33:-0.772992 34:-0.516836 35:-0.0954129 36:0.0532992 
-0 0 0 0 0 10 1:0.0338406 2:-0.939734 3:0.153804 4:-0.98274 5:-0.994249 6:-0.758449 7:-0.990007 8:0.825619 9:-0.835269 10:0.66878 11:0.687978 12:0.713153 13:0.0473659 14:-0.755945 15:0.187833 16:-0.836594 17:-0.909937 18:-0.650468 19:-0.901481 20:-0.408662 21:-0.615632 22:-0.23256 23:0.265338 24:-0.260559 25:0.0466951 26:0.344406 27:0.302968 28:-0.65568 29:-0.583783 30:-0.743222 31:-0.650027 32:-0.564074 33:-0.742817 34:-0.555076 35:-0.138965 36:0.203076 
-0 0 0 0 10 10 1:0.0964075 2:-0.936705 3:0.17528 4:-0.968324 5:-0.992632 6:-0.774215 7:-0.988932 8:0.817538 9:-0.828233 10:0.743407 11:0.719862 12:0.730702 13:0.0921357 14:-0.682079 15:0.19746 16:-0.824146 17:-0.911625 18:-0.697604 19:-0.903448 20:-0.474891 21:-0.656357 22:-0.150421 23:0.290092 24:-0.164151 25:0.585575 26:0.145929 27:0.146267 28:-0.56615 29:-0.557561 30:-0.793198 31:-0.561857 32:-0.552992 33:-0.800149 34:-0.517582 35:-0.184125 36:0.360246 
-0 0 0 0 10 10 1:0.148436 2:-0.932109 3:0.153417 4:-0.978187 5:-0.99085 6:-0.724171 7:-0.985298 8:0.805078 9:-0.81931 10:0.731159 11:0.863201 12:0.744027 13:0.118218 14:-0.719978 15:0.196001 16:-0.808174 17:-0.908138 18:-0.79652 19:-0.897035 20:-0.439759 21:-0.752514 22:-0.0185771 23:0.209125 24:0.059008 25:0.77112 26:-0.293759 27:0.294907 28:-0.572634 29:-0.653348 30:-0.802285 31:-0.558122 32:-0.644761 33:-0.80044 34:-0.464673 35:-0.174791 36:0.0689548 
-0 0 0 0 0 3.57815038044239 1:0.145313 2:-0.944464 3:0.116104 4:-0.982926 5:-0.99146 6:-0.7497 7:-0.987589 8:0.840154 9:-0.85216 10:0.826255 11:0.886415 12:0.744156 13:0.111297 14:-0.756671 15:0.191377 16:-0.848161 17:-0.915065 18:-0.805441 19:-0.918098 20:-0.41129 21:-0.763412 22:0.163918 23:0.376854 24:0.0780042 25:0.617156 26:-0.47425 27:0.409715 28:-0.558963 29:-0.681959 30:-0.859887 31:-0.553331 32:-0.656748 33:-0.842734 34:-0.56368 35:-0.259317 36:-0.121698 
-4.8640365914784578 -2.6645091811611059 0 0.93415696205846344 2.9631934901643691 0.58411717410045261 1:-0.527443 2:-0.196176 3:0.299812 4:-0.529044 5:-0.0322644 6:-0.191741 7:-0.204468 8:-0.34128 9:-0.432968 10:0.736681 11:0.906956 12:0.757647 13:-0.715934 14:-0.0662548 15:0.400432 16:-0.151327 17:-0.889708 18:-0.796026 19:0.576509 20:-0.838933 21:-0.598368 22:0.494876 23:0.102411 24:0.0512673 25:-1 26:0.680323 27:0.038459 28:-0.370398 29:-0.523665 30:0.104925 31:-0.231971 32:-0.454326 33:0.0648265 34:-0.0566193 35:0.258102 36:0.0373896 
-4.6921504564827279 -3.8922646265658569 5.8801051481469377 0.96679711203203056 4.252013632082206 3.932894655139846 1:-0.607605 2:-0.595504 3:-0.103 4:-0.595915 5:-0.874665 6:-0.915515 7:-0.0493568 8:0.0162977 9:-0.941593 10:-0.982096 11:-0.106247 12:0.165772 13:-0.602361 14:-0.38063 15:0.0937707 16:-0.0196362 17:-0.767497 18:-0.920992 19:0.366507 20:-0.604345 21:-0.911032 22:-0.103654 23:-0.253426 24:0.0723133 25:0.318234 26:0.0311989 27:-0.672075 28:-0.616067 29:-0.539061 30:-0.198061 31:-0.61682 32:-0.538436 33:-0.0995286 34:0.205504 35:-0.151194 36:-0.11187 
-0 -0.81642391359398969 0 0 0 0 1:-0.100511 2:-0.823882 3:-0.187603 4:-0.150617 5:-0.897672 6:-0.884232 7:-0.65387 8:0.543462 9:-0.880317 10:-0.842994 11:-0.117911 12:-0.225032 13:-0.0387866 14:-0.692447 15:0.0630393 16:-0.180666 17:-0.457223 18:-0.894694 19:-0.515801 20:-0.174524 21:-0.892213 22:-0.363462 23:-0.0333817 24:0.097148 25:0.155325 26:-0.191087 27:-1 28:-0.231263 29:-0.422425 30:-0.103966 31:-0.230384 32:-0.419429 33:0.124805 34:0.299783 35:-0.0104783 36:0.041389 
-2.1338166106946339 -5.8043566632275141 2.6013788527507202 0 2.4377731125428252 0 1:0.296228 2:-0.908827 3:-0.206435 4:-0.957043 5:-0.982947 6:-0.811743 7:-0.907917 8:0.742295 9:-0.831855 10:0.282714 11:0.0320196 12:-0.893555 13:0.29578 14:-0.732041 15:0.0810942 16:-0.714208 17:-0.382265 18:-0.858907 19:-0.804802 20:-0.0917293 21:-0.854122 22:-0.656967 23:-0.0760024 24:-0.104072 25:0.504277 26:-0.209092 27:-0.149158 28:0.0575271 29:-0.465153 30:-0.564149 31:0.0578194 32:-0.46138 33:-0.567511 34:0.212949 35:0.0414817 36:0.244471 
-0.61976466196186464 -0 3.5152825947863811 1.1888043244782771 0 2.9422816092543744 1:0.358111 2:-0.912119 3:-0.150693 4:-0.994969 5:-0.988542 6:-0.826283 7:-0.869291 8:0.74952 9:-0.876683 10:-0.00855892 11:0.273153 12:-0.89015 13:0.357837 14:-0.739118 15:0.10557 16:-0.59933 17:-0.279622 18:-0.641716 19:-0.705381 20:-0.0195548 21:-0.638488 22:-0.678594 23:0.153189 24:-0.332122 25:0.523038 26:-0.116348 27:0.180566 28:0.0701278 29:-0.576387 30:-0.757195 31:0.0709391 32:-0.575651 33:-0.764383 34:0.0929885 35:-0.35635 36:0.15608 
-0 -10 0 0 3.310890889093983 0 1:0.321356 2:-0.920112 3:0.144854 4:-0.983651 5:-0.992541 6:-0.820559 7:-0.897616 8:0.770541 9:-0.870128 10:0.825752 11:0.715612 12:0.817337 13:0.169929 14:-0.719462 15:0.14565 16:-0.533639 17:-0.0383811 18:-0.142087 19:-0.747911 20:0.117698 21:-0.143322 22:-0.227613 23:0.278765 24:-0.199862 25:0.538746 26:-0.0783155 27:0.184005 28:0.228808 29:-0.523853 30:-0.514515 31:0.229802 32:-0.523708 33:-0.530506 34:-0.410354 35:-0.638017 36:0.182827 
-0 -0 0.58607348410482241 0 3.2688179007218032 5.5235817374975316 1:0.298397 2:-0.931456 3:0.10898 4:-0.98125 5:-0.99305 6:-0.81325 7:-0.914559 8:0.802445 9:-0.885542 10:0.871848 11:0.821633 12:0.818158 13:0.195232 14:-0.797398 15:0.153808 16:-0.43385 17:0.0107931 18:-0.299851 19:-0.690406 20:0.220365 21:-0.29235 22:-0.225915 23:0.292254 24:-0.214737 25:0.178443 26:0.00947349 27:0.251398 28:0.186005 29:-0.535055 30:-0.458644 31:0.185458 32:-0.53478 33:-0.472942 34:-0.365381 35:-0.72524 36:0.293681 
-0 -0.12765440328570471 0 0 0 0 1:0.322352 2:-0.922228 3:0.141138 4:-0.975148 5:-0.990979 6:-0.837329 7:-0.893915 8:0.777055 9:-0.880246 10:0.872924 11:0.717726 12:0.836185 13:0.163108 14:-0.882328 15:0.183516 16:-0.341975 17:-0.0763815 18:-0.110393 19:-0.645966 20:0.247328 21:-0.0966813 22:-0.222325 23:0.225785 24:-0.274179 25:0.156067 26:0.141115 27:0.19422 28:0.132195 29:-0.36076 30:-0.119388 31:0.13233 32:-0.356449 33:-0.149496 34:-0.463021 35:-0.628327 36:0.28066 
-0.86111032784936603 -0 0 0 0 0 1:0.147881 2:-0.874175 3:0.31963 4:-0.924759 5:-0.965282 6:-0.777162 7:-0.967263 8:0.653187 9:-0.684958 10:0.874346 11:0.827594 12:0.917043 13:0.0227788 14:-0.753833 15:0.177437 16:-0.228952 17:0.409349 18:0.937027 19:-0.568506 20:0.435683 21:0.91094 22:-0.082101 23:0.0823498 24:-0.325663 25:0.644085 26:-0.0804765 27:0.160328 28:0.380179 29:1 30:0.0292709 31:0.385219 32:1 33:-0.00759779 34:-0.469448 35:-0.648441 36:0.443444 
-0.25628064100853598 -0 0 0 0 0 1:0.272384 2:-0.806115 3:0.395392 4:-0.918183 5:-0.927247 6:-0.771976 7:-0.911073 8:0.487183 9:-0.573636 10:0.917194 11:0.860015 12:0.955393 13:0.137308 14:-0.788455 15:0.162992 16:-0.0618822 17:0.375211 18:0.994482 19:-0.497404 20:0.445722 21:0.960038 22:-0.176035 23:0.390805 24:-0.324811 25:0.920727 26:-0.165368 27:0.0212081 28:0.422013 29:0.279752 30:-0.0694314 31:0.446734 32:0.281718 33:-0.102641 34:-0.455211 35:-0.704508 36:0.400025 
-0 -0 0 0.21566713045402044 0 0 1:0.259647 2:-0.797976 3:0.428739 4:-0.948989 5:-0.934604 6:-0.801207 7:-0.92949 8:0.463825 9:-0.532345 10:0.850392 11:0.787843 12:0.963395 13:0.113181 14:-0.743563 15:0.140715 16:-0.457656 17:0.516021 18:0.726374 19:-0.708984 20:0.494814 21:0.692641 22:-0.117661 23:0.122683 24:-0.284822 25:0.781044 26:-0.125387 27:0.212335 28:0.357 29:-0.18723 30:-0.444091 31:0.370361 32:-0.186341 33:-0.461342 34:-0.4079 35:-0.535599 36:0.257391 
-0 -0 0 0.18791799172415263 0 0 1:0.00914428 2:-0.739783 3:0.492251 4:-0.891951 5:-0.893074 6:-0.724643 7:-0.953966 8:0.334367 9:-0.379045 10:0.92246 11:0.901795 12:0.960619 13:0.106935 14:-0.899868 15:0.13119 16:-0.299982 17:0.444047 18:1 19:-0.624085 20:0.598976 21:0.953232 22:-0.0858555 23:0.149521 24:-0.174826 25:0.766386 26:-0.243523 27:0.241361 28:0.521118 29:0.188781 30:-0.383471 31:0.533125 32:0.1942 33:-0.401224 34:-0.447792 35:-0.681735 36:0.329406 
-4.603228045404089 -10 -5.8987796362088742 2.0476799485879456 10 10 1:-0.436738 2:-0.785647 3:0.145425 4:-0.829564 5:-0.941527 6:-0.958404 7:-0.48141 8:0.430214 9:-0.934945 10:-0.983528 11:-0.665225 12:0.754279 13:-0.229459 14:-0.643561 15:0.147839 16:-0.880491 17:-0.979198 18:-0.979381 19:-0.732518 20:-0.550526 21:-0.950219 22:-0.155361 23:-0.58435 24:0.161615 25:0.170925 26:0.00804572 27:-0.17067 28:-0.973725 29:-0.833627 30:-0.644636 31:-0.971778 32:-0.833338 33:-0.642657 34:0.0985846 35:-0.224103 36:-0.257813 
-0 -10 -0 0 0 10 1:0.0992262 2:-0.991944 3:0.0687947 4:-0.965211 5:-0.999962 6:-0.997729 7:-0.987732 8:0.97596 9:-0.987843 10:0.637799 11:0.545713 12:0.626511 13:0.153069 14:-0.738079 15:0.0683125 16:-0.965164 17:-0.996587 18:-0.994267 19:-0.980697 20:-0.48039 21:-0.987311 22:-0.189991 23:0.277978 24:0.0560832 25:0.294734 26:-0.100806 27:0.228941 28:-0.989552 29:-0.955929 30:-0.942896 31:-0.989475 32:-0.955437 33:-0.940824 34:-0.15451 35:-0.190336 36:-0.456267 
-0 -0 -0 0.16980392863500429 0 0 1:-0.0276176 2:-0.990094 3:-0.0743514 4:-0.999949 5:-0.999996 6:-0.999718 7:-0.979103 8:0.970445 9:-0.990728 10:-0.95301 11:0.903876 12:-0.990985 13:0.0175688 14:-0.733542 15:-0.0778574 16:-0.999544 17:-0.999994 18:-0.999812 19:-0.979568 20:-0.486636 21:-0.994028 22:-0.280979 23:0.102042 24:-0.17847 25:0.317722 26:-0.0631084 27:0.100834 28:-0.99991 29:-0.999662 30:-0.999915 31:-0.999898 32:-0.999589 33:-0.999897 34:0.534911 35:-0.621752 36:-0.518602 
-0 -4.1197615726862384 -1.4399878699359332 0 10 10 1:0.0522164 2:-0.988289 3:0.0265116 4:-0.934116 5:-0.999802 6:-0.980006 7:-0.975989 8:0.965151 9:-0.988465 10:0.853328 11:0.794922 12:0.484139 13:0.103843 14:-0.732674 15:0.0395234 16:-0.952868 17:-0.99329 18:-0.987674 19:-0.973641 20:-0.483111 21:-0.985359 22:-0.0400276 23:0.625146 24:-0.184624 25:0.462585 26:0.0110042 27:-0.117785 28:-0.993689 29:-0.972827 30:-0.912406 31:-0.992314 32:-0.972484 33:-0.906036 34:0.242771 35:0.37487 36:0.689434 
-0 -0 -0 0 0 10 1:0.150602 2:-0.986844 3:0.0894359 4:-0.963412 5:-0.999737 6:-0.996922 7:-0.979786 8:0.960887 9:-0.980504 10:0.80292 11:0.688886 12:0.726505 13:0.20104 14:-0.72883 15:0.0979059 16:-0.968667 17:-0.991956 18:-0.991561 19:-0.975745 20:-0.48568 21:-0.978052 22:-0.0173493 23:0.156711 24:-0.264897 25:0.330885 26:-0.0418107 27:-0.00564871 28:-0.988029 29:-0.945044 30:-0.887482 31:-0.988052 32:-0.94505 33:-0.889567 34:0.100993 35:0.0743123 36:0.571898 
-0 -0 -0 0 0 10 1:0.0885077 2:-0.992576 3:0.0391748 4:-0.964223 5:-0.999859 6:-0.986761 7:-0.987792 8:0.977879 9:-0.989704 10:0.790774 11:0.971281 12:0.791452 13:0.137231 14:-0.734842 15:0.0353333 16:-0.974023 17:-0.997223 18:-0.986918 19:-0.986119 20:-0.483697 21:-0.985103 22:0.091323 23:0.472381 24:-0.290984 25:0.223833 26:-0.0411386 27:0.272393 28:-0.990169 29:-0.950687 30:-0.956476 31:-0.989298 32:-0.950692 33:-0.950856 34:-0.170421 35:-0.584772 36:0.496453 
-0 -0 -0 0 0 10 1:0.14975 2:-0.988572 3:0.0682163 4:-0.959717 5:-0.999713 6:-0.994891 7:-0.978725 8:0.966023 9:-0.986673 10:0.941304 11:0.710706 12:0.737952 13:0.197001 14:-0.729511 15:0.0701292 16:-0.968183 17:-0.995769 18:-0.995986 19:-0.976338 20:-0.48752 21:-0.988623 22:0.135983 23:0.413889 24:-0.252678 25:0.360489 26:0.00257257 27:-0.0918576 28:-0.994601 29:-0.980267 30:-0.960168 31:-0.994538 32:-0.980028 33:-0.954272 34:0.395223 35:-0.222983 36:0.285055 
-0.87639561373916708 -1.8859745497158447 -0 0.32537269073167058 0 0 1:0.227793 2:-0.979453 3:0.104299 4:-0.996013 5:-0.999955 6:-0.998048 7:-0.962925 8:0.938955 9:-0.974983 10:0.785055 11:-0.674281 12:-0.0915613 13:0.281757 14:-0.7198 15:0.105323 16:-0.994873 17:-0.995472 18:-0.995799 19:-0.962069 20:-0.495938 21:-0.980137 22:-0.0319116 23:-0.22548 24:-0.348068 25:0.350899 26:-0.000324784 27:0.0617396 28:-0.993179 29:-0.974069 30:-0.970015 31:-0.993158 32:-0.973863 33:-0.97093 34:0.86212 35:0.197392 36:0.244662 
-0 -0 -2.0450619497672018 0 0 0 1:0.0044423 2:-0.987873 3:-0.120331 4:-0.999838 5:-0.999987 6:-0.999556 7:-0.989411 8:0.963851 9:-0.974098 10:-0.932172 11:0.882438 12:-0.992873 13:0.0488333 14:-0.731136 15:-0.124178 16:-0.998925 17:-0.999976 18:-0.99956 19:-0.988838 20:-0.488772 21:-0.983294 22:-0.38284 23:0.0454854 24:-0.0274611 25:0.345267 26:0.0359163 27:0.0982073 28:-0.999765 29:-0.998417 30:-0.999876 31:-0.999747 32:-0.997649 33:-0.999869 34:0.647448 35:-0.255234 36:-0.263227 
-0 -0 -1.099628128030834 0 0 0 1:0.0522695 2:-0.996137 3:-0.072727 4:-0.998839 5:-0.999979 6:-0.998008 7:-0.997992 8:0.988455 9:-0.990352 10:-0.944196 11:0.945123 12:-0.992354 13:0.10312 14:-0.738137 15:-0.0741028 16:-0.997767 17:-0.99986 18:-0.998738 19:-0.997634 20:-0.482437 21:-0.993611 22:-0.216415 23:0.50313 24:-0.308056 25:0.374138 26:-0.0494898 27:0.0476483 28:-0.999486 29:-0.998352 30:-0.999621 31:-0.999333 32:-0.99834 33:-0.999219 34:-0.572985 35:-0.586309 36:0.619145 
-0 -0 -0.26416744204081843 0 0 0 1:0.0991891 2:-0.99829 3:-0.0551962 4:-0.999989 5:-1 6:-0.999927 7:-0.999554 8:0.994882 9:-0.995259 10:0.797174 11:-0.739782 12:-0.99522 13:0.149276 14:-0.740043 15:-0.0580097 16:-0.999692 17:-0.999986 18:-0.999917 19:-0.99943 20:-0.480808 21:-0.997014 22:-0.314395 23:-0.195063 24:-0.0455579 25:0.321178 26:-0.0712377 27:0.0898917 28:-0.999956 29:-0.999702 30:-0.99995 31:-0.99995 32:-0.99957 33:-0.999951 34:-0.190335 35:-0.17053 36:-0.0245586 
-0 -0 -0 0.4202088118141914 0 0 1:0.0129822 2:-0.993859 3:-0.077659 4:-0.99993 5:-0.999999 6:-0.999605 7:-0.991608 8:0.981652 9:-0.989763 10:0.536775 11:-0.764817 12:-0.951756 13:0.0598626 14:-0.736431 15:-0.0794856 16:-0.9992 17:-0.999863 18:-0.999119 19:-0.991644 20:-0.483968 21:-0.993079 22:0.508629 23:-0.403108 24:-0.657765 25:0.357419 26:-0.00798461 27:0.100651 28:-0.999344 29:-0.994414 30:-0.999703 31:-0.999286 32:-0.994278 33:-0.999694 34:-0.797762 35:0.217865 36:-0.214159 
-0 -1.1164096367717267 -0 0 0 0 1:0.00155176 2:-0.994044 3:-0.0650755 4:-0.999975 5:-1 6:-0.999973 7:-0.988669 8:0.982203 9:-0.993176 10:-0.954746 11:0.803454 12:-0.945715 13:0.0467028 14:-0.737548 15:-0.0676306 16:-0.999665 17:-0.999979 18:-0.999956 19:-0.988677 20:-0.483042 21:-0.995773 22:0.282053 23:0.305949 24:0.125758 25:0.326194 26:-0.0431838 27:0.100244 28:-0.999965 29:-0.999893 30:-0.999907 31:-0.999964 32:-0.999891 33:-0.999893 34:-0.433955 35:0.236934 36:-0.361577 
-0 -3.7661182689562387 -0 0 0 0 1:0.0156725 2:-0.991419 3:-0.102126 4:-0.999999 5:-1 6:-0.999994 7:-0.992261 8:0.974384 9:-0.981858 10:0.58697 11:-0.719958 12:-0.984165 13:0.0631408 14:-0.734077 15:-0.104392 16:-0.999937 17:-0.999997 18:-0.999979 19:-0.992756 20:-0.486161 21:-0.988823 22:0.0177002 23:0.242753 24:-0.0927222 25:0.329493 26:-0.0387751 27:0.0930057 28:-0.999986 29:-0.999972 30:-0.999995 31:-0.999986 32:-0.999971 33:-0.999995 34:-0.721873 35:0.195309 36:-0.00417421 
-0 -0 -0 0 0 2.0841245606659986 1:0.140259 2:-0.985006 3:0.0602075 4:-0.944048 5:-0.999073 6:-0.975121 7:-0.975405 8:0.955675 9:-0.979556 10:0.938415 11:0.914961 12:0.94067 13:0.193471 14:-0.727299 15:0.0617643 16:-0.959401 17:-0.996871 18:-0.985423 19:-0.972336 20:-0.490194 21:-0.979961 22:0.240755 23:0.74 24:0.0823448 25:0.483748 26:-0.00863419 27:-0.0728847 28:-0.991718 29:-0.984254 30:-0.943908 31:-0.989869 32:-0.984125 33:-0.940059 34:0.127623 35:-0.473874 36:0.435528 
-1.240350185025008 -0 -0 0 0 10 1:0.186282 2:-0.977785 3:0.109461 4:-0.956881 5:-0.999125 6:-0.984396 7:-0.967176 8:0.934334 9:-0.966223 10:0.925988 11:0.903458 12:0.952332 13:0.233512 14:-0.718618 15:0.114676 16:-0.959617 17:-0.994258 18:-0.97802 19:-0.962193 20:-0.496201 21:-0.960268 22:0.15146 23:0.468018 24:-0.413227 25:0.260352 26:-0.147405 27:0.106442 28:-0.983546 29:-0.947646 30:-0.885447 31:-0.983196 32:-0.946104 33:-0.889616 34:0.00238103 35:-0.700186 36:0.365918 
-0 -0 -0 0 0 6.0383514965248439 1:0.077024 2:-0.990647 3:0.0304866 4:-0.961167 5:-0.999459 6:-0.974094 7:-0.986742 8:0.972279 9:-0.985125 10:0.962839 11:0.97146 12:0.907932 13:0.119771 14:-0.733724 15:0.0256733 16:-0.969459 17:-0.996917 18:-0.978825 19:-0.983511 20:-0.4845 21:-0.978221 22:0.144927 23:0.584741 24:-0.462722 25:0.166576 26:-0.314166 27:0.265627 28:-0.993026 29:-0.958916 30:-0.95088 31:-0.990931 32:-0.948854 33:-0.945996 34:-0.194379 35:-0.756555 36:0.525823 
-0 -0 -1.4475243847311861 0 0 0 1:0.090059 2:-0.999841 3:-0.0214051 4:-0.999928 5:-1 6:-0.999984 7:-0.999894 8:0.999523 9:-0.999569 10:0.857861 11:-0.725649 12:-0.97288 13:0.139461 14:-0.740874 15:-0.0242039 16:-0.999648 17:-0.999991 18:-0.999902 19:-0.999801 20:-0.480064 21:-0.999693 22:-0.121122 23:-0.109523 24:-0.432104 25:0.331462 26:-0.0330961 27:0.0991115 28:-0.999933 29:-0.999796 30:-0.999944 31:-0.999933 32:-0.99979 33:-0.999932 34:-0.424465 35:-0.0392342 36:0.609888 
-0.92890634158794672 -0 -0 0.25095922919511016 0 0 1:0.0888867 2:-0.999779 3:-0.0239158 4:-0.999896 5:-1 6:-0.999906 7:-0.999909 8:0.999337 9:-0.999369 10:0.895023 11:-0.865493 12:-0.991891 13:0.13843 14:-0.740739 15:-0.026225 16:-0.99941 17:-0.99999 18:-0.999751 19:-0.999698 20:-0.480185 21:-0.999465 22:0.105938 23:-0.4505 24:-0.501253 25:0.326363 26:-0.0384406 27:0.0933104 28:-0.999875 29:-0.999685 30:-0.999885 31:-0.999874 32:-0.999685 33:-0.999888 34:-0.54356 35:-0.0762413 36:0.705351 
-0 -0 -0 0 0 10 1:0.093641 2:-0.978051 3:0.169228 4:-0.999546 5:-0.999689 6:-0.991452 7:-0.999656 8:0.934919 9:-0.935187 10:0.94824 11:0.965548 12:0.992411 13:0.143346 14:-0.721143 15:0.175799 16:-0.998221 17:-0.999867 18:-0.996407 19:-0.998916 20:-0.49757 21:-0.95497 22:-0.140358 23:0.333278 24:0.429262 25:0.42281 26:-0.0490814 27:0.069532 28:-0.99926 29:-0.997908 30:-0.99974 31:-0.998582 32:-0.997897 33:-0.999647 34:-0.339228 35:-0.499784 36:0.209853 
-0 -10 -0 0 0.96873562183753703 0 1:0.116229 2:-0.971435 3:0.198446 4:-0.999936 5:-0.999984 6:-0.999711 7:-0.998103 8:0.915375 9:-0.917153 10:-0.744045 11:-0.758567 12:0.999824 13:0.167393 14:-0.718136 15:0.193102 16:-0.999695 17:-0.999989 18:-0.999866 19:-0.997912 20:-0.500302 21:-0.950124 22:-0.248971 23:0.0505084 24:0.490615 25:0.317592 26:-0.0648127 27:0.0918881 28:-0.999953 29:-0.999681 30:-0.999935 31:-0.999941 32:-0.999598 33:-0.999937 34:-0.103915 35:0.0837676 36:0.0183473 
-0 -0 -0 0 10 10 1:0.118538 2:-0.972618 3:0.193955 4:-0.999988 5:-0.999998 6:-0.999962 7:-0.99785 8:0.918838 9:-0.920862 10:0.621383 11:0.570532 12:0.998289 13:0.169273 14:-0.718659 15:0.190263 16:-0.999764 17:-0.999991 18:-0.999899 19:-0.997733 20:-0.499842 21:-0.951549 22:-0.100662 23:0.300762 24:0.294251 25:0.3301 26:-0.0418718 27:0.0931885 28:-0.999951 29:-0.999651 30:-0.999977 31:-0.999952 32:-0.99965 33:-0.999977 34:-0.0530653 35:-0.240524 36:0.0763943 
-0 -0 -0 0 10 10 1:0.118449 2:-0.974329 3:0.187518 4:-0.999996 5:-0.999998 6:-0.999962 7:-0.997864 8:0.923859 9:-0.925871 10:0.896322 11:0.885975 12:1 13:0.170125 14:-0.720226 15:0.184309 16:-0.999963 17:-0.999998 18:-0.999966 19:-0.997738 20:-0.498465 21:-0.95447 22:0.218378 23:0.283223 24:0.327344 25:0.32227 26:-0.0377814 27:0.0943924 28:-0.999985 29:-0.999969 30:-0.999991 31:-0.99998 32:-0.999969 33:-0.999989 34:-0.648159 35:-0.326794 36:0.273806 
-0 -0 -0 0 0 10 1:0.118315 2:-0.973901 3:0.189166 4:-0.99996 5:-0.999999 6:-0.999978 7:-0.997868 8:0.922604 9:-0.924612 10:0.546964 11:0.399218 12:0.986435 13:0.1693 14:-0.71999 15:0.187791 16:-0.999802 17:-0.999997 18:-0.999925 19:-0.99775 20:-0.498672 21:-0.95277 22:0.159718 23:0.197982 24:0.0186022 25:0.323922 26:-0.0259347 27:0.0891349 28:-0.999972 29:-0.999664 30:-0.999969 31:-0.999969 32:-0.999638 33:-0.99997 34:-0.109072 35:-0.0805397 36:0.112759 
-0 -0 -0 0 0 10 1:0.13159 2:-0.978139 3:0.169665 4:-0.999968 5:-1 6:-0.999994 7:-0.995974 8:0.935069 9:-0.938922 10:0.868378 11:0.723244 12:0.971818 13:0.183935 14:-0.723922 15:0.166682 16:-0.999902 17:-0.999998 18:-0.999968 19:-0.99574 20:-0.495196 21:-0.962423 22:0.0716974 23:0.109352 24:0.0558943 25:0.326584 26:-0.0162104 27:0.0940114 28:-0.999969 29:-0.999918 30:-0.999967 31:-0.999968 32:-0.999843 33:-0.999966 34:-0.679701 35:-0.306829 36:0.13483 
-0 -0 -0 0 10 10 1:0.131993 2:-0.977853 3:0.170755 4:-0.999952 5:-0.999998 6:-0.999966 7:-0.995901 8:0.934224 9:-0.938148 10:0.886126 11:0.827817 12:0.994303 13:0.183926 14:-0.723567 15:0.168227 16:-0.999909 17:-0.999995 18:-0.99992 19:-0.995745 20:-0.495509 21:-0.96171 22:0.193425 23:0.321518 24:0.272257 25:0.338191 26:-0.0539725 27:0.0885812 28:-0.999958 29:-0.999921 30:-0.999989 31:-0.999953 32:-0.999894 33:-0.999988 34:-0.347164 35:-0.133018 36:0.00465089 
-0 -0 -0 0 0 10 1:0.137638 2:-0.975155 3:0.18049 4:-0.99999 5:-1 6:-0.999992 7:-0.994918 8:0.926286 9:-0.931167 10:0.435228 11:0.208377 12:0.971826 13:0.189977 14:-0.721393 15:0.177391 16:-0.999857 17:-0.999994 18:-0.999906 19:-0.994669 20:-0.497431 21:-0.957624 22:0.202021 23:0.158407 24:0.097008 25:0.331462 26:-0.0448849 27:0.0928177 28:-0.999954 29:-0.999925 30:-0.999983 31:-0.999954 32:-0.999922 33:-0.999983 34:-0.447015 35:-0.285694 36:0.202356 
-0 -0 -0 0 0 8.7884234868204896 1:0.126527 2:-0.973818 3:0.18776 4:-0.999967 5:-0.999972 6:-0.999459 7:-0.996768 8:0.922369 9:-0.925448 10:0.459142 11:0.434136 12:0.998988 13:0.176706 14:-0.720006 15:0.186199 16:-0.999388 17:-0.999974 18:-0.999471 19:-0.996567 20:-0.498644 21:-0.953096 22:0.0391175 23:0.0987996 24:0.106185 25:0.289701 26:-0.0251211 27:0.0964142 28:-0.999822 29:-0.999533 30:-0.99986 31:-0.999694 32:-0.999504 33:-0.99986 34:-0.16869 35:-0.581089 36:0.151366 
-0 -0.064744799332110484 -0 0 6.5207749787307616 0 1:0.134022 2:-0.984947 3:0.132648 4:-0.999471 5:-0.999813 6:-0.995182 7:-0.995392 8:0.955239 9:-0.959662 10:0.984276 11:0.982434 12:0.99751 13:0.187179 14:-0.728457 15:0.132484 16:-0.998548 17:-0.999937 18:-0.997816 19:-0.994467 20:-0.491132 21:-0.973599 22:0.724504 23:0.778163 24:0.828273 25:0.405008 26:-0.0750676 27:0.0782895 28:-0.999497 29:-0.999257 30:-0.999882 31:-0.999055 32:-0.999091 33:-0.99985 34:-0.554246 35:-0.433509 36:0.132791 
-1.5126568045902311 -0 -0 0.4265659617384111 3.3201352109474351 0 1:0.149726 2:-0.972404 3:0.184597 4:-0.999511 5:-0.999751 6:-0.995049 7:-0.992256 8:0.918297 9:-0.925768 10:0.992664 11:0.986064 12:0.997059 13:0.202858 14:-0.717575 15:0.186795 16:-0.99811 17:-0.99992 18:-0.997546 19:-0.99112 20:-0.500753 21:-0.950954 22:0.408499 23:0.376554 24:0.732969 25:0.405667 26:-0.0680445 27:0.0806618 28:-0.998629 29:-0.997763 30:-0.999713 31:-0.99818 32:-0.997657 33:-0.999699 34:-0.76108 35:-0.629996 36:0.330374 
-0 -10 -0 0 10 10 1:0.153283 2:-0.965048 3:0.213277 4:-0.999946 5:-0.999996 6:-0.999934 7:-0.991573 8:0.896699 9:-0.904832 10:-0.1156 11:-0.332346 12:0.975385 13:0.204117 14:-0.712695 15:0.210391 16:-0.999369 17:-0.999992 18:-0.999764 19:-0.991511 20:-0.505088 21:-0.941116 22:0.1322 23:0.3815 24:0.153028 25:0.320037 26:-0.0516636 27:0.0937676 28:-0.999911 29:-0.999735 30:-0.999856 31:-0.999903 32:-0.999716 33:-0.99986 34:-0.592091 35:-0.189003 36:0.0713257 
-0 -10 -0 0.060174132120663026 1.9869765034405744 0 1:0.158337 2:-0.967115 3:0.204676 4:-0.999939 5:-0.999992 6:-0.999819 7:-0.990317 8:0.902733 9:-0.91209 10:-0.85342 11:-0.887813 12:0.997533 13:0.211145 14:-0.714666 15:0.201048 16:-0.999724 17:-0.999995 18:-0.999901 19:-0.99003 20:-0.503359 21:-0.946154 22:0.0526847 23:-0.122356 24:0.24644 25:0.318082 26:-0.0501458 27:0.0915732 28:-0.999959 29:-0.999877 30:-0.999953 31:-0.999948 32:-0.999862 33:-0.999955 34:-0.721008 35:0.118724 36:-0.19195 
-0 -10 -0 0 10 0 1:0.160614 2:-0.969772 3:0.194474 4:-0.999992 5:-0.999993 6:-0.999893 7:-0.989741 8:0.910501 9:-0.920419 10:0.593647 11:0.541053 12:0.998212 13:0.213995 14:-0.71685 15:0.190753 16:-0.999855 17:-0.999996 18:-0.999934 19:-0.989378 20:-0.50144 21:-0.951343 22:0.426445 23:0.196435 24:0.26674 25:0.319201 26:-0.040608 27:0.0913344 28:-0.999973 29:-0.999926 30:-0.999957 31:-0.999964 32:-0.999926 33:-0.999959 34:-0.747924 35:-0.0937195 36:-0.220959 
-0 -0 -0 0 0 10 1:0.164005 2:-0.971776 3:0.185817 4:-0.999983 5:-1 6:-0.999995 7:-0.988822 8:0.916369 9:-0.927183 10:0.644567 11:0.201155 12:0.879996 13:0.217149 14:-0.718298 15:0.182946 16:-0.999895 17:-0.999997 18:-0.999955 19:-0.988571 20:-0.500164 21:-0.955102 22:0.235813 23:-0.0580843 24:0.0653211 25:0.328054 26:-0.0415663 27:0.0951544 28:-0.999975 29:-0.999943 30:-0.99998 31:-0.999975 32:-0.999942 33:-0.999977 34:-0.272547 35:-0.117565 36:0.274254 
-0 -0.24014932108244036 -0 0 0 0 1:0.16357 2:-0.972189 3:0.184367 4:-0.999982 5:-1 6:-0.999993 7:-0.988941 8:0.91758 9:-0.928278 10:0.103404 11:-0.42021 12:0.859692 13:0.216237 14:-0.718704 15:0.181706 16:-0.999883 17:-0.999996 18:-0.999926 19:-0.988808 20:-0.499806 21:-0.955654 22:0.284083 23:0.030573 24:0.0161867 25:0.326476 26:-0.0401932 27:0.0929955 28:-0.999958 29:-0.999927 30:-0.999972 31:-0.999957 32:-0.999927 33:-0.999972 34:-0.440247 35:-0.143981 36:0.15397 
-0 -0 -0 0 7.5601287986271544 10 1:0.165507 2:-0.97512 3:0.171781 4:-0.999994 5:-0.999996 6:-0.999917 7:-0.988407 8:0.926187 9:-0.937406 10:0.752045 11:0.713875 12:0.998761 13:0.218861 14:-0.721448 15:0.167765 16:-0.999914 17:-0.999996 18:-0.999905 19:-0.988118 20:-0.497384 21:-0.961895 22:0.139196 23:0.225556 24:0.250593 25:0.321759 26:-0.0425117 27:0.0960129 28:-0.999924 29:-0.999926 30:-0.999986 31:-0.999919 32:-0.999925 33:-0.999981 34:-0.76413 35:-0.311768 36:0.396524 
-0 -0 -0 0 0 8.4946584252991713 1:0.165036 2:-0.97596 3:0.168479 4:-0.999996 5:-1 6:-0.999994 7:-0.98854 8:0.928653 9:-0.939743 10:0.932627 11:0.885942 12:0.994567 13:0.218182 14:-0.722128 15:0.165181 16:-0.99993 17:-0.999997 18:-0.99996 19:-0.988312 20:-0.496783 21:-0.963057 22:0.00698401 23:-0.168888 24:-0.0509338 25:0.32899 26:-0.0393378 27:0.0951646 28:-0.999955 29:-0.999925 30:-0.999982 31:-0.999955 32:-0.999925 33:-0.999979 34:-0.814599 35:-0.440256 36:0.393238 
-0 -0.48002881523647462 -0 0 0 10 1:0.151043 2:-0.972108 3:0.188476 4:-0.999954 5:-0.999979 6:-0.999604 7:-0.992104 8:0.917348 9:-0.924967 10:0.323404 11:0.243204 12:0.996616 13:0.203401 14:-0.718727 15:0.184901 16:-0.999398 17:-0.999975 18:-0.999655 19:-0.991689 20:-0.499772 21:-0.95389 22:0.199498 23:0.0242472 24:0.105824 25:0.311834 26:-0.0116698 27:0.0780203 28:-0.999862 29:-0.999448 30:-0.999859 31:-0.999836 32:-0.999342 33:-0.999826 34:-0.55817 35:-0.104427 36:-0.187391 
-0 -10 -0 0 0 0 1:0.156741 2:-0.976704 3:0.16833 4:-0.999975 5:-0.999995 6:-0.999892 7:-0.990734 8:0.930843 9:-0.939798 10:0.501133 11:0.380935 12:0.991421 13:0.210519 14:-0.722391 15:0.165821 16:-0.999733 17:-0.999987 18:-0.999847 19:-0.99019 20:-0.496544 21:-0.962675 22:0.359468 23:0.196224 24:0.33264 25:0.319695 26:-0.0425021 27:0.0923199 28:-0.99995 29:-0.999923 30:-0.999931 31:-0.999942 32:-0.999922 33:-0.999933 34:-0.0354844 35:-0.154208 36:-0.124309 
-0 -0 -0 0 0 1.6483094979028561 1:0.15594 2:-0.978273 3:0.161877 4:-0.999993 5:-1 6:-0.999999 7:-0.990941 8:0.935462 9:-0.944216 10:0.871222 11:0.417679 12:0.813036 13:0.208715 14:-0.723862 15:0.158887 16:-0.99991 17:-0.999995 18:-0.999973 19:-0.990725 20:-0.495248 21:-0.9657 22:0.167836 23:-0.144986 24:0.0189498 25:0.329858 26:-0.0350352 27:0.0929549 28:-0.999981 29:-0.999955 30:-0.999988 31:-0.999981 32:-0.999952 33:-0.999988 34:-0.0869404 35:0.00594807 36:0.270067 
-0 -9.5684176629468602 -0 0 0 0 1:0.156295 2:-0.978209 3:0.16203 4:-0.999992 5:-1 6:-0.999999 7:-0.990852 8:0.935274 9:-0.944114 10:0.603946 11:-0.101217 12:0.733585 13:0.209197 14:-0.723738 15:0.15971 16:-0.999947 17:-0.999996 18:-0.999965 19:-0.990628 20:-0.495358 21:-0.965354 22:0.195836 23:-0.00883701 24:-0.0331194 25:0.330703 26:-0.036418 27:0.0918627 28:-0.999975 29:-0.999962 30:-0.999985 31:-0.999975 32:-0.999961 33:-0.999986 34:-0.275549 35:0.0399785 36:0.116003 
-0 -10 -0 0 0 0 1:0.157342 2:-0.977761 3:0.163578 4:-0.999984 5:-0.999997 6:-0.999943 7:-0.990586 8:0.933955 9:-0.943054 10:0.734685 11:0.638834 12:0.991775 13:0.208174 14:-0.723567 15:0.160829 16:-0.999189 17:-0.999981 18:-0.999529 19:-0.990469 20:-0.4955 21:-0.964471 22:0.261479 23:0.102021 24:0.088279 25:0.33245 26:-0.041084 27:0.0991014 28:-0.999772 29:-0.998711 30:-0.999834 31:-0.999772 32:-0.998711 33:-0.999826 34:-0.390317 35:-0.148715 36:-0.76936 
-0 -0 -0 0 1.1469437959940609 0 1:0.158884 2:-0.977731 3:0.162869 4:-0.999886 5:-0.999981 6:-0.999643 7:-0.990158 8:0.933871 9:-0.943387 10:0.890202 11:0.83399 12:0.994336 13:0.210305 14:-0.723707 15:0.158977 16:-0.999623 17:-0.999982 18:-0.999709 19:-0.990184 20:-0.495377 21:-0.965408 22:0.333553 23:0.561165 24:0.382131 25:0.316777 26:-0.034347 27:0.0903286 28:-0.999779 29:-0.999549 30:-0.999799 31:-0.999765 32:-0.999545 33:-0.999806 34:-0.679392 35:-0.599501 36:0.373402 
-0 -0 -0.38769066907401362 0 0 0 1:0.0839588 2:-0.998209 3:-0.0427288 4:-0.99506 5:-0.999999 6:-0.997501 7:-0.998322 8:0.994642 9:-0.996217 10:-0.355036 11:0.753045 12:-0.766063 13:0.128566 14:-0.734361 15:-0.0448975 16:-0.992462 17:-0.985965 18:-0.998042 19:-0.996037 20:-0.476905 21:-0.996583 22:-0.464503 23:0.581171 24:-0.0357788 25:0.376176 26:-0.0107437 27:0.06304 28:-0.99792 29:-0.987788 30:-0.988443 31:-0.997756 32:-0.987676 33:-0.988695 34:-0.263107 35:-0.378004 36:-0.143063 
-0 -0 -0 0 4.4051086859388091 10 1:-0.0105274 2:-0.987883 3:0.0809512 4:-0.998384 5:-0.999946 6:-0.987051 7:-0.984522 8:0.963896 9:-0.978902 10:0.493459 11:0.830355 12:0.867649 13:0.0220486 14:-0.727349 15:0.0951161 16:-0.984855 17:-0.998741 18:-0.981268 19:-0.973261 20:-0.49135 21:-0.968841 22:-0.337299 23:0.312533 24:-0.256495 25:0.446452 26:0.0960534 27:0.0352283 28:-0.983649 29:-0.991298 30:-0.988956 31:-0.982611 32:-0.988827 33:-0.988676 34:-0.240793 35:-0.419844 36:-0.0863276 
-0 -0 -0 0 0 10 1:0.00589477 2:-0.985663 3:0.122066 4:-0.999455 5:-0.999983 6:-0.999522 7:-0.989667 8:0.957302 9:-0.967298 10:-0.81936 11:-0.582605 12:0.942581 13:0.0434274 14:-0.729758 15:0.132372 16:-0.993057 17:-0.999642 18:-0.993122 19:-0.984252 20:-0.489785 21:-0.969109 22:-0.408596 23:0.398412 24:-0.49289 25:0.329814 26:0.00786564 27:0.0701009 28:-0.990617 29:-0.995036 30:-0.992007 31:-0.990636 32:-0.994732 33:-0.992204 34:-0.688645 35:-0.296392 36:-0.0780277 
-0 -10 -0 0 0 0 1:-0.000954515 2:-0.983472 3:0.130811 4:-0.999138 5:-0.999973 6:-0.999597 7:-0.987677 8:0.950817 9:-0.962751 10:-0.99084 11:-0.969684 12:0.993857 13:0.0427352 14:-0.72833 15:0.128998 16:-0.9982 17:-0.999964 18:-0.999441 19:-0.986816 20:-0.491263 21:-0.976357 22:-0.401105 23:-0.534724 24:0.244617 25:0.340337 26:-0.0357008 27:0.105791 28:-0.999853 29:-0.999572 30:-0.999227 31:-0.999845 32:-0.99957 33:-0.999209 34:-0.211821 35:0.710945 36:-0.558772 
-0 -0 -0 0.1171250345754942 5.4307165981183543 0 1:-0.0260958 2:-0.981868 3:0.125035 4:-0.999485 5:-1 6:-0.99988 7:-0.979515 8:0.946067 9:-0.965945 10:-0.852232 11:0.97085 12:-0.701627 13:0.0181613 14:-0.727082 15:0.122784 16:-0.999424 17:-0.999993 18:-0.999873 19:-0.979714 20:-0.49239 21:-0.978821 22:0.0904115 23:0.528798 24:0.0311736 25:0.322725 26:-0.017233 27:0.108951 28:-0.999981 29:-0.999855 30:-0.999968 31:-0.999977 32:-0.999787 33:-0.999899 34:0.135108 35:-0.440913 36:0.204537 
-0 -0 -0 0 1.3812049827232571 0 1:-0.0387372 2:-0.981231 3:0.11963 4:-0.999988 5:-1 6:-0.999995 7:-0.974709 8:0.944187 9:-0.968745 10:-0.586321 11:0.573616 12:0.328016 13:0.00651181 14:-0.726582 15:0.117214 16:-0.999866 17:-0.999995 18:-0.999929 19:-0.975614 20:-0.492836 21:-0.98063 22:-0.049356 23:-0.17567 24:-0.00419572 25:0.329558 26:-0.0386915 27:0.096851 28:-0.999979 29:-0.999952 30:-0.999973 31:-0.999979 32:-0.999952 33:-0.999967 34:-0.0813702 35:0.21771 36:-0.566369 
-0 -0 -0 0 0 10 1:-0.0410522 2:-0.981119 3:0.118391 4:-0.999991 5:-1 6:-0.999991 7:-0.973739 8:0.943855 9:-0.969356 10:0.298055 11:0.889214 12:0.700866 13:0.00341497 14:-0.726356 15:0.116451 16:-0.999888 17:-0.999995 18:-0.999939 19:-0.974401 20:-0.493036 21:-0.980874 22:-0.138911 23:-0.198243 24:0.0390143 25:0.327534 26:-0.0336942 27:0.0944077 28:-0.999988 29:-0.999964 30:-0.999978 31:-0.999988 32:-0.999959 33:-0.999976 34:-0.00826193 35:0.13794 36:-0.499485 
-0 -0 -0 0 0 3.1176407470013885 1:-0.0393865 2:-0.98151 3:0.117424 4:-0.999995 5:-1 6:-0.999989 7:-0.974441 8:0.945011 9:-0.969829 10:-0.770308 11:-0.51564 12:0.944216 13:0.00551506 14:-0.726777 15:0.115144 16:-0.999789 17:-0.999996 18:-0.999916 19:-0.975181 20:-0.492662 21:-0.98125 22:-0.161247 23:-0.257151 24:0.02214 25:0.329819 26:-0.0395758 27:0.0908518 28:-0.99998 29:-0.999962 30:-0.999977 31:-0.99998 32:-0.999962 33:-0.999978 34:0.551799 35:0.418851 36:0.304528 
-0 -0 -0 0 0 10 1:-0.032151 2:-0.981623 3:0.122372 4:-0.999993 5:-0.999998 6:-0.999877 7:-0.977372 8:0.945346 9:-0.967311 10:0.77263 11:0.825928 12:0.995685 13:0.012041 14:-0.727143 15:0.119082 16:-0.999877 17:-0.999995 18:-0.999892 19:-0.977731 20:-0.492337 21:-0.980014 22:0.13466 23:0.281402 24:0.218297 25:0.346151 26:-0.0388394 27:0.0903083 28:-0.999975 29:-0.999857 30:-0.999984 31:-0.999954 32:-0.999857 33:-0.999984 34:0.129829 35:-0.158125 36:-0.0195312 
-0 -0 -0 0 2.038940728754945 0 1:-0.0290315 2:-0.980016 3:0.133353 4:-0.999929 5:-0.999996 6:-0.9997 7:-0.978559 8:0.940601 9:-0.96141 10:0.857984 11:0.917246 12:0.990871 13:0.0167035 14:-0.725585 15:0.13189 16:-0.999725 17:-0.999994 18:-0.999808 19:-0.979356 20:-0.493719 21:-0.975725 22:0.186355 23:0.244933 24:0.416316 25:0.346931 26:-0.0365176 27:0.0829325 28:-0.99998 29:-0.999806 30:-0.999952 31:-0.999957 32:-0.999805 33:-0.999939 34:-0.000685619 35:-0.129585 36:-0.519035 
-0 -3.905715935545691 -0 0 0 0 1:-0.0213595 2:-0.979615 3:0.140589 4:-0.999991 5:-0.999999 6:-0.999978 7:-0.981412 8:0.939417 9:-0.957448 10:-0.776452 11:-0.622464 12:0.977009 13:0.02433 14:-0.725523 15:0.137647 16:-0.999842 17:-0.999997 18:-0.999941 19:-0.982063 20:-0.493776 21:-0.973832 22:-0.134707 23:-0.146625 24:-0.0306831 25:0.324087 26:-0.0391256 27:0.0907299 28:-0.999988 29:-0.999927 30:-0.999968 31:-0.999985 32:-0.999927 33:-0.999969 34:0.183236 35:0.367327 36:-0.358255 
-0 -0 -0 0 0 10 1:-0.0129041 2:-0.981948 3:0.133409 4:-1 5:-1 6:-0.999999 7:-0.984303 8:0.946304 9:-0.961521 10:-0.630546 11:-0.317427 12:0.936609 13:0.0335831 14:-0.727473 15:0.131167 16:-0.999911 17:-0.999998 18:-0.999974 19:-0.985064 20:-0.492046 21:-0.976134 22:-0.0264627 23:0.0387185 24:-0.0656822 25:0.332073 26:-0.0363601 27:0.0932139 28:-0.999997 29:-0.999982 30:-0.999993 31:-0.999997 32:-0.99998 33:-0.999992 34:-0.0223364 35:0.0249741 36:-0.0497264 
-0 -0 -0 0 5.2786404560241484 10 1:-0.0142204 2:-0.981513 3:0.134942 4:-0.99998 5:-0.999999 6:-0.999988 7:-0.983863 8:0.94502 9:-0.960665 10:-0.974436 11:-0.921429 12:0.986386 13:0.031699 14:-0.727065 15:0.132364 16:-0.999755 17:-0.999998 18:-0.999959 19:-0.984399 20:-0.492408 21:-0.975708 22:-0.294433 23:-0.0244158 24:-0.117895 25:0.335949 26:-0.0328549 27:0.0986747 28:-0.999993 29:-0.999976 30:-0.999982 31:-0.99999 32:-0.999969 33:-0.99997 34:0.329269 35:0.450577 36:0.325734 
-0 -0 -0 0 0 10 1:-0.0251173 2:-0.97903 3:0.141282 4:-0.99998 5:-1 6:-0.999994 7:-0.980046 8:0.937692 9:-0.957053 10:-0.626937 11:0.234147 12:0.611427 13:0.0204344 14:-0.724861 15:0.13975 16:-0.999748 17:-0.999995 18:-0.999906 19:-0.980685 20:-0.494362 21:-0.97304 22:-0.240169 23:-0.273774 24:-0.0492813 25:0.330395 26:-0.024433 27:0.0945194 28:-0.999981 29:-0.999908 30:-0.999975 31:-0.999982 32:-0.999876 33:-0.999973 34:0.170885 35:0.168631 36:-0.29186 
-0 -0 -0 0 0 1.3269553536127368 1:-0.0278441 2:-0.979367 3:0.137804 4:-0.99999 5:-0.999999 6:-0.99995 7:-0.979031 8:0.938686 9:-0.959035 10:0.802342 11:0.884497 12:0.987608 13:0.0174165 14:-0.725197 15:0.135909 16:-0.999801 17:-0.999996 18:-0.999898 19:-0.979651 20:-0.494065 21:-0.97441 22:0.014122 23:-0.263791 24:0.0144069 25:0.32364 26:-0.0265682 27:0.0930107 28:-0.999989 29:-0.999917 30:-0.999977 31:-0.999986 32:-0.999893 33:-0.999977 34:0.176864 35:0.0835293 36:-0.370867 
-0 -0 -0 0 10 0 1:-0.0307352 2:-0.979723 3:0.13403 4:-0.999975 5:-0.999999 6:-0.999979 7:-0.977919 8:0.939736 9:-0.961168 10:-0.448251 11:0.182368 12:0.797494 13:0.0141798 14:-0.725455 15:0.131895 16:-0.99986 17:-0.999996 18:-0.99994 19:-0.978513 20:-0.493836 21:-0.975852 22:-0.0451369 23:-0.282347 24:0.197278 25:0.329199 26:-0.0343374 27:0.0985375 28:-0.999982 29:-0.999954 30:-0.999975 31:-0.999982 32:-0.99995 33:-0.999964 34:0.00204527 35:0.295996 36:-0.22627 
-0 -0 -0 0 10 0 1:-0.0335449 2:-0.979504 3:0.133271 4:-0.999985 5:-0.999999 6:-0.999989 7:-0.976818 8:0.939089 9:-0.961592 10:-0.881559 11:-0.658757 12:0.936973 13:0.0118624 14:-0.725342 15:0.131063 16:-0.999879 17:-0.999997 18:-0.999953 19:-0.977665 20:-0.493936 21:-0.97615 22:-0.178288 23:-0.232939 24:0.237227 25:0.330664 26:-0.0398137 27:0.0965259 28:-0.999987 29:-0.99998 30:-0.999978 31:-0.999987 32:-0.99998 33:-0.999972 34:0.132132 35:0.512013 36:0.226348 
-0 -0 -0 0 2.498253488169655 0 1:-0.021988 2:-0.979535 3:0.140583 4:-0.999911 5:-1 6:-0.999989 7:-0.98116 8:0.939181 9:-0.957457 10:-0.774789 11:0.609699 12:0.0303552 13:0.0243245 14:-0.725198 15:0.138282 16:-0.999566 17:-0.999997 18:-0.99993 19:-0.981913 20:-0.494064 21:-0.973593 22:-0.098907 23:-0.430778 24:0.113088 25:0.329914 26:-0.0484511 27:0.0857974 28:-0.999988 29:-0.999933 30:-0.999969 31:-0.999988 32:-0.999923 33:-0.999964 34:0.140774 35:0.236289 36:0.635787 
-0 -5.4896943144752157 -0 0 0 0 1:-0.0139465 2:-0.980279 3:0.141494 4:-0.999996 5:-0.999999 6:-0.99999 7:-0.983959 8:0.941376 9:-0.956927 10:-0.995672 11:-0.989982 12:0.999593 13:0.0323704 14:-0.72606 15:0.139108 16:-0.999904 17:-0.999997 18:-0.999964 19:-0.984687 20:-0.4933 21:-0.973328 22:0.0100405 23:-0.357667 24:-0.101125 25:0.330118 26:-0.0371029 27:0.0923046 28:-0.999993 29:-0.999987 30:-0.999991 31:-0.999993 32:-0.999986 33:-0.999992 34:0.13567 35:0.589027 36:-0.210759 
-10 -0.47961437305543458 -1.4629474046600364 -0.95295500962173585 1.8005808109709573 1.4451458785187714 1:0.0907356 2:0.370382 3:0.999708 4:-0.999997 5:-0.999951 6:-1 7:-0.9999 8:-0.998645 9:0.998839 10:-0.60418 11:0.611216 12:-0.999505 13:0.139674 14:0.448087 15:0.998584 16:-0.999992 17:-0.999992 18:-0.999987 19:-0.99998 20:-0.9996 21:0.242594 22:-0.0168033 23:-0.543642 24:-0.313357 25:0.319851 26:-0.0394825 27:0.139531 28:-0.999972 29:-0.999992 30:-0.999778 31:-0.999964 32:-0.999992 33:-0.999271 34:-0.585565 35:-0.512529 36:0.122332 
-10 -0 -0 -0 0 0 1:0.0930169 2:0.362236 3:0.999823 4:-0.999969 5:-0.999881 6:-1 7:-0.999822 8:-0.99918 9:0.999298 10:-0.562144 11:0.354423 12:-0.971336 13:0.142502 14:0.439214 15:0.999274 16:-0.999838 17:-0.999955 18:-0.999955 19:-0.999813 20:-0.999768 21:0.24433 22:0.0466341 23:-0.398105 24:-0.361047 25:0.322491 26:-0.041383 27:0.167963 28:-0.999954 29:-0.999974 30:-0.99951 31:-0.99995 32:-0.999973 33:-0.998231 34:-0.376697 35:-0.199214 36:-0.218755 
-10 -0 -0 -0 0 0 1:0.093172 2:0.356904 3:0.999904 4:-0.999985 5:-0.999975 6:-1 7:-0.999822 8:-0.999499 9:0.999617 10:0.329581 11:-0.660525 12:-0.925098 13:0.141939 14:0.435391 15:0.999373 16:-0.999854 17:-0.999947 18:-0.999974 19:-0.99984 20:-0.999826 21:0.244556 22:-0.291166 23:-0.294715 24:-0.200265 25:0.328908 26:-0.0388522 27:0.121447 28:-0.999985 29:-0.999979 30:-0.999319 31:-0.999985 32:-0.999979 33:-0.999142 34:-0.0245761 35:-0.363205 36:-0.114245 
-10 -0 -0 -0 0 0 1:0.094565 2:0.35773 3:0.999882 4:-0.999982 5:-0.999983 6:-1 7:-0.99977 8:-0.999462 9:0.999529 10:0.230906 11:-0.663429 12:-0.879193 13:0.143758 14:0.435846 15:0.999498 16:-0.999873 17:-0.999962 18:-0.999983 19:-0.999786 20:-0.999829 21:0.244856 22:-0.144483 23:-0.272009 24:-0.206512 25:0.331098 26:-0.0416081 27:0.112654 28:-0.999989 29:-0.999984 30:-0.999733 31:-0.999989 32:-0.999984 33:-0.999641 34:0.114389 35:-0.324563 36:-0.187093 
-2.1248811508914258 -0 -0 -0.37471591763209483 0.33461786584649739 0.030724753348852649 1:0.0950389 2:0.351451 3:0.999932 4:-0.999988 5:-0.999845 6:-1 7:-0.999753 8:-0.999679 9:0.99973 10:0.968319 11:-0.965441 12:-0.999152 13:0.14413 14:0.430814 15:0.999706 16:-0.999978 17:-0.999969 18:-0.999984 19:-0.999828 20:-0.999902 21:0.245368 22:0.57561 23:-0.413253 24:-0.350412 25:0.321377 26:-0.0381962 27:0.108098 28:-0.999967 29:-0.999996 30:-0.999993 31:-0.999962 32:-0.999996 33:-0.99993 34:-0.570957 35:-0.273817 36:0.107182 
-0 -0 -0 -0 0.2428755918643781 0 1:0.102388 2:0.350861 3:0.99985 4:-0.999932 5:-0.999999 6:-1 7:-0.999341 8:-0.999754 9:0.999404 10:-0.883323 11:-0.998742 12:0.882141 13:0.15202 14:0.430491 15:0.999728 16:-0.99991 17:-0.999992 18:-0.999983 19:-0.999383 20:-0.99992 21:0.245424 22:-0.390067 23:-0.213341 24:-0.0466839 25:0.328076 26:-0.0458207 27:0.106797 28:-0.999998 29:-0.999979 30:-0.999974 31:-0.999997 32:-0.999975 33:-0.999922 34:0.0365813 35:0.127127 36:-0.3554 
-10 -0 -0 -0 0 0 1:0.118593 2:0.354504 3:0.999448 4:-0.999993 5:-0.999996 6:-1 7:-0.997845 8:-0.999614 9:0.997808 10:-0.569767 11:-0.953462 12:0.295369 13:0.168476 14:0.433768 15:0.999448 16:-0.999917 17:-0.999991 18:-0.99998 19:-0.997908 20:-0.999878 21:0.244734 22:-0.350882 23:-0.426115 24:0.47723 25:0.330209 26:-0.0392221 27:0.108555 28:-0.999997 29:-0.999988 30:-0.999926 31:-0.999997 32:-0.999988 33:-0.999862 34:0.532975 35:-0.411014 36:-0.662567 
-0 -0 -0.22032287295413555 -0.012986979067212658 2.0418248908986416 0 1:0.122679 2:0.351039 3:0.999352 4:-0.999985 5:-0.999982 6:-1 7:-0.997319 8:-0.999742 9:0.997424 10:0.962827 11:-0.999016 12:-0.965552 13:0.173707 14:0.430899 15:0.998895 16:-0.999973 17:-0.999987 18:-0.999979 19:-0.997291 20:-0.999912 21:0.24337 22:-0.0613528 23:-0.402607 24:-0.0978139 25:0.320844 26:-0.0344242 27:0.101098 28:-0.999952 29:-0.999971 30:-0.999917 31:-0.999946 32:-0.999967 33:-0.999899 34:-0.969505 35:0.861014 36:-0.915451 
-0 -0 -0 -0 0 0.19370696080520045 1:0.113643 2:0.334097 3:0.999551 4:-0.999583 5:-0.998878 6:-1 7:-0.998265 8:-0.999614 9:0.998216 10:0.919993 11:-0.890693 12:-0.671438 13:0.16342 14:0.414586 15:0.999408 16:-0.999246 17:-0.999744 18:-0.999955 19:-0.998093 20:-0.999843 21:0.244659 22:0.588996 23:-0.436763 24:-0.254242 25:0.299781 26:-0.0304592 27:0.0441331 28:-0.999885 29:-0.999887 30:-0.998208 31:-0.999813 32:-0.999875 33:-0.997789 34:-0.0953463 35:0.49552 36:-0.134437 
-0 -0 -0 -0 0.63534199136237324 0.67375718860716538 1:0.11507 2:0.307105 3:0.99927 4:-0.998889 5:-0.999375 6:-0.999998 7:-0.997876 8:-0.998878 9:0.997102 10:-0.510224 11:-0.977393 12:0.648818 13:0.165488 14:0.391246 15:0.999224 16:-0.998603 17:-0.999838 18:-0.999945 19:-0.997535 20:-0.999668 21:0.244215 22:-0.24923 23:-0.347428 24:-0.171228 25:0.305331 26:-0.0603139 27:0.0279591 28:-0.999897 29:-0.999712 30:-0.998484 31:-0.999849 32:-0.999656 33:-0.997662 34:-0.222984 35:0.474731 36:-0.257694 
-0 -0 -0 -0 2.2588521265651802 0 1:0.1899 2:0.306266 3:0.994994 4:-0.999437 5:-0.999861 6:-0.999997 7:-0.980344 8:-0.998995 9:0.980151 10:0.564859 11:-0.987028 12:-0.430262 13:0.244533 14:0.392976 15:0.995304 16:-0.998962 17:-0.99965 18:-0.999167 19:-0.979571 20:-0.999579 21:0.235306 22:0.579706 23:-0.125414 24:-0.00605225 25:0.338182 26:-0.0537539 27:0.111476 28:-0.999658 29:-0.999014 30:-0.999176 31:-0.999654 32:-0.998988 33:-0.999116 34:0.272328 35:0.666615 36:-0.314912 
